{"learner":{"attributes":{"best_iteration":"0","best_score":"0.06543875728206952","scikit_learn":"{\"_estimator_type\": \"regressor\"}"},"feature_names":["Volume","Macro_petrol","Macro_altin","Macro_dolar","Macro_bist100","SMA_9","SMA_21","SMA_50","SMA_200","RSI_14","MACD","MACD_Signal","MACD_Hist","BB_Upper","BB_Lower","BB_Middle","STOCH_K","STOCH_D","OBV","MOM_10","CCI_10","ADX","PLUS_DI","MINUS_DI","ATR_14","EMA_9","EMA_21","DC_Upper_20","DC_Lower_20","DC_Mid_20","Log_Return","Volatility_10","Dist_SMA_50","Dist_SMA_200","RSI_Slope","Volume_Change","BB_Width","Body_Size","Upper_Shadow","Lower_Shadow","Macro_petrol_LogRet","Macro_altin_LogRet","Macro_dolar_LogRet","Macro_bist100_LogRet"],"feature_types":["int","float","float","float","float","float","float","float","float","float","float","float","float","float","float","float","float","float","float","float","float","float","float","float","float","float","float","float","float","float","float","float","float","float","float","float","float","float","float","float","float","float","float","float"],"gradient_booster":{"model":{"cats":{"enc":[],"feature_segments":[],"sorted_idx":[]},"gbtree_model_param":{"num_parallel_tree":"1","num_trees":"21"},"iteration_indptr":[0,1,2,3,4,5,6,7,8,9,10,11,12,13,14,15,16,17,18,19,20,21],"tree_info":[0,0,0,0,0,0,0,0,0,0,0,0,0,0,0,0,0,0,0,0,0],"trees":[{"base_weights":[-3.5473566E-9,-6.6718133E-3,3.1017935E-2,-3.827288E-2,4.286556E-3,4.8696168E-2,2.066981E-2,-1.5258945E-2,-9.64705E-2,9.746969E-3,-4.194233E-2,5.197516E-2,-3.8173236E-2,4.4147093E-2,-1.0662415E-2,1.9009693E-3,-6.6389576E-2,-7.282513E-2,-1.3778934E-1,3.8814016E-2,3.7952233E-3,-1.3608936E-2,-7.9670295E-2,6.136587E-2,4.062922E-2,-2.0421264E-1,1.2913734E-2,-3.86624E-2,5.248814E-2,6.2936107E-3,-2.2833657E-2,3.503031E-4,-8.580176E-3,-2.9542295E-3,-1.9069856E-2,-2.401728E-3,-5.5193333E-3,-6.5507847E-3,-2.0680225E-2,5.365379E-4,2.1561142E-3,-1.0381747E-3,5.519293E-4,1.0690485E-3,-1.3806213E-3,-3.1934713E-3,-5.255943E-3,3.2545407E-3,2.689935E-3,-1.4590341E-2,2.0608234E-3,-4.8218234E-4,-1.616028E-2,-2.9615927E-3,1.7905558E-3,-1.3377308E-3,-3.3767333E-3,3.087661E-3,1.5744591E-3,3.8651237E-4,-3.4635754E-3,-1.4960429E-3,6.1234325E-4],"categories":[],"categories_nodes":[],"categories_segments":[],"categories_sizes":[],"default_left":[0,0,0,0,0,0,0,0,0,0,0,0,0,0,0,0,0,0,0,0,0,0,0,0,0,0,0,0,0,0,0,0,0,0,0,0,0,0,0,0,0,0,0,0,0,0,0,0,0,0,0,0,0,0,0,0,0,0,0,0,0,0,0],"id":0,"left_children":[1,3,5,7,9,11,13,15,17,19,21,23,25,27,29,31,33,35,37,39,41,43,45,47,49,51,53,55,57,59,61,-1,-1,-1,-1,-1,-1,-1,-1,-1,-1,-1,-1,-1,-1,-1,-1,-1,-1,-1,-1,-1,-1,-1,-1,-1,-1,-1,-1,-1,-1,-1,-1],"loss_changes":[7.6994176E0,1.0603407E1,1.203814E0,1.0558012E1,5.7396297E0,6.9444084E-1,3.0576055E0,4.9582977E0,2.1725826E0,3.5178013E0,2.5665607E0,2.471447E-1,7.5757515E-1,1.6431751E0,3.6769912E-1,3.7497237E0,3.2450647E0,1.319756E0,1.4628506E0,4.176793E-1,3.0029733E0,6.733341E-1,4.0745926E-1,3.257799E-2,2.1974325E-1,4.8308223E-1,1.1610536E-1,7.314256E-2,4.1810465E-1,8.14124E-2,2.5818837E-1,0E0,0E0,0E0,0E0,0E0,0E0,0E0,0E0,0E0,0E0,0E0,0E0,0E0,0E0,0E0,0E0,0E0,0E0,0E0,0E0,0E0,0E0,0E0,0E0,0E0,0E0,0E0,0E0,0E0,0E0,0E0,0E0],"parents":[2147483647,0,0,1,1,2,2,3,3,4,4,5,5,6,6,7,7,8,8,9,9,10,10,11,11,12,12,13,13,14,14,15,15,16,16,17,17,18,18,19,19,20,20,21,21,22,22,23,23,24,24,25,25,26,26,27,27,28,28,29,29,30,30],"right_children":[2,4,6,8,10,12,14,16,18,20,22,24,26,28,30,32,34,36,38,40,42,44,46,48,50,52,54,56,58,60,62,-1,-1,-1,-1,-1,-1,-1,-1,-1,-1,-1,-1,-1,-1,-1,-1,-1,-1,-1,-1,-1,-1,-1,-1,-1,-1,-1,-1,-1,-1,-1,-1],"split_conditions":[9.41E1,1.947354E1,1.8003E3,5.092273E3,1.0422145E4,5.225889E-1,2.451287E3,1.8812E3,6.4512956E-1,7.52926E3,3.294902E1,3.1472687E1,3.3724425E0,9.792E1,1.5346448E7,5.986378E-1,3.423655E8,8.477E1,7.179982E8,1.97313E1,2.93879E1,2.3322E3,3.64371E1,2.6306357E-2,7.116158E-2,3.8154885E-1,4.617013E0,9.784152E-1,2.3907874E3,3.5557276E-1,7.905752E-1,3.503031E-4,-8.580176E-3,-2.9542295E-3,-1.9069856E-2,-2.401728E-3,-5.5193333E-3,-6.5507847E-3,-2.0680225E-2,5.365379E-4,2.1561142E-3,-1.0381747E-3,5.519293E-4,1.0690485E-3,-1.3806213E-3,-3.1934713E-3,-5.255943E-3,3.2545407E-3,2.689935E-3,-1.4590341E-2,2.0608234E-3,-4.8218234E-4,-1.616028E-2,-2.9615927E-3,1.7905558E-3,-1.3377308E-3,-3.3767333E-3,3.087661E-3,1.5744591E-3,3.8651237E-4,-3.4635754E-3,-1.4960429E-3,6.1234325E-4],"split_indices":[1,3,2,4,4,32,4,2,33,4,3,21,14,1,0,32,0,1,0,3,3,2,3,31,36,11,23,24,4,32,11,0,0,0,0,0,0,0,0,0,0,0,0,0,0,0,0,0,0,0,0,0,0,0,0,0,0,0,0,0,0,0,0],"split_type":[0,0,0,0,0,0,0,0,0,0,0,0,0,0,0,0,0,0,0,0,0,0,0,0,0,0,0,0,0,0,0,0,0,0,0,0,0,0,0,0,0,0,0,0,0,0,0,0,0,0,0,0,0,0,0,0,0,0,0,0,0,0,0],"sum_hessian":[3.7203E4,3.0618E4,6.585E3,7.883E3,2.2735E4,2.43E3,4.155E3,5.65E3,2.233E3,2.0334E4,2.401E3,2.342E3,8.8E1,2.375E3,1.78E3,4.231E3,1.419E3,1.422E3,8.11E2,3.455E3,1.6879E4,1.372E3,1.029E3,1.279E3,1.063E3,2E1,6.8E1,2.17E2,2.158E3,7.44E2,1.036E3,4.111E3,1.2E2,1.388E3,3.1E1,8.58E2,5.64E2,7.93E2,1.8E1,4.6E2,2.995E3,3.844E3,1.3035E4,3.92E2,9.8E2,6.37E2,3.92E2,8.52E2,4.27E2,1E0,1.062E3,8E0,1.2E1,1.6E1,5.2E1,1.55E2,6.2E1,1.496E3,6.62E2,7.31E2,1.3E1,8.62E2,1.74E2],"tree_param":{"num_deleted":"0","num_feature":"44","num_nodes":"63","size_leaf_vector":"1"}},{"base_weights":[-2.7029723E-6,2.2330273E-2,-8.4221E-3,2.3989331E-2,-1.5797995E-1,-6.187167E-2,3.0953023E-3,-2.0452522E-2,3.0765256E-2,-3.5621086E-1,-5.3119175E-2,-3.581963E-2,-9.166271E-2,8.297217E-3,-3.9848857E-2,4.032572E-3,-3.586513E-2,5.1710896E-2,2.3926707E-2,-2.12955E-2,-2.2158054E-1,6.1159343E-3,-1.5382722E-1,1.157369E-2,-6.606647E-2,-6.918944E-2,-1.3093342E-1,3.327367E-2,2.4949382E-3,-1.2928715E-2,-7.5694986E-2,5.1678007E-4,-1.7853341E-3,-1.9793527E-3,7.3254487E-4,-4.3805316E-4,2.7798687E-3,5.415404E-4,2.451602E-3,-1.9101733E-3,-1.2572439E-2,-6.5069087E-3,8.3559466E-4,-9.003235E-3,-3.4066166E-3,1.2387851E-3,-5.101206E-3,-2.6123512E-3,-9.295556E-3,-1.7569344E-3,-4.7165356E-3,-6.223658E-3,-1.9700635E-2,1.743611E-3,-9.883218E-4,-1.3988276E-3,5.0258846E-4,1.0157322E-3,-1.3116606E-3,-3.2427832E-3,-5.498808E-3],"categories":[],"categories_nodes":[],"categories_segments":[],"categories_sizes":[],"default_left":[0,0,0,0,0,0,0,0,0,0,0,0,0,0,0,0,0,0,0,0,0,0,0,0,0,0,0,0,0,0,0,0,0,0,0,0,0,0,0,0,0,0,0,0,0,0,0,0,0,0,0,0,0,0,0,0,0,0,0,0,0],"id":1,"left_children":[1,3,5,7,9,11,13,15,17,19,21,23,25,27,29,31,33,35,37,-1,39,41,43,45,47,49,51,53,55,57,59,-1,-1,-1,-1,-1,-1,-1,-1,-1,-1,-1,-1,-1,-1,-1,-1,-1,-1,-1,-1,-1,-1,-1,-1,-1,-1,-1,-1,-1,-1],"loss_changes":[6.9956636E0,3.050881E0,1.6633095E1,3.0402827E0,1.9142365E0,3.7143192E0,4.9663324E0,5.0432324E-1,1.2533817E0,2.059021E-1,3.7079883E-1,3.6662195E0,1.9625378E0,2.8735428E0,2.31691E0,1.29866E-1,1.5475368E-1,5.0696135E-1,2.1710398E0,0E0,6.159669E-2,5.9924573E-2,3.94454E-2,1.4977481E0,2.5755944E0,1.2148857E0,1.3309965E0,3.176241E-1,3.705752E0,6.077918E-1,3.7559986E-1,0E0,0E0,0E0,0E0,0E0,0E0,0E0,0E0,0E0,0E0,0E0,0E0,0E0,0E0,0E0,0E0,0E0,0E0,0E0,0E0,0E0,0E0,0E0,0E0,0E0,0E0,0E0,0E0,0E0,0E0],"parents":[2147483647,0,0,1,1,2,2,3,3,4,4,5,5,6,6,7,7,8,8,9,9,10,10,11,11,12,12,13,13,14,14,15,15,16,16,17,17,18,18,20,20,21,21,22,22,23,23,24,24,25,25,26,26,27,27,28,28,29,29,30,30],"right_children":[2,4,6,8,10,12,14,16,18,20,22,24,26,28,30,32,34,36,38,-1,40,42,44,46,48,50,52,54,56,58,60,-1,-1,-1,-1,-1,-1,-1,-1,-1,-1,-1,-1,-1,-1,-1,-1,-1,-1,-1,-1,-1,-1,-1,-1,-1,-1,-1,-1,-1,-1],"split_conditions":[4.6178755E3,7.4894917E-1,1.97313E1,1.376228E1,3.3724425E0,5.092273E3,1.0422145E4,8.886E1,2.418287E3,2.6714627E8,1.7127E3,1.8425E3,6.4512956E-1,7.725859E3,3.294902E1,5.4551065E-1,3.676349E-1,9.792E1,1.849162E1,-2.12955E-2,3.2655828E3,3.489433E0,3.1263096E0,1.2518305E0,1.1954354E-1,1.8488E3,7.179982E8,5.6643516E-2,2.93879E1,2.3322E3,2.9259E3,5.1678007E-4,-1.7853341E-3,-1.9793527E-3,7.3254487E-4,-4.3805316E-4,2.7798687E-3,5.415404E-4,2.451602E-3,-1.9101733E-3,-1.2572439E-2,-6.5069087E-3,8.3559466E-4,-9.003235E-3,-3.4066166E-3,1.2387851E-3,-5.101206E-3,-2.6123512E-3,-9.295556E-3,-1.7569344E-3,-4.7165356E-3,-6.223658E-3,-1.9700635E-2,1.743611E-3,-9.883218E-4,-1.3988276E-3,5.0258846E-4,1.0157322E-3,-1.3116606E-3,-3.2427832E-3,-5.498808E-3],"split_indices":[4,32,3,3,14,4,4,1,4,0,2,2,33,4,3,33,36,1,3,0,4,14,34,33,32,2,0,31,3,2,2,0,0,0,0,0,0,0,0,0,0,0,0,0,0,0,0,0,0,0,0,0,0,0,0,0,0,0,0,0,0],"split_type":[0,0,0,0,0,0,0,0,0,0,0,0,0,0,0,0,0,0,0,0,0,0,0,0,0,0,0,0,0,0,0,0,0,0,0,0,0,0,0,0,0,0,0,0,0,0,0,0,0,0,0,0,0,0,0,0,0,0,0,0,0],"sum_hessian":[3.7203E4,1.0185E4,2.7018E4,1.0093E4,9.2E1,4.789E3,2.2229E4,1.335E3,8.758E3,3.1E1,6.1E1,2.556E3,2.233E3,1.9828E4,2.401E3,5.16E2,8.19E2,2.154E3,6.604E3,1.9E1,1.2E1,3.9E1,2.2E1,9.96E2,1.56E3,1.422E3,8.11E2,3.737E3,1.6091E4,1.372E3,1.029E3,4.46E2,7E1,7.63E2,5.6E1,1.3E2,2.024E3,4.341E3,2.263E3,2E0,1E1,2E0,3.7E1,1.6E1,6E0,8.93E2,1.03E2,1.4E3,1.6E2,6.05E2,8.17E2,7.93E2,1.8E1,3.628E3,1.09E2,3.197E3,1.2894E4,3.92E2,9.8E2,7.84E2,2.45E2],"tree_param":{"num_deleted":"0","num_feature":"44","num_nodes":"61","size_leaf_vector":"1"}},{"base_weights":[-5.480026E-6,-6.071322E-3,2.8195253E-2,-3.470442E-2,3.8578399E-3,4.5104373E-2,1.829769E-2,-1.3987169E-2,-8.709408E-2,8.785443E-3,-3.7860177E-2,4.8184797E-2,-3.64972E-2,3.9873473E-2,-1.0496444E-2,1.4831177E-3,-6.008313E-2,-6.296168E-2,-1.2012603E-1,3.334515E-2,2.9184078E-3,-1.2282494E-2,-7.1918726E-2,5.7070456E-2,3.7449997E-2,-1.921635E-1,1.14084445E-2,-3.5203684E-2,4.7435746E-2,5.5995206E-3,-2.2049962E-2,3.0899304E-4,-7.907039E-3,-2.658448E-3,-1.7916188E-2,-1.9165978E-3,-4.9868594E-3,-5.737397E-3,-1.8767446E-2,4.4885773E-4,1.8290648E-3,-1.0683265E-3,4.7746106E-4,9.650749E-4,-1.2461444E-3,-2.9425311E-3,-4.890394E-3,3.0650662E-3,2.5129688E-3,-1.423912E-2,1.9010518E-3,-5.060434E-4,-1.5170561E-2,1.5300203E-3,-3.3087141E-3,-1.1965709E-3,-3.1278587E-3,2.7958676E-3,1.410671E-3,3.4770786E-4,-3.2814273E-3,2.0829763E-3,-1.2830318E-3],"categories":[],"categories_nodes":[],"categories_segments":[],"categories_sizes":[],"default_left":[0,0,0,0,0,0,0,0,0,0,0,0,0,0,0,0,0,0,0,0,0,0,0,0,0,0,0,0,0,0,0,0,0,0,0,0,0,0,0,0,0,0,0,0,0,0,0,0,0,0,0,0,0,0,0,0,0,0,0,0,0,0,0],"id":2,"left_children":[1,3,5,7,9,11,13,15,17,19,21,23,25,27,29,31,33,35,37,39,41,43,45,47,49,51,53,55,57,59,61,-1,-1,-1,-1,-1,-1,-1,-1,-1,-1,-1,-1,-1,-1,-1,-1,-1,-1,-1,-1,-1,-1,-1,-1,-1,-1,-1,-1,-1,-1,-1,-1],"loss_changes":[6.364332E0,8.705197E0,1.1014018E0,8.555837E0,4.674169E0,6.1283255E-1,2.5823586E0,4.0299172E0,1.7732468E0,2.930027E0,2.091592E0,2.2135162E-1,6.658914E-1,1.3506532E0,3.3132714E-1,3.17376E0,2.909111E0,1.1673384E0,1.2499313E0,3.0887556E-1,2.6434932E0,5.486294E-1,3.4271526E-1,3.3804417E-2,2.0661163E-1,4.222176E-1,1.0476352E-1,6.572011E-2,3.504176E-1,7.234002E-2,2.3961437E-1,0E0,0E0,0E0,0E0,0E0,0E0,0E0,0E0,0E0,0E0,0E0,0E0,0E0,0E0,0E0,0E0,0E0,0E0,0E0,0E0,0E0,0E0,0E0,0E0,0E0,0E0,0E0,0E0,0E0,0E0,0E0,0E0],"parents":[2147483647,0,0,1,1,2,2,3,3,4,4,5,5,6,6,7,7,8,8,9,9,10,10,11,11,12,12,13,13,14,14,15,15,16,16,17,17,18,18,19,19,20,20,21,21,22,22,23,23,24,24,25,25,26,26,27,27,28,28,29,29,30,30],"right_children":[2,4,6,8,10,12,14,16,18,20,22,24,26,28,30,32,34,36,38,40,42,44,46,48,50,52,54,56,58,60,62,-1,-1,-1,-1,-1,-1,-1,-1,-1,-1,-1,-1,-1,-1,-1,-1,-1,-1,-1,-1,-1,-1,-1,-1,-1,-1,-1,-1,-1,-1,-1,-1],"split_conditions":[9.41E1,1.947354E1,1.8003E3,5.092273E3,1.0422145E4,5.225889E-1,2.451287E3,1.8812E3,5.979129E-1,7.6628594E3,3.294902E1,3.1472687E1,3.3724425E0,9.792E1,1.5346448E7,5.986378E-1,3.423655E8,8.477E1,7.179982E8,1.97313E1,2.93879E1,2.3322E3,3.64877E1,2.4935188E-2,7.116158E-2,3.8154885E-1,6.6057764E9,9.784152E-1,2.3907874E3,3.5557276E-1,9.444E1,3.0899304E-4,-7.907039E-3,-2.658448E-3,-1.7916188E-2,-1.9165978E-3,-4.9868594E-3,-5.737397E-3,-1.8767446E-2,4.4885773E-4,1.8290648E-3,-1.0683265E-3,4.7746106E-4,9.650749E-4,-1.2461444E-3,-2.9425311E-3,-4.890394E-3,3.0650662E-3,2.5129688E-3,-1.423912E-2,1.9010518E-3,-5.060434E-4,-1.5170561E-2,1.5300203E-3,-3.3087141E-3,-1.1965709E-3,-3.1278587E-3,2.7958676E-3,1.410671E-3,3.4770786E-4,-3.2814273E-3,2.0829763E-3,-1.2830318E-3],"split_indices":[1,3,2,4,4,32,4,2,33,4,3,21,14,1,0,32,0,1,0,3,3,2,3,31,36,11,18,24,4,32,1,0,0,0,0,0,0,0,0,0,0,0,0,0,0,0,0,0,0,0,0,0,0,0,0,0,0,0,0,0,0,0,0],"split_type":[0,0,0,0,0,0,0,0,0,0,0,0,0,0,0,0,0,0,0,0,0,0,0,0,0,0,0,0,0,0,0,0,0,0,0,0,0,0,0,0,0,0,0,0,0,0,0,0,0,0,0,0,0,0,0,0,0,0,0,0,0,0,0],"sum_hessian":[3.7203E4,3.0618E4,6.585E3,7.883E3,2.2735E4,2.43E3,4.155E3,5.65E3,2.233E3,2.0334E4,2.401E3,2.342E3,8.8E1,2.375E3,1.78E3,4.231E3,1.419E3,1.292E3,9.41E2,3.92E3,1.6414E4,1.372E3,1.029E3,1.279E3,1.063E3,2E1,6.8E1,2.17E2,2.158E3,7.44E2,1.036E3,4.111E3,1.2E2,1.388E3,3.1E1,7.75E2,5.17E2,9.23E2,1.8E1,4.6E2,3.46E3,3.52E3,1.2894E4,3.92E2,9.8E2,6.86E2,3.43E2,7.84E2,4.95E2,1E0,1.062E3,8E0,1.2E1,5.5E1,1.3E1,1.55E2,6.2E1,1.496E3,6.62E2,7.31E2,1.3E1,5.5E1,9.81E2],"tree_param":{"num_deleted":"0","num_feature":"44","num_nodes":"63","size_leaf_vector":"1"}},{"base_weights":[-7.692226E-6,2.0251663E-2,-7.645347E-3,2.28437E-2,-7.840275E-2,-5.6572113E-2,2.6523676E-3,-1.9391533E-2,2.9324051E-2,1.3520409E-2,-1.5673111E-1,-2.7141578E-2,-8.0993354E-2,7.3092417E-3,-3.5970546E-2,3.5200964E-3,-3.408212E-2,2.338065E-2,4.651437E-2,2.9690517E-2,-9.4451584E-2,-2.3920718E-1,-3.458077E-2,-2.6428266E-3,-7.933695E-2,-5.5689488E-2,-1.3889377E-1,2.8817695E-2,2.1896362E-3,-1.1668572E-2,-6.833039E-2,4.7558392E-4,-1.7125566E-3,-2.0794764E-3,-3.8918332E-4,2.336593E-3,5.877117E-4,8.241719E-3,2.1821533E-3,-9.9978526E-5,2.0546042E-3,-2.6201743E-3,-7.789891E-3,-7.1932673E-3,-1.6338442E-2,1.3698883E-3,-4.6670334E-3,4.4704878E-4,-5.6947838E-3,-7.081933E-3,-3.0354403E-3,-8.139819E-4,-3.8531765E-3,-6.608657E-3,-3.215822E-2,1.6502388E-3,5.1055645E-4,-1.2780671E-3,4.5358978E-4,9.16944E-4,-1.1839006E-3,-4.501523E-3,-2.6770432E-3],"categories":[],"categories_nodes":[],"categories_segments":[],"categories_sizes":[],"default_left":[0,0,0,0,0,0,0,0,0,0,0,0,0,0,0,0,0,0,0,0,0,0,0,0,0,0,0,0,0,0,0,0,0,0,0,0,0,0,0,0,0,0,0,0,0,0,0,0,0,0,0,0,0,0,0,0,0,0,0,0,0,0,0],"id":3,"left_children":[1,3,5,7,9,11,13,15,17,19,21,23,25,27,29,31,33,35,37,39,41,43,45,47,49,51,53,55,57,59,61,-1,-1,-1,-1,-1,-1,-1,-1,-1,-1,-1,-1,-1,-1,-1,-1,-1,-1,-1,-1,-1,-1,-1,-1,-1,-1,-1,-1,-1,-1,-1,-1],"loss_changes":[5.7568774E0,2.6065125E0,1.3613237E1,2.7173061E0,1.8813692E0,3.3743963E0,4.0151434E0,4.4474906E-1,8.781781E-1,2.1406049E-1,1.4122295E0,2.7260242E0,3.7531872E0,2.1935334E0,1.888155E0,1.1732775E-1,1.586101E-1,1.7361779E0,7.436161E-1,3.8381726E-2,3.3107534E-2,6.5424585E-1,2.1378474E-1,1.8722558E0,7.817459E-1,1.5048633E0,2.558422E0,2.980473E-1,3.073589E0,4.9522597E-1,3.257413E-1,0E0,0E0,0E0,0E0,0E0,0E0,0E0,0E0,0E0,0E0,0E0,0E0,0E0,0E0,0E0,0E0,0E0,0E0,0E0,0E0,0E0,0E0,0E0,0E0,0E0,0E0,0E0,0E0,0E0,0E0,0E0,0E0],"parents":[2147483647,0,0,1,1,2,2,3,3,4,4,5,5,6,6,7,7,8,8,9,9,10,10,11,11,12,12,13,13,14,14,15,15,16,16,17,17,18,18,19,19,20,20,21,21,22,22,23,23,24,24,25,25,26,26,27,27,28,28,29,29,30,30],"right_children":[2,4,6,8,10,12,14,16,18,20,22,24,26,28,30,32,34,36,38,40,42,44,46,48,50,52,54,56,58,60,62,-1,-1,-1,-1,-1,-1,-1,-1,-1,-1,-1,-1,-1,-1,-1,-1,-1,-1,-1,-1,-1,-1,-1,-1,-1,-1,-1,-1,-1,-1,-1,-1],"split_conditions":[4.6178755E3,5.225889E-1,1.947354E1,1.376228E1,2.3496858E9,1.8488E3,1.0422145E4,8.886E1,1.849162E1,1.5236511E1,1.84429E1,5.322672E3,4.955822E-1,7.725859E3,3.294902E1,5.4551065E-1,2.4235176E1,2.418287E3,1.4321E4,7.568491E8,4.484376E3,1.2518305E0,1.6717E3,1.2518305E0,7.3228154E0,7.955E1,7.179982E8,4.338187E-2,2.93879E1,2.3322E3,3.1705906E1,4.7558392E-4,-1.7125566E-3,-2.0794764E-3,-3.8918332E-4,2.336593E-3,5.877117E-4,8.241719E-3,2.1821533E-3,-9.9978526E-5,2.0546042E-3,-2.6201743E-3,-7.789891E-3,-7.1932673E-3,-1.6338442E-2,1.3698883E-3,-4.6670334E-3,4.4704878E-4,-5.6947838E-3,-7.081933E-3,-3.0354403E-3,-8.139819E-4,-3.8531765E-3,-6.608657E-3,-3.215822E-2,1.6502388E-3,5.1055645E-4,-1.2780671E-3,4.5358978E-4,9.16944E-4,-1.1839006E-3,-4.501523E-3,-2.6770432E-3],"split_indices":[4,32,3,3,18,2,4,1,3,19,3,4,33,4,3,33,23,4,0,18,4,33,2,33,8,1,0,31,3,2,14,0,0,0,0,0,0,0,0,0,0,0,0,0,0,0,0,0,0,0,0,0,0,0,0,0,0,0,0,0,0,0,0],"split_type":[0,0,0,0,0,0,0,0,0,0,0,0,0,0,0,0,0,0,0,0,0,0,0,0,0,0,0,0,0,0,0,0,0,0,0,0,0,0,0,0,0,0,0,0,0,0,0,0,0,0,0,0,0,0,0,0,0,0,0,0,0,0,0],"sum_hessian":[3.7203E4,1.0185E4,2.7018E4,9.925E3,2.6E2,4.697E3,2.2321E4,1.32E3,8.605E3,1.2E2,1.4E2,2.131E3,2.566E3,1.992E4,2.401E3,5.16E2,8.04E2,6.396E3,2.209E3,1.05E2,1.5E1,8.3E1,5.7E1,1.451E3,6.8E2,1.787E3,7.79E2,3.829E3,1.6091E4,1.372E3,1.029E3,4.46E2,7E1,6.25E2,1.79E2,2.125E3,4.271E3,5.1E1,2.158E3,2.8E1,7.7E1,1E1,5E0,4.1E1,4.2E1,2.8E1,2.9E1,1.315E3,1.36E2,1.55E2,5.25E2,6.29E2,1.158E3,7.7E2,9E0,3.125E3,7.04E2,3.197E3,1.2894E4,3.92E2,9.8E2,4.15E2,6.14E2],"tree_param":{"num_deleted":"0","num_feature":"44","num_nodes":"63","size_leaf_vector":"1"}},{"base_weights":[-9.741793E-6,-5.5331164E-3,2.5669003E-2,-3.147664E-2,3.463376E-3,4.185157E-2,1.6197037E-2,-1.261002E-2,-7.918648E-2,7.90912E-3,-3.417512E-2,-1.962086E-1,4.271855E-2,3.608409E-2,-1.03430115E-2,1.3246625E-3,-5.4130416E-2,-5.9340317E-2,-1.1386862E-1,3.1982165E-2,2.9799521E-3,-6.345644E-4,-5.54026E-2,-3.0540524E-2,-1.1958971E-2,4.494706E-2,-1.910744E-2,-3.2670263E-2,4.3009683E-2,5.2809087E-3,-2.1049729E-2,2.8028776E-4,-7.2086337E-3,-2.3811E-3,-1.6747244E-2,-1.4443652E-3,-4.091416E-3,-5.412338E-3,-1.714051E-2,3.2500736E-4,1.7946229E-3,-8.7416265E-4,4.5076982E-4,8.7121356E-4,-6.8881037E-4,-4.259062E-3,-2.1285007E-3,-1.5542544E-4,-2.1351138E-3,2.745106E-3,1.8298206E-3,1.3905037E-3,-6.0461606E-3,-1.1038834E-3,-2.9190488E-3,2.540294E-3,1.2670818E-3,2.1380174E-3,1.4275683E-4,-1.7860379E-3,-3.224786E-4],"categories":[],"categories_nodes":[],"categories_segments":[],"categories_sizes":[],"default_left":[0,0,0,0,0,0,0,0,0,0,0,0,0,0,0,0,0,0,0,0,0,0,0,0,0,0,0,0,0,0,0,0,0,0,0,0,0,0,0,0,0,0,0,0,0,0,0,0,0,0,0,0,0,0,0,0,0,0,0,0,0],"id":4,"left_children":[1,3,5,7,9,11,13,15,17,19,21,23,25,27,29,31,33,35,37,39,41,43,45,47,-1,49,51,53,55,57,59,-1,-1,-1,-1,-1,-1,-1,-1,-1,-1,-1,-1,-1,-1,-1,-1,-1,-1,-1,-1,-1,-1,-1,-1,-1,-1,-1,-1,-1,-1],"loss_changes":[5.2769094E0,7.1466045E0,1.0088291E0,7.0955734E0,3.8047106E0,5.1012325E-1,2.193924E0,3.2695909E0,1.5309229E0,2.4128575E0,1.7101445E0,5.6765378E-2,3.347001E-1,1.1327729E0,2.9803842E-1,2.6368682E0,2.5793233E0,9.721451E-1,1.0079985E0,3.4412956E-1,2.084914E0,2.2142486E-1,5.5849695E-1,8.681237E-4,0E0,1.9243479E-1,4.0940306E-1,5.808188E-2,2.9610062E-1,6.5792434E-2,2.2617829E-1,0E0,0E0,0E0,0E0,0E0,0E0,0E0,0E0,0E0,0E0,0E0,0E0,0E0,0E0,0E0,0E0,0E0,0E0,0E0,0E0,0E0,0E0,0E0,0E0,0E0,0E0,0E0,0E0,0E0,0E0],"parents":[2147483647,0,0,1,1,2,2,3,3,4,4,5,5,6,6,7,7,8,8,9,9,10,10,11,11,12,12,13,13,14,14,15,15,16,16,17,17,18,18,19,19,20,20,21,21,22,22,23,23,25,25,26,26,27,27,28,28,29,29,30,30],"right_children":[2,4,6,8,10,12,14,16,18,20,22,24,26,28,30,32,34,36,38,40,42,44,46,48,-1,50,52,54,56,58,60,-1,-1,-1,-1,-1,-1,-1,-1,-1,-1,-1,-1,-1,-1,-1,-1,-1,-1,-1,-1,-1,-1,-1,-1,-1,-1,-1,-1,-1,-1],"split_conditions":[9.41E1,1.947354E1,1.8003E3,5.092273E3,1.0422145E4,-9.956475E-2,2.451287E3,1.8812E3,6.4512956E-1,7.52926E3,2.3658E3,1.2072017E1,5.225889E-1,9.792E1,1.4513297E7,5.986378E-1,3.423655E8,1.8488E3,7.179982E8,1.97313E1,2.93879E1,2.3322E3,7.16E1,1.7216816E7,-1.1958971E-2,2.8295852E3,6.8020966E9,9.784152E-1,2.3907874E3,-1.0373427E0,3.230765E1,2.8028776E-4,-7.2086337E-3,-2.3811E-3,-1.6747244E-2,-1.4443652E-3,-4.091416E-3,-5.412338E-3,-1.714051E-2,3.2500736E-4,1.7946229E-3,-8.7416265E-4,4.5076982E-4,8.7121356E-4,-6.8881037E-4,-4.259062E-3,-2.1285007E-3,-1.5542544E-4,-2.1351138E-3,2.745106E-3,1.8298206E-3,1.3905037E-3,-6.0461606E-3,-1.1038834E-3,-2.9190488E-3,2.540294E-3,1.2670818E-3,2.1380174E-3,1.4275683E-4,-1.7860379E-3,-3.224786E-4],"split_indices":[1,3,2,4,4,30,4,2,33,4,2,23,32,1,0,32,0,2,0,3,3,2,1,0,0,4,18,24,4,12,21,0,0,0,0,0,0,0,0,0,0,0,0,0,0,0,0,0,0,0,0,0,0,0,0,0,0,0,0,0,0],"split_type":[0,0,0,0,0,0,0,0,0,0,0,0,0,0,0,0,0,0,0,0,0,0,0,0,0,0,0,0,0,0,0,0,0,0,0,0,0,0,0,0,0,0,0,0,0,0,0,0,0,0,0,0,0,0,0,0,0,0,0,0,0],"sum_hessian":[3.7203E4,3.0618E4,6.585E3,7.883E3,2.2735E4,2.43E3,4.155E3,5.65E3,2.233E3,2.0334E4,2.401E3,8E0,2.422E3,2.375E3,1.78E3,4.231E3,1.419E3,1.422E3,8.11E2,3.455E3,1.6879E4,9.31E2,1.47E3,2E0,6E0,2.338E3,8.4E1,2.17E2,2.158E3,7.24E2,1.056E3,4.111E3,1.2E2,1.388E3,3.1E1,6.05E2,8.17E2,7.93E2,1.8E1,4.6E2,2.995E3,3.844E3,1.3035E4,3.92E2,5.39E2,4.41E2,1.029E3,1E0,1E0,1.064E3,1.274E3,5.8E1,2.6E1,1.55E2,6.2E1,1.496E3,6.62E2,4.3E1,6.81E2,5.26E2,5.3E2],"tree_param":{"num_deleted":"0","num_feature":"44","num_nodes":"61","size_leaf_vector":"1"}},{"base_weights":[-1.1216618E-5,-5.2583753E-3,2.4383372E-2,-2.9909674E-2,3.2900106E-3,3.9753098E-2,1.53871775E-2,-1.1984132E-2,-7.5239725E-2,7.513749E-3,-3.2468945E-2,-1.8798144E-1,4.058259E-2,3.4279794E-2,-9.825763E-3,1.2567892E-3,-5.1437367E-2,-5.3918242E-2,-1.0442597E-1,2.8754096E-2,2.4396752E-3,-1.03800045E-2,-6.188219E-2,-2.977701E-2,-2.2892886E-1,4.8761245E-2,2.4505269E-2,-3.10552E-2,4.0860966E-2,4.699262E-3,-2.0251336E-2,3.02052E-4,-5.8352184E-3,-2.2621306E-3,-1.5936049E-2,-1.584455E-3,-4.3557477E-3,-8.147269E-3,-4.2149625E-3,3.0879217E-4,1.587659E-3,-9.269062E-4,4.0837532E-4,-5.3045136E-5,-2.221531E-3,-4.1242125E-3,-2.3922934E-3,-1.5153979E-4,-2.081736E-3,-1.3024541E-2,-5.0008004E-3,2.4744705E-3,-7.312882E-4,-1.3943582E-2,1.2608533E-3,-1.0490429E-3,-2.775413E-3,2.4133646E-3,1.2038233E-3,6.912059E-4,-2.3683796E-4,-1.3439963E-3,6.2764017E-4],"categories":[],"categories_nodes":[],"categories_segments":[],"categories_sizes":[],"default_left":[0,0,0,0,0,0,0,0,0,0,0,0,0,0,0,0,0,0,0,0,0,0,0,0,0,0,0,0,0,0,0,0,0,0,0,0,0,0,0,0,0,0,0,0,0,0,0,0,0,0,0,0,0,0,0,0,0,0,0,0,0,0,0],"id":5,"left_children":[1,3,5,7,9,11,13,15,17,19,21,23,25,27,29,31,33,35,37,39,41,43,45,47,49,51,53,55,57,59,61,-1,-1,-1,-1,-1,-1,-1,-1,-1,-1,-1,-1,-1,-1,-1,-1,-1,-1,-1,-1,-1,-1,-1,-1,-1,-1,-1,-1,-1,-1,-1,-1],"loss_changes":[4.762325E0,6.4524045E0,9.1002846E-1,6.4053664E0,3.4342089E0,4.668541E-1,1.9799995E0,2.952131E0,1.3845739E0,2.1915364E0,1.5599549E0,5.1485747E-2,3.174076E-1,1.0229032E0,2.6979506E-1,2.3890586E0,2.336754E0,9.5138884E-1,1.0957546E0,2.6531053E-1,1.9725333E0,4.356348E-1,2.9390597E-1,8.252603E-4,2.4279356E-3,7.4804306E-2,1.83889E-1,5.2539364E-2,2.6722646E-1,6.421172E-2,2.2582805E-1,0E0,0E0,0E0,0E0,0E0,0E0,0E0,0E0,0E0,0E0,0E0,0E0,0E0,0E0,0E0,0E0,0E0,0E0,0E0,0E0,0E0,0E0,0E0,0E0,0E0,0E0,0E0,0E0,0E0,0E0,0E0,0E0],"parents":[2147483647,0,0,1,1,2,2,3,3,4,4,5,5,6,6,7,7,8,8,9,9,10,10,11,11,12,12,13,13,14,14,15,15,16,16,17,17,18,18,19,19,20,20,21,21,22,22,23,23,24,24,25,25,26,26,27,27,28,28,29,29,30,30],"right_children":[2,4,6,8,10,12,14,16,18,20,22,24,26,28,30,32,34,36,38,40,42,44,46,48,50,52,54,56,58,60,62,-1,-1,-1,-1,-1,-1,-1,-1,-1,-1,-1,-1,-1,-1,-1,-1,-1,-1,-1,-1,-1,-1,-1,-1,-1,-1,-1,-1,-1,-1,-1,-1],"split_conditions":[9.41E1,1.947354E1,1.8003E3,5.092273E3,1.0422145E4,-9.956475E-2,2.451287E3,1.8812E3,5.979129E-1,7.6628594E3,3.294902E1,1.2072017E1,5.2863175E-1,9.792E1,1.5346448E7,5.225889E-1,3.423655E8,8.477E1,7.859348E0,1.97313E1,2.93879E1,1.0871442E4,3.1705906E1,1.7216816E7,1.290605E8,3.311968E-2,7.116158E-2,9.784152E-1,2.3907874E3,6.1196564E1,7.905752E-1,3.02052E-4,-5.8352184E-3,-2.2621306E-3,-1.5936049E-2,-1.584455E-3,-4.3557477E-3,-8.147269E-3,-4.2149625E-3,3.0879217E-4,1.587659E-3,-9.269062E-4,4.0837532E-4,-5.3045136E-5,-2.221531E-3,-4.1242125E-3,-2.3922934E-3,-1.5153979E-4,-2.081736E-3,-1.3024541E-2,-5.0008004E-3,2.4744705E-3,-7.312882E-4,-1.3943582E-2,1.2608533E-3,-1.0490429E-3,-2.775413E-3,2.4133646E-3,1.2038233E-3,6.912059E-4,-2.3683796E-4,-1.3439963E-3,6.2764017E-4],"split_indices":[1,3,2,4,4,30,4,2,33,4,3,23,33,1,0,32,0,1,8,3,3,4,14,0,0,39,36,24,4,17,11,0,0,0,0,0,0,0,0,0,0,0,0,0,0,0,0,0,0,0,0,0,0,0,0,0,0,0,0,0,0,0,0],"split_type":[0,0,0,0,0,0,0,0,0,0,0,0,0,0,0,0,0,0,0,0,0,0,0,0,0,0,0,0,0,0,0,0,0,0,0,0,0,0,0,0,0,0,0,0,0,0,0,0,0,0,0,0,0,0,0,0,0,0,0,0,0,0,0],"sum_hessian":[3.7203E4,3.0618E4,6.585E3,7.883E3,2.2735E4,2.43E3,4.155E3,5.65E3,2.233E3,2.0334E4,2.401E3,8E0,2.422E3,2.375E3,1.78E3,4.231E3,1.419E3,1.292E3,9.41E2,3.92E3,1.6414E4,1.372E3,1.029E3,2E0,6E0,1.604E3,8.18E2,2.17E2,2.158E3,7.44E2,1.036E3,4.067E3,1.64E2,1.388E3,3.1E1,7.75E2,5.17E2,2.39E2,7.02E2,4.6E2,3.46E3,3.52E3,1.2894E4,1.078E3,2.94E2,4.15E2,6.14E2,1E0,1E0,4E0,2E0,1.586E3,1.8E1,1E0,8.17E2,1.55E2,6.2E1,1.496E3,6.62E2,3.78E2,3.66E2,8.62E2,1.74E2],"tree_param":{"num_deleted":"0","num_feature":"44","num_nodes":"63","size_leaf_vector":"1"}},{"base_weights":[-1.2835573E-5,1.7517196E-2,-6.6215517E-3,1.8883301E-2,-1.309449E-1,-4.831708E-2,2.3630727E-3,-1.6040454E-2,2.4819123E-2,-2.7106684E-1,-1.5251301E-2,-2.2072969E-2,-6.934157E-2,5.9598647E-3,-3.4816604E-2,2.3911446E-3,-2.7390294E-2,2.7152807E-2,-2.494586E-2,-3.2674333E-1,-1.601711E-1,2.634163E-2,-1.1048175E-1,-6.274812E-4,-6.776574E-2,-4.6407685E-2,-1.24031626E-1,2.6387705E-2,1.3409074E-3,-1.6119594E-2,-6.0062896E-2,4.2408548E-4,-1.7677082E-3,-1.8018208E-3,-4.9217302E-5,1.0855141E-3,2.1499868E-3,-6.2595247E-3,1.7872762E-5,-9.001931E-3,-1.8454403E-2,-2.5440021E-3,-1.0261171E-2,1.9211024E-3,-1.1126321E-3,-6.4710914E-3,-1.0653033E-3,5.031799E-4,-5.1659844E-3,-6.1876075E-3,-2.5516287E-3,-6.167478E-4,-3.3723146E-3,-5.893362E-3,-2.9499194E-2,1.394167E-3,-1.1597241E-3,-1.1266556E-3,3.5329227E-4,-3.4346528E-4,-2.110831E-3,-2.3965945E-3,-4.4432054E-3],"categories":[],"categories_nodes":[],"categories_segments":[],"categories_sizes":[],"default_left":[0,0,0,0,0,0,0,0,0,0,0,0,0,0,0,0,0,0,0,0,0,0,0,0,0,0,0,0,0,0,0,0,0,0,0,0,0,0,0,0,0,0,0,0,0,0,0,0,0,0,0,0,0,0,0,0,0,0,0,0,0,0,0],"id":6,"left_children":[1,3,5,7,9,11,13,15,17,19,21,23,25,27,29,31,33,35,37,39,41,43,45,47,49,51,53,55,57,59,61,-1,-1,-1,-1,-1,-1,-1,-1,-1,-1,-1,-1,-1,-1,-1,-1,-1,-1,-1,-1,-1,-1,-1,-1,-1,-1,-1,-1,-1,-1,-1,-1],"loss_changes":[4.3102365E0,2.0683434E0,1.0121936E1,2.0928965E0,1.5035083E0,2.6414433E0,2.9729714E0,3.069556E-1,1.0026965E0,2.0698547E-1,2.0887777E-1,2.0891123E0,3.3293104E0,1.9125469E0,9.2468286E-1,1.290384E-1,2.0726913E-1,7.0991707E-1,9.816786E-1,1.01278305E-1,6.833923E-2,2.257544E-2,2.4266422E-2,1.5951768E0,6.3166595E-1,1.3432479E0,2.1852179E0,2.778449E-1,2.2598445E0,2.7201486E-1,2.8713012E-1,0E0,0E0,0E0,0E0,0E0,0E0,0E0,0E0,0E0,0E0,0E0,0E0,0E0,0E0,0E0,0E0,0E0,0E0,0E0,0E0,0E0,0E0,0E0,0E0,0E0,0E0,0E0,0E0,0E0,0E0,0E0,0E0],"parents":[2147483647,0,0,1,1,2,2,3,3,4,4,5,5,6,6,7,7,8,8,9,9,10,10,11,11,12,12,13,13,14,14,15,15,16,16,17,17,18,18,19,19,20,20,21,21,22,22,23,23,24,24,25,25,26,26,27,27,28,28,29,29,30,30],"right_children":[2,4,6,8,10,12,14,16,18,20,22,24,26,28,30,32,34,36,38,40,42,44,46,48,50,52,54,56,58,60,62,-1,-1,-1,-1,-1,-1,-1,-1,-1,-1,-1,-1,-1,-1,-1,-1,-1,-1,-1,-1,-1,-1,-1,-1,-1,-1,-1,-1,-1,-1,-1,-1],"split_conditions":[4.6178755E3,7.4894917E-1,1.97313E1,1.3809E1,6.6120005E0,1.8488E3,1.0507044E4,8.886E1,5.3129666E-2,2.8504422E0,1.7127E3,5.322672E3,4.955822E-1,7.725859E3,3.294902E1,5.4551065E-1,2.4235176E1,1.849162E1,-9.956475E-2,1.5731635E0,9.083856E-1,1.4270699E1,3.8095202E-2,1.2518305E0,7.3228154E0,7.955E1,7.179982E8,5.6643516E-2,2.93879E1,1.0871442E4,2.909E3,4.2408548E-4,-1.7677082E-3,-1.8018208E-3,-4.9217302E-5,1.0855141E-3,2.1499868E-3,-6.2595247E-3,1.7872762E-5,-9.001931E-3,-1.8454403E-2,-2.5440021E-3,-1.0261171E-2,1.9211024E-3,-1.1126321E-3,-6.4710914E-3,-1.0653033E-3,5.031799E-4,-5.1659844E-3,-6.1876075E-3,-2.5516287E-3,-6.167478E-4,-3.3723146E-3,-5.893362E-3,-2.9499194E-2,1.394167E-3,-1.1597241E-3,-1.1266556E-3,3.5329227E-4,-3.4346528E-4,-2.110831E-3,-2.3965945E-3,-4.4432054E-3],"split_indices":[4,32,3,3,14,2,4,1,31,14,2,4,33,4,3,33,23,3,30,33,10,19,38,33,8,1,0,31,3,4,2,0,0,0,0,0,0,0,0,0,0,0,0,0,0,0,0,0,0,0,0,0,0,0,0,0,0,0,0,0,0,0,0],"split_type":[0,0,0,0,0,0,0,0,0,0,0,0,0,0,0,0,0,0,0,0,0,0,0,0,0,0,0,0,0,0,0,0,0,0,0,0,0,0,0,0,0,0,0,0,0,0,0,0,0,0,0,0,0,0,0,0,0,0,0,0,0,0,0],"sum_hessian":[3.7203E4,1.0185E4,2.7018E4,1.0093E4,9.2E1,4.789E3,2.2229E4,1.466E3,8.627E3,4.1E1,5.1E1,2.131E3,2.658E3,2.0269E4,1.96E3,5.59E2,9.07E2,8.241E3,3.86E2,2.6E1,1.5E1,3.6E1,1.5E1,1.451E3,6.8E2,1.874E3,7.84E2,3.737E3,1.6532E4,1.127E3,8.33E2,4.82E2,7.7E1,6.83E2,2.24E2,6.136E3,2.105E3,7.7E1,3.09E2,7E0,1.9E1,5E0,1E1,2.9E1,7E0,1.2E1,3E0,1.315E3,1.36E2,1.55E2,5.25E2,7.16E2,1.158E3,7.75E2,9E0,3.628E3,1.09E2,3.197E3,1.3335E4,8.33E2,2.94E2,5.88E2,2.45E2],"tree_param":{"num_deleted":"0","num_feature":"44","num_nodes":"63","size_leaf_vector":"1"}},{"base_weights":[-1.5306457E-5,-4.7331033E-3,2.2475958E-2,-2.6534544E-2,2.9564854E-3,3.8166054E-2,1.3802489E-2,-4.982804E-3,-5.8321822E-2,1.133378E-2,-1.3234452E-2,4.5817368E-2,2.0869443E-2,3.1765796E-2,-1.0169783E-2,-1.60233E-3,-1.3403729E-1,-3.5994507E-2,-8.207769E-2,-5.8074676E-2,1.3309976E-2,-5.9724577E-2,-7.258028E-3,5.062436E-2,4.038693E-2,2.7198011E-2,-2.8991582E-2,-2.8200759E-2,3.7806064E-2,4.2418335E-2,-1.3059378E-2,3.5668325E-4,-1.8678049E-3,-1.3047329E-2,-2.8240301E-3,2.5147796E-4,-2.8637478E-3,-2.8623017E-3,-6.1315135E-3,9.728828E-4,-3.16534E-3,1.3813177E-3,4.4286848E-4,-4.386342E-3,-2.0095485E-3,-1.2768488E-3,8.4445E-5,1.9058938E-3,2.7568962E-3,2.0762205E-3,3.5139485E-4,-1.3622129E-2,1.4055942E-3,1.6072894E-3,-6.08511E-3,-9.3718537E-4,-2.5585296E-3,2.3753298E-3,1.294436E-3,2.4177826E-3,4.1602907E-4,7.370594E-5,-1.2156087E-3],"categories":[],"categories_nodes":[],"categories_segments":[],"categories_sizes":[],"default_left":[0,0,0,0,0,0,0,0,0,0,0,0,0,0,0,0,0,0,0,0,0,0,0,0,0,0,0,0,0,0,0,0,0,0,0,0,0,0,0,0,0,0,0,0,0,0,0,0,0,0,0,0,0,0,0,0,0,0,0,0,0,0,0],"id":7,"left_children":[1,3,5,7,9,11,13,15,17,19,21,23,25,27,29,31,33,35,37,39,41,43,45,47,49,51,53,55,57,59,61,-1,-1,-1,-1,-1,-1,-1,-1,-1,-1,-1,-1,-1,-1,-1,-1,-1,-1,-1,-1,-1,-1,-1,-1,-1,-1,-1,-1,-1,-1,-1,-1],"loss_changes":[3.9477937E0,5.1558056E0,8.7737393E-1,5.4932947E0,3.0839758E0,3.0290055E-1,1.7899851E0,2.085133E0,1.7155561E0,2.0560489E0,2.1536965E0,3.9487123E-2,2.2356603E-1,8.6168694E-1,2.7119178E-1,1.4554805E0,1.1860666E0,1.4599617E0,1.5729446E0,1.6958022E-1,9.285228E-1,4.7946215E-1,1.1237293E0,4.5315266E-2,2.8242826E-2,1.7935202E-1,4.5735884E-1,4.639633E-2,2.483604E-1,1.8425405E-2,2.7625912E-1,0E0,0E0,0E0,0E0,0E0,0E0,0E0,0E0,0E0,0E0,0E0,0E0,0E0,0E0,0E0,0E0,0E0,0E0,0E0,0E0,0E0,0E0,0E0,0E0,0E0,0E0,0E0,0E0,0E0,0E0,0E0,0E0],"parents":[2147483647,0,0,1,1,2,2,3,3,4,4,5,5,6,6,7,7,8,8,9,9,10,10,11,11,12,12,13,13,14,14,15,15,16,16,17,17,18,18,19,19,20,20,21,21,22,22,23,23,24,24,25,25,26,26,27,27,28,28,29,29,30,30],"right_children":[2,4,6,8,10,12,14,16,18,20,22,24,26,28,30,32,34,36,38,40,42,44,46,48,50,52,54,56,58,60,62,-1,-1,-1,-1,-1,-1,-1,-1,-1,-1,-1,-1,-1,-1,-1,-1,-1,-1,-1,-1,-1,-1,-1,-1,-1,-1,-1,-1,-1,-1,-1,-1],"split_conditions":[9.434E1,1.947354E1,1.8003E3,4.9840737E3,9.739648E3,5.568595E-1,2.451287E3,5.986378E-1,5.069584E-1,1.874E3,7.209E1,2.8295852E3,6.022502E-1,9.792E1,9.444E1,1.8812E3,1.84429E1,1.8488E3,1.8488E3,2.382824E8,7.52926E3,3.1705906E1,-4.057482E-2,1.73122E1,1.0246E2,7.116158E-2,6.8020966E9,9.784152E-1,2.3113877E3,4.840762E1,9.6640646E8,3.5668325E-4,-1.8678049E-3,-1.3047329E-2,-2.8240301E-3,2.5147796E-4,-2.8637478E-3,-2.8623017E-3,-6.1315135E-3,9.728828E-4,-3.16534E-3,1.3813177E-3,4.4286848E-4,-4.386342E-3,-2.0095485E-3,-1.2768488E-3,8.4445E-5,1.9058938E-3,2.7568962E-3,2.0762205E-3,3.5139485E-4,-1.3622129E-2,1.4055942E-3,1.6072894E-3,-6.08511E-3,-9.3718537E-4,-2.5585296E-3,2.3753298E-3,1.294436E-3,2.4177826E-3,4.1602907E-4,7.370594E-5,-1.2156087E-3],"split_indices":[1,3,2,4,4,33,4,32,33,2,1,4,36,1,1,2,3,2,2,18,4,14,33,3,1,36,18,24,4,16,18,0,0,0,0,0,0,0,0,0,0,0,0,0,0,0,0,0,0,0,0,0,0,0,0,0,0,0,0,0,0,0,0],"split_type":[0,0,0,0,0,0,0,0,0,0,0,0,0,0,0,0,0,0,0,0,0,0,0,0,0,0,0,0,0,0,0,0,0,0,0,0,0,0,0,0,0,0,0,0,0,0,0,0,0,0,0,0,0,0,0,0,0,0,0,0,0,0,0],"sum_hessian":[3.7203E4,3.0753E4,6.45E3,8.018E3,2.2735E4,2.295E3,4.155E3,4.779E3,3.239E3,1.4983E4,7.752E3,1.59E3,7.05E2,2.375E3,1.78E3,4.658E3,1.21E2,1.671E3,1.568E3,4.14E2,1.4569E4,8.82E2,6.87E3,8.39E2,7.51E2,6.26E2,7.9E1,2.17E2,2.158E3,9.2E1,1.688E3,3.744E3,9.14E2,4.5E1,7.6E1,5.71E2,1.1E3,9.74E2,5.94E2,2.6E1,3.88E2,3.455E3,1.1114E4,3.61E2,5.21E2,2.257E3,4.613E3,2.25E2,6.14E2,7.26E2,2.5E1,1E0,6.25E2,4.8E1,3.1E1,1.55E2,6.2E1,1.188E3,9.7E2,7.8E1,1.4E1,7.37E2,9.51E2],"tree_param":{"num_deleted":"0","num_feature":"44","num_nodes":"63","size_leaf_vector":"1"}},{"base_weights":[-1.57419E-5,-4.497649E-3,2.135096E-2,-2.5211431E-2,2.808311E-3,3.6253568E-2,1.3112814E-2,-9.705984E-3,-6.535884E-2,1.0767066E-2,-1.2573708E-2,3.8377073E-2,-2.0122325E-2,2.9454842E-2,-1.0679193E-2,1.4090268E-3,-4.388172E-2,-4.8413455E-2,-9.49745E-2,-5.517622E-2,1.2644602E-2,-5.6745593E-2,-6.895299E-3,4.394919E-2,2.60403E-2,2.324607E-2,-1.1253879E-1,-2.6806755E-2,3.4900133E-2,4.032789E-2,-1.36354575E-2,2.876708E-4,-5.2940054E-3,-1.9801515E-3,-1.97335E-2,-1.4907353E-3,-3.8302224E-3,-4.4955905E-3,-1.5077163E-2,-2.1868541E-3,-4.4924947E-3,7.5410417E-4,-5.7857396E-4,-4.167631E-3,-1.9092637E-3,-1.367903E-3,2.0045925E-5,2.2461645E-3,1.1385749E-3,-1.3281576E-2,1.3423994E-3,1.488558E-3,-3.6142718E-3,1.6348452E-3,-8.770578E-3,-8.906264E-4,-2.432634E-3,2.1352237E-3,9.648471E-4,2.3286617E-3,4.8339716E-4,4.3118678E-5,-1.2421466E-3],"categories":[],"categories_nodes":[],"categories_segments":[],"categories_sizes":[],"default_left":[0,0,0,0,0,0,0,0,0,0,0,0,0,0,0,0,0,0,0,0,0,0,0,0,0,0,0,0,0,0,0,0,0,0,0,0,0,0,0,0,0,0,0,0,0,0,0,0,0,0,0,0,0,0,0,0,0,0,0,0,0,0,0],"id":8,"left_children":[1,3,5,7,9,11,13,15,17,19,21,23,25,27,29,31,33,35,37,39,41,43,45,47,49,51,53,55,57,59,61,-1,-1,-1,-1,-1,-1,-1,-1,-1,-1,-1,-1,-1,-1,-1,-1,-1,-1,-1,-1,-1,-1,-1,-1,-1,-1,-1,-1,-1,-1,-1,-1],"loss_changes":[3.5628843E0,4.6541986E0,7.915127E-1,4.9912205E0,2.7835157E0,2.756369E-1,1.6162075E0,2.1979532E0,1.1165323E0,1.85588E0,1.9442629E0,1.5098166E-1,3.3928424E-1,7.5580883E-1,2.558381E-1,2.0360928E0,2.1156683E0,7.438195E-1,8.22073E-1,1.6067469E-1,8.601873E-1,4.328735E-1,1.0258565E0,3.0395031E-2,1.6991693E-1,3.8306423E-2,2.5228238E-1,4.1967586E-2,2.7279902E-1,1.7357543E-2,2.601584E-1,0E0,0E0,0E0,0E0,0E0,0E0,0E0,0E0,0E0,0E0,0E0,0E0,0E0,0E0,0E0,0E0,0E0,0E0,0E0,0E0,0E0,0E0,0E0,0E0,0E0,0E0,0E0,0E0,0E0,0E0,0E0,0E0],"parents":[2147483647,0,0,1,1,2,2,3,3,4,4,5,5,6,6,7,7,8,8,9,9,10,10,11,11,12,12,13,13,14,14,15,15,16,16,17,17,18,18,19,19,20,20,21,21,22,22,23,23,24,24,25,25,26,26,27,27,28,28,29,29,30,30],"right_children":[2,4,6,8,10,12,14,16,18,20,22,24,26,28,30,32,34,36,38,40,42,44,46,48,50,52,54,56,58,60,62,-1,-1,-1,-1,-1,-1,-1,-1,-1,-1,-1,-1,-1,-1,-1,-1,-1,-1,-1,-1,-1,-1,-1,-1,-1,-1,-1,-1,-1,-1,-1,-1],"split_conditions":[9.434E1,1.947354E1,1.8003E3,5.092273E3,9.739648E3,5.225889E-1,2.458687E3,1.8812E3,6.4512956E-1,1.874E3,7.209E1,5.2863175E-1,6.8020966E9,9.792E1,9.444E1,5.225889E-1,4.8803117E8,8.477E1,7.179982E8,2.641313E-1,3.599469E1,3.1705906E1,-9.3293905E-2,1.7959E3,7.116158E-2,4.4007764E3,5.522392E1,9.784152E-1,2.3907874E3,-6.230262E-2,9.6640646E8,2.876708E-4,-5.2940054E-3,-1.9801515E-3,-1.97335E-2,-1.4907353E-3,-3.8302224E-3,-4.4955905E-3,-1.5077163E-2,-2.1868541E-3,-4.4924947E-3,7.5410417E-4,-5.7857396E-4,-4.167631E-3,-1.9092637E-3,-1.367903E-3,2.0045925E-5,2.2461645E-3,1.1385749E-3,-1.3281576E-2,1.3423994E-3,1.488558E-3,-3.6142718E-3,1.6348452E-3,-8.770578E-3,-8.906264E-4,-2.432634E-3,2.1352237E-3,9.648471E-4,2.3286617E-3,4.8339716E-4,4.3118678E-5,-1.2421466E-3],"split_indices":[1,3,2,4,4,32,4,2,33,2,1,33,18,1,1,32,0,1,0,36,3,14,33,2,36,4,21,24,4,12,18,0,0,0,0,0,0,0,0,0,0,0,0,0,0,0,0,0,0,0,0,0,0,0,0,0,0,0,0,0,0,0,0],"split_type":[0,0,0,0,0,0,0,0,0,0,0,0,0,0,0,0,0,0,0,0,0,0,0,0,0,0,0,0,0,0,0,0,0,0,0,0,0,0,0,0,0,0,0,0,0,0,0,0,0,0,0,0,0,0,0,0,0,0,0,0,0,0,0],"sum_hessian":[3.7203E4,3.0753E4,6.45E3,8.018E3,2.2735E4,2.295E3,4.155E3,5.785E3,2.233E3,1.4983E4,7.752E3,2.212E3,8.3E1,2.463E3,1.692E3,4.366E3,1.419E3,1.422E3,8.11E2,4.14E2,1.4569E4,8.82E2,6.87E3,1.522E3,6.9E2,5.7E1,2.6E1,2.17E2,2.246E3,9.2E1,1.6E3,4.197E3,1.69E2,1.403E3,1.6E1,8.58E2,5.64E2,7.93E2,1.8E1,3.13E2,1.01E2,1.3237E4,1.332E3,3.61E2,5.21E2,1.805E3,5.065E3,1.454E3,6.8E1,1E0,6.89E2,5.4E1,3E0,8E0,1.8E1,1.55E2,6.2E1,1.496E3,7.5E2,7.6E1,1.6E1,6.98E2,9.02E2],"tree_param":{"num_deleted":"0","num_feature":"44","num_nodes":"63","size_leaf_vector":"1"}},{"base_weights":[-1.7158569E-5,-4.568445E-3,1.9031642E-2,-2.5903624E-2,2.5652878E-3,2.0220816E-2,-4.7656473E-2,-1.0617691E-2,-6.210204E-2,5.8434904E-3,-3.1782757E-2,3.21983E-2,1.2872411E-2,-1.9038195E-2,-1.1342937E-1,4.9024035E-4,-4.2230442E-2,-4.599652E-2,-9.024988E-2,2.5491554E-2,1.8700801E-3,-1.4817404E-2,-5.4690592E-2,3.4133025E-2,-8.72436E-2,2.8363328E-2,-5.8656572E-3,-4.3047585E-2,-2.6793766E-3,2.0300388E-2,-1.5563172E-1,-9.982347E-4,9.6988765E-4,-1.8217415E-3,-1.4225379E-2,-1.4162854E-3,-3.6390503E-3,-7.0678755E-3,-3.5568513E-3,1.2585097E-4,1.4509091E-3,-8.7836804E-4,3.5418695E-4,-3.010612E-4,-1.9817508E-3,-2.2883888E-3,-4.1655116E-3,1.7728743E-3,-2.2377884E-3,-1.6614577E-3,-8.815808E-3,-1.2843864E-3,1.7481936E-3,9.044421E-4,-6.0491636E-4,1.9685128E-3,-2.7290068E-3,-3.406419E-3,1.9595555E-4,-2.4550322E-3,2.1894115E-3,-8.787999E-3,7.054897E-4],"categories":[],"categories_nodes":[],"categories_segments":[],"categories_sizes":[],"default_left":[0,0,0,0,0,0,0,0,0,0,0,0,0,0,0,0,0,0,0,0,0,0,0,0,0,0,0,0,0,0,0,0,0,0,0,0,0,0,0,0,0,0,0,0,0,0,0,0,0,0,0,0,0,0,0,0,0,0,0,0,0,0,0],"id":9,"left_children":[1,3,5,7,9,11,13,15,17,19,21,23,25,27,29,31,33,35,37,39,41,43,45,47,49,51,53,55,57,59,61,-1,-1,-1,-1,-1,-1,-1,-1,-1,-1,-1,-1,-1,-1,-1,-1,-1,-1,-1,-1,-1,-1,-1,-1,-1,-1,-1,-1,-1,-1,-1,-1],"loss_changes":[3.2255456E0,4.5706167E0,5.6996775E-1,4.163123E0,2.5343578E0,6.2009406E-1,2.3501119E-1,1.8583183E0,1.0086002E0,1.6039748E0,7.613119E-1,6.222913E-1,1.268936E0,3.484076E-2,2.1762037E-1,1.5152944E0,1.921737E0,6.714494E-1,7.8311586E-1,2.7994084E-1,1.7321297E0,2.4600397E-1,2.0916367E-1,2.7721882E-1,2.0102295E-1,8.546401E-1,2.9568452E-1,3.6366403E-2,2.3587683E-2,1.8450834E-2,1.0156131E-1,0E0,0E0,0E0,0E0,0E0,0E0,0E0,0E0,0E0,0E0,0E0,0E0,0E0,0E0,0E0,0E0,0E0,0E0,0E0,0E0,0E0,0E0,0E0,0E0,0E0,0E0,0E0,0E0,0E0,0E0,0E0,0E0],"parents":[2147483647,0,0,1,1,2,2,3,3,4,4,5,5,6,6,7,7,8,8,9,9,10,10,11,11,12,12,13,13,14,14,15,15,16,16,17,17,18,18,19,19,20,20,21,21,22,22,23,23,24,24,25,25,26,26,27,27,28,28,29,29,30,30],"right_children":[2,4,6,8,10,12,14,16,18,20,22,24,26,28,30,32,34,36,38,40,42,44,46,48,50,52,54,56,58,60,62,-1,-1,-1,-1,-1,-1,-1,-1,-1,-1,-1,-1,-1,-1,-1,-1,-1,-1,-1,-1,-1,-1,-1,-1,-1,-1,-1,-1,-1,-1,-1,-1],"split_conditions":[9.33E1,1.947354E1,4.995747E1,5.092273E3,1.0507044E4,1.8003E3,6.393585E-1,1.8812E3,6.4512956E-1,7.52926E3,3.294902E1,2.9441513E-2,2.451287E3,1.47402E1,1.9479558E9,1.84429E1,3.423655E8,8.477E1,7.45825E0,1.97313E1,2.93879E1,1.0871442E4,2.9513E3,5.986378E-1,1.3056841E-2,9.792E1,-1.7820163E-1,1.423963E1,-8.059539E-2,9.4550016E8,9.558256E0,-9.982347E-4,9.6988765E-4,-1.8217415E-3,-1.4225379E-2,-1.4162854E-3,-3.6390503E-3,-7.0678755E-3,-3.5568513E-3,1.2585097E-4,1.4509091E-3,-8.7836804E-4,3.5418695E-4,-3.010612E-4,-1.9817508E-3,-2.2883888E-3,-4.1655116E-3,1.7728743E-3,-2.2377884E-3,-1.6614577E-3,-8.815808E-3,-1.2843864E-3,1.7481936E-3,9.044421E-4,-6.0491636E-4,1.9685128E-3,-2.7290068E-3,-3.406419E-3,1.9595555E-4,-2.4550322E-3,2.1894115E-3,-8.787999E-3,7.054897E-4],"split_indices":[1,3,22,4,4,2,36,2,33,4,3,43,4,3,18,3,0,1,8,3,3,4,2,32,39,1,12,3,40,18,34,0,0,0,0,0,0,0,0,0,0,0,0,0,0,0,0,0,0,0,0,0,0,0,0,0,0,0,0,0,0,0,0],"split_type":[0,0,0,0,0,0,0,0,0,0,0,0,0,0,0,0,0,0,0,0,0,0,0,0,0,0,0,0,0,0,0,0,0,0,0,0,0,0,0,0,0,0,0,0,0,0,0,0,0,0,0,0,0,0,0,0,0,0,0,0,0,0,0],"sum_hessian":[3.7203E4,3.0029E4,7.174E3,7.524E3,2.2505E4,7.049E3,1.25E2,5.291E3,2.233E3,2.0545E4,1.96E3,2.679E3,4.37E3,8.8E1,3.7E1,3.916E3,1.375E3,1.422E3,8.11E2,3.455E3,1.709E4,1.127E3,8.33E2,2.637E3,4.2E1,2.392E3,1.978E3,3.5E1,5.3E1,9E0,2.8E1,1.881E3,2.035E3,1.344E3,3.1E1,8.58E2,5.64E2,2.19E2,5.92E2,4.6E2,2.995E3,3.614E3,1.3476E4,8.33E2,2.94E2,6.37E2,1.96E2,2.594E3,4.3E1,2.7E1,1.5E1,2.6E2,2.132E3,4.08E2,1.57E3,4E0,3.1E1,4E0,4.9E1,2E0,7E0,2.5E1,3E0],"tree_param":{"num_deleted":"0","num_feature":"44","num_nodes":"63","size_leaf_vector":"1"}},{"base_weights":[-1.79646E-5,1.453411E-2,-5.5040084E-3,1.5721288E-2,-1.144755E-1,-3.9867077E-2,1.9006069E-3,-1.5918152E-2,2.0545417E-2,-2.3820783E-1,-7.907547E-3,-1.6958145E-2,-5.8220584E-2,9.242407E-3,-1.1809762E-2,2.9871694E-3,-2.7818315E-2,1.4693246E-2,3.7327733E-2,-2.9106772E-1,-1.4024168E-1,2.861185E-2,-9.746156E-2,-3.705531E-4,-6.031017E-2,-4.3884438E-2,-1.298346E-1,-4.5001093E-2,1.1395747E-2,-5.297245E-2,-6.5181786E-3,6.231877E-4,-8.7432994E-4,-1.5731071E-3,1.0754884E-3,1.0536578E-3,-1.0133897E-3,7.6653445E-3,1.7292824E-3,-1.7095646E-2,-8.521981E-3,-2.7237725E-3,-9.741525E-3,2.9531128E-3,5.816583E-4,-5.850423E-3,-7.2277285E-4,4.540164E-4,-4.683938E-3,-5.4091173E-3,-2.1426696E-3,-3.1932723E-4,-3.166123E-3,-2.703662E-2,-5.658581E-3,-9.028087E-4,-3.0978655E-3,6.9010275E-4,-5.6736293E-4,-3.9116954E-3,-1.7676245E-3,-1.1625369E-3,8.3590814E-5],"categories":[],"categories_nodes":[],"categories_segments":[],"categories_sizes":[],"default_left":[0,0,0,0,0,0,0,0,0,0,0,0,0,0,0,0,0,0,0,0,0,0,0,0,0,0,0,0,0,0,0,0,0,0,0,0,0,0,0,0,0,0,0,0,0,0,0,0,0,0,0,0,0,0,0,0,0,0,0,0,0,0,0],"id":10,"left_children":[1,3,5,7,9,11,13,15,17,19,21,23,25,27,29,31,33,35,37,39,41,43,45,47,49,51,53,55,57,59,61,-1,-1,-1,-1,-1,-1,-1,-1,-1,-1,-1,-1,-1,-1,-1,-1,-1,-1,-1,-1,-1,-1,-1,-1,-1,-1,-1,-1,-1,-1,-1,-1],"loss_changes":[2.9701989E0,1.5618587E0,6.8749332E0,1.5410023E0,1.2244054E0,2.0130124E0,2.237754E0,3.0065155E-1,8.596995E-1,1.8185449E-1,1.6958193E-1,1.5331113E0,2.7242155E0,1.6916113E0,1.6883802E0,1.00526996E-1,1.4806592E-1,1.449349E0,7.1470666E-1,1.0732508E-1,6.897843E-2,1.8442206E-2,2.2646263E-2,1.3615371E0,4.8842335E-1,1.6155334E0,2.97193E0,2.5153792E-1,7.622802E-1,3.9026284E-1,9.4163775E-1,0E0,0E0,0E0,0E0,0E0,0E0,0E0,0E0,0E0,0E0,0E0,0E0,0E0,0E0,0E0,0E0,0E0,0E0,0E0,0E0,0E0,0E0,0E0,0E0,0E0,0E0,0E0,0E0,0E0,0E0,0E0,0E0],"parents":[2147483647,0,0,1,1,2,2,3,3,4,4,5,5,6,6,7,7,8,8,9,9,10,10,11,11,12,12,13,13,14,14,15,15,16,16,17,17,18,18,19,19,20,20,21,21,22,22,23,23,24,24,25,25,26,26,27,27,28,28,29,29,30,30],"right_children":[2,4,6,8,10,12,14,16,18,20,22,24,26,28,30,32,34,36,38,40,42,44,46,48,50,52,54,56,58,60,62,-1,-1,-1,-1,-1,-1,-1,-1,-1,-1,-1,-1,-1,-1,-1,-1,-1,-1,-1,-1,-1,-1,-1,-1,-1,-1,-1,-1,-1,-1,-1,-1],"split_conditions":[4.6178755E3,7.4894917E-1,1.97313E1,1.376228E1,5.50885E0,1.8488E3,9.739648E3,8.886E1,1.849162E1,2.8504422E0,1.7127E3,5.3607715E3,1.1954354E-1,1.874E3,7.209E1,4.3004718E-1,3.676349E-1,3.1460835E3,1.4321E4,1.7440555E8,4.4741008E-1,2.8317711E0,3.8095202E-2,1.2518305E0,9.895996E0,7.955E1,2.9985029E-1,-7.079944E-2,3.599469E1,3.1705906E1,-4.057482E-2,6.231877E-4,-8.7432994E-4,-1.5731071E-3,1.0754884E-3,1.0536578E-3,-1.0133897E-3,7.6653445E-3,1.7292824E-3,-1.7095646E-2,-8.521981E-3,-2.7237725E-3,-9.741525E-3,2.9531128E-3,5.816583E-4,-5.850423E-3,-7.2277285E-4,4.540164E-4,-4.683938E-3,-5.4091173E-3,-2.1426696E-3,-3.1932723E-4,-3.166123E-3,-2.703662E-2,-5.658581E-3,-9.028087E-4,-3.0978655E-3,6.9010275E-4,-5.6736293E-4,-3.9116954E-3,-1.7676245E-3,-1.1625369E-3,8.3590814E-5],"split_indices":[4,32,3,3,8,2,4,1,3,14,2,4,32,2,1,33,36,4,0,0,24,11,38,33,8,1,24,12,3,14,33,0,0,0,0,0,0,0,0,0,0,0,0,0,0,0,0,0,0,0,0,0,0,0,0,0,0,0,0,0,0,0,0],"split_type":[0,0,0,0,0,0,0,0,0,0,0,0,0,0,0,0,0,0,0,0,0,0,0,0,0,0,0,0,0,0,0,0,0,0,0,0,0,0,0,0,0,0,0,0,0,0,0,0,0,0,0,0,0,0,0,0,0,0,0,0,0,0,0],"sum_hessian":[3.7203E4,1.0185E4,2.7018E4,1.0093E4,9.2E1,4.789E3,2.2229E4,1.335E3,8.758E3,4.2E1,5E1,2.131E3,2.658E3,1.4477E4,7.752E3,5.16E2,8.19E2,6.495E3,2.263E3,2.6E1,1.6E1,3.6E1,1.4E1,1.542E3,5.89E2,2.216E3,4.42E2,5.52E2,1.3925E4,8.82E2,6.87E3,3.53E2,1.63E2,7.63E2,5.6E1,5.493E3,1.002E3,5.1E1,2.212E3,1.7E1,9E0,7E0,9E0,1.2E1,2.4E1,1.1E1,3E0,1.401E3,1.41E2,1.56E2,4.33E2,7.57E2,1.459E3,1.6E1,4.26E2,2.14E2,3.38E2,1.2593E4,1.332E3,3.61E2,5.21E2,2.257E3,4.613E3],"tree_param":{"num_deleted":"0","num_feature":"44","num_nodes":"63","size_leaf_vector":"1"}},{"base_weights":[-1.9513081E-5,1.380422E-2,-5.2309763E-3,1.5732666E-2,-5.9588753E-2,-3.7883736E-2,1.8050987E-3,-1.3803369E-2,2.0782981E-2,1.5680008E-2,-1.2375847E-1,-1.6115764E-2,-5.532316E-2,4.845352E-3,-2.9621592E-2,2.4031908E-3,-2.3973819E-2,1.5445957E-2,3.5910442E-2,2.8014045E-2,-6.701299E-2,-1.9264397E-1,-2.1859506E-2,-3.547665E-4,-5.7307463E-2,-3.153545E-2,-9.4566345E-2,-4.2758275E-2,6.180171E-3,-1.3868215E-2,-5.08928E-2,4.0230036E-4,-1.6284836E-3,-1.612285E-3,3.2713317E-5,1.7468963E-3,3.165288E-4,7.289448E-3,1.662368E-3,6.49526E-4,2.623905E-3,-1.5406265E-3,-6.110583E-3,-5.749391E-3,-1.3200703E-2,1.6476493E-3,-3.7058133E-3,4.3133178E-4,-4.45139E-3,-5.140384E-3,-2.0357834E-3,-9.998696E-5,-2.6622212E-3,-1.5481121E-2,-4.2188237E-3,1.560809E-3,-2.4293556E-3,7.5721525E-4,-1.01141224E-4,-2.7533364E-4,-1.8730136E-3,-2.9697903E-3,-1.2911744E-3],"categories":[],"categories_nodes":[],"categories_segments":[],"categories_sizes":[],"default_left":[0,0,0,0,0,0,0,0,0,0,0,0,0,0,0,0,0,0,0,0,0,0,0,0,0,0,0,0,0,0,0,0,0,0,0,0,0,0,0,0,0,0,0,0,0,0,0,0,0,0,0,0,0,0,0,0,0,0,0,0,0,0,0],"id":11,"left_children":[1,3,5,7,9,11,13,15,17,19,21,23,25,27,29,31,33,35,37,39,41,43,45,47,49,51,53,55,57,59,61,-1,-1,-1,-1,-1,-1,-1,-1,-1,-1,-1,-1,-1,-1,-1,-1,-1,-1,-1,-1,-1,-1,-1,-1,-1,-1,-1,-1,-1,-1,-1,-1],"loss_changes":[2.680318E0,1.4426069E0,6.20761E0,1.4809115E0,1.2625642E0,1.8174925E0,2.1241112E0,2.3905823E-1,6.8384147E-1,1.2528986E-1,9.8551893E-1,1.3841214E0,2.479209E0,1.2882651E0,6.5641224E-1,1.1077551E-1,1.815362E-1,1.1134564E0,6.418328E-1,3.8277127E-2,2.820582E-2,4.3519688E-1,1.6857308E-1,1.2296258E0,4.4122338E-1,1.062345E0,2.1718435E0,2.399621E-1,1.4499493E0,2.2230972E-1,1.7624521E-1,0E0,0E0,0E0,0E0,0E0,0E0,0E0,0E0,0E0,0E0,0E0,0E0,0E0,0E0,0E0,0E0,0E0,0E0,0E0,0E0,0E0,0E0,0E0,0E0,0E0,0E0,0E0,0E0,0E0,0E0,0E0,0E0],"parents":[2147483647,0,0,1,1,2,2,3,3,4,4,5,5,6,6,7,7,8,8,9,9,10,10,11,11,12,12,13,13,14,14,15,15,16,16,17,17,18,18,19,19,20,20,21,21,22,22,23,23,24,24,25,25,26,26,27,27,28,28,29,29,30,30],"right_children":[2,4,6,8,10,12,14,16,18,20,22,24,26,28,30,32,34,36,38,40,42,44,46,48,50,52,54,56,58,60,62,-1,-1,-1,-1,-1,-1,-1,-1,-1,-1,-1,-1,-1,-1,-1,-1,-1,-1,-1,-1,-1,-1,-1,-1,-1,-1,-1,-1,-1,-1,-1,-1],"split_conditions":[4.6178755E3,5.225889E-1,1.97313E1,1.3809E1,2.3496858E9,1.8488E3,1.0507044E4,8.886E1,1.849162E1,1.5236511E1,1.84429E1,5.3607715E3,4.2569157E-1,1.874E3,3.294902E1,5.4551065E-1,2.4235176E1,2.418287E3,1.4321E4,1.849162E1,4.484376E3,1.2518305E0,1.6717E3,1.2518305E0,9.895996E0,7.987E1,2.9985029E-1,-9.222322E-1,9.044853E3,1.0871442E4,2.290932E1,4.0230036E-4,-1.6284836E-3,-1.612285E-3,3.2713317E-5,1.7468963E-3,3.165288E-4,7.289448E-3,1.662368E-3,6.49526E-4,2.623905E-3,-1.5406265E-3,-6.110583E-3,-5.749391E-3,-1.3200703E-2,1.6476493E-3,-3.7058133E-3,4.3133178E-4,-4.45139E-3,-5.140384E-3,-2.0357834E-3,-9.998696E-5,-2.6622212E-3,-1.5481121E-2,-4.2188237E-3,1.560809E-3,-2.4293556E-3,7.5721525E-4,-1.01141224E-4,-2.7533364E-4,-1.8730136E-3,-2.9697903E-3,-1.2911744E-3],"split_indices":[4,32,3,3,18,2,4,1,3,19,3,4,33,2,3,33,23,4,0,3,4,33,2,33,8,1,24,12,4,4,23,0,0,0,0,0,0,0,0,0,0,0,0,0,0,0,0,0,0,0,0,0,0,0,0,0,0,0,0,0,0,0,0],"split_type":[0,0,0,0,0,0,0,0,0,0,0,0,0,0,0,0,0,0,0,0,0,0,0,0,0,0,0,0,0,0,0,0,0,0,0,0,0,0,0,0,0,0,0,0,0,0,0,0,0,0,0,0,0,0,0,0,0,0,0,0,0,0,0],"sum_hessian":[3.7203E4,1.0185E4,2.7018E4,9.925E3,2.6E2,4.789E3,2.2229E4,1.449E3,8.476E3,1.2E2,1.4E2,2.131E3,2.658E3,2.0269E4,1.96E3,5.59E2,8.9E2,6.267E3,2.209E3,1.05E2,1.5E1,8.3E1,5.7E1,1.542E3,5.89E2,1.656E3,1.002E3,5.52E2,1.9717E4,1.127E3,8.33E2,4.82E2,7.7E1,6.66E2,2.24E2,1.996E3,4.271E3,5.1E1,2.158E3,6.6E1,3.9E1,1E1,5E0,4.1E1,4.2E1,2.8E1,2.9E1,1.401E3,1.41E2,1.56E2,4.33E2,7.02E2,9.54E2,4.4E1,9.58E2,4E1,5.12E2,9.421E3,1.0296E4,8.33E2,2.94E2,6.21E2,2.12E2],"tree_param":{"num_deleted":"0","num_feature":"44","num_nodes":"63","size_leaf_vector":"1"}},{"base_weights":[-2.0082327E-5,2.3169643E-3,-2.9163776E-2,2.6996937E-2,-5.967688E-4,-1.1719266E-2,-7.024905E-2,-1.4014067E-1,2.8566217E-2,6.810102E-4,-4.2247254E-2,-3.4571642E-1,-9.635448E-3,-7.910778E-2,-6.854469E-3,-3.1110248E-1,-4.4850145E-2,3.7154578E-2,1.5407486E-2,-1.002351E-2,4.8758583E-3,-7.808094E-2,-3.5360355E-2,-2.5776798E-2,-4.8618866E-3,9.863467E-3,-3.794247E-2,-1.799759E-1,-6.783034E-2,-8.767965E-2,3.8791196E-3,-6.2835948E-3,-1.9405438E-2,-5.1862835E-3,-8.98452E-4,-9.960919E-4,1.9088219E-3,9.651621E-4,-1.3754914E-3,3.6184155E-4,-1.7967062E-3,1.0917654E-3,3.4763183E-5,-5.1956926E-3,-1.8324584E-3,1.4500268E-3,-1.9322106E-3,-1.8956825E-3,1.4905253E-3,6.742157E-4,-4.9367477E-3,-6.4094486E-3,-1.253493E-3,-1.6763588E-2,-6.6613303E-3,-1.4939486E-3,-4.310896E-3,-8.889857E-4,-6.7534107E-3,-4.875002E-3,6.0911773E-4],"categories":[],"categories_nodes":[],"categories_segments":[],"categories_sizes":[],"default_left":[0,0,0,0,0,0,0,0,0,0,0,0,0,0,0,0,0,0,0,0,0,0,0,0,0,0,0,0,0,0,0,0,0,0,0,0,0,0,0,0,0,0,0,0,0,0,0,0,0,0,0,0,0,0,0,0,0,0,0,0,0],"id":12,"left_children":[1,3,5,7,9,11,13,15,17,19,21,23,25,27,29,31,33,35,37,39,41,43,45,-1,47,49,51,53,55,57,59,-1,-1,-1,-1,-1,-1,-1,-1,-1,-1,-1,-1,-1,-1,-1,-1,-1,-1,-1,-1,-1,-1,-1,-1,-1,-1,-1,-1,-1,-1],"loss_changes":[2.5340385E0,2.4768414E0,1.9787362E0,9.5793605E-1,1.6395807E0,1.3468881E0,4.6165085E-1,5.399423E-1,4.0672255E-1,1.3422695E0,2.2353911E-1,6.9209874E-1,1.0650978E0,8.0909157E-1,8.882963E-2,1.2257755E-1,3.453685E-2,1.2790704E-1,2.3878443E-1,3.7641149E0,1.522646E0,1.5352619E-1,1.6407311E-1,0E0,6.8601435E-3,4.507799E-1,9.1105044E-1,4.780507E-1,4.517138E-1,3.7348002E-2,7.778931E-2,0E0,0E0,0E0,0E0,0E0,0E0,0E0,0E0,0E0,0E0,0E0,0E0,0E0,0E0,0E0,0E0,0E0,0E0,0E0,0E0,0E0,0E0,0E0,0E0,0E0,0E0,0E0,0E0,0E0,0E0],"parents":[2147483647,0,0,1,1,2,2,3,3,4,4,5,5,6,6,7,7,8,8,9,9,10,10,11,11,12,12,13,13,14,14,15,15,16,16,17,17,18,18,19,19,20,20,21,21,22,22,24,24,25,25,26,26,27,27,28,28,29,29,30,30],"right_children":[2,4,6,8,10,12,14,16,18,20,22,24,26,28,30,32,34,36,38,40,42,44,46,-1,48,50,52,54,56,58,60,-1,-1,-1,-1,-1,-1,-1,-1,-1,-1,-1,-1,-1,-1,-1,-1,-1,-1,-1,-1,-1,-1,-1,-1,-1,-1,-1,-1,-1,-1],"split_conditions":[7.7696216E-1,1.7897E3,4.6196543E-2,-9.956475E-2,1.0798042E4,8.8349216E-2,9.434E1,4.068072E7,1.4038631E-1,1.947354E1,7.16E1,3.168935E-1,4.9840737E3,1.827322E1,4.617013E0,1.3048148E1,1.1510465E8,1.36755E1,3.2128415E-1,4.5266763E3,7.725859E3,7.041472E-1,-1.2205511E-1,-2.5776798E-2,4.710811E1,7.4894917E-1,4.9203154E-1,3.5609532E7,4.9840737E3,6.338862E9,3.2129166E1,-6.2835948E-3,-1.9405438E-2,-5.1862835E-3,-8.98452E-4,-9.960919E-4,1.9088219E-3,9.651621E-4,-1.3754914E-3,3.6184155E-4,-1.7967062E-3,1.0917654E-3,3.4763183E-5,-5.1956926E-3,-1.8324584E-3,1.4500268E-3,-1.9322106E-3,-1.8956825E-3,1.4905253E-3,6.742157E-4,-4.9367477E-3,-6.4094486E-3,-1.253493E-3,-1.6763588E-2,-6.6613303E-3,-1.4939486E-3,-4.310896E-3,-8.889857E-4,-6.7534107E-3,-4.875002E-3,6.0911773E-4],"split_indices":[33,2,31,30,4,36,1,0,32,3,1,10,4,3,23,5,0,3,32,4,4,12,32,0,17,32,10,0,4,18,21,0,0,0,0,0,0,0,0,0,0,0,0,0,0,0,0,0,0,0,0,0,0,0,0,0,0,0,0,0,0],"split_type":[0,0,0,0,0,0,0,0,0,0,0,0,0,0,0,0,0,0,0,0,0,0,0,0,0,0,0,0,0,0,0,0,0,0,0,0,0,0,0,0,0,0,0,0,0,0,0,0,0,0,0,0,0,0,0,0,0,0,0,0,0],"sum_hessian":[3.7203E4,3.4442E4,2.761E3,3.636E3,3.0806E4,1.939E3,8.22E2,3.3E1,3.603E3,2.989E4,9.16E2,1.1E1,1.928E3,7.21E2,1.01E2,1.1E1,2.2E1,2.179E3,1.424E3,8.415E3,2.1475E4,1.46E2,7.7E2,7E0,4E0,1.142E3,7.86E2,7.1E1,6.5E2,1.1E1,9E1,4E0,7E0,6E0,1.6E1,3.8E1,2.141E3,1.306E3,1.18E2,5.051E3,3.364E3,4.246E3,1.7229E4,8.9E1,5.7E1,3.7E1,7.33E2,2E0,2E0,1.106E3,3.6E1,9.7E1,6.89E2,1.5E1,5.6E1,2.13E2,4.37E2,5E0,6E0,6E0,8.4E1],"tree_param":{"num_deleted":"0","num_feature":"44","num_nodes":"61","size_leaf_vector":"1"}},{"base_weights":[-2.2259726E-5,2.1999804E-3,-2.773428E-2,2.563849E-2,-5.671848E-4,-1.1152948E-2,-6.678659E-2,-1.3406816E-1,2.7138043E-2,6.4694864E-4,-4.014308E-2,-3.3061245E-1,-9.15986E-3,-7.5192876E-2,-6.6284905E-3,-2.976881E-1,-4.2872194E-2,3.5184994E-2,1.4459515E-2,-9.522506E-3,4.632117E-3,-7.42247E-2,-3.359296E-2,-2.4649063E-2,-4.6998234E-3,-5.3966694E-2,2.376205E-3,-1.7130245E-1,-6.444774E-2,-8.393253E-2,3.6382882E-3,-6.0322504E-3,-1.8556451E-2,-9.6168026E-4,-5.33213E-3,-9.475644E-4,1.8071752E-3,9.1072265E-4,-1.3072948E-3,3.1890054E-4,-1.7488549E-3,3.58016E-4,-1.0747766E-3,-4.9387943E-3,-1.7424154E-3,1.3794336E-3,-1.8357318E-3,-1.8324932E-3,1.4408412E-3,-4.9317568E-3,-1.2353673E-3,-3.1856284E-3,2.8361217E-4,-1.5977796E-2,-6.334107E-3,-1.4196004E-3,-4.0958435E-3,-8.519445E-4,-6.4639784E-3,-4.6660732E-3,5.790203E-4],"categories":[],"categories_nodes":[],"categories_segments":[],"categories_sizes":[],"default_left":[0,0,0,0,0,0,0,0,0,0,0,0,0,0,0,0,0,0,0,0,0,0,0,0,0,0,0,0,0,0,0,0,0,0,0,0,0,0,0,0,0,0,0,0,0,0,0,0,0,0,0,0,0,0,0,0,0,0,0,0,0],"id":13,"left_children":[1,3,5,7,9,11,13,15,17,19,21,23,25,27,29,31,33,35,37,39,41,43,45,-1,47,49,51,53,55,57,59,-1,-1,-1,-1,-1,-1,-1,-1,-1,-1,-1,-1,-1,-1,-1,-1,-1,-1,-1,-1,-1,-1,-1,-1,-1,-1,-1,-1,-1,-1],"loss_changes":[2.2911863E0,2.2339268E0,1.7877586E0,8.7465835E-1,1.4803152E0,1.2321908E0,4.1569805E-1,4.945678E-1,3.6718392E-1,1.2114365E0,2.022165E-1,6.326996E-1,9.9721783E-1,7.345767E-1,8.125904E-2,1.1125147E-1,3.2620057E-2,1.15050554E-1,2.1408775E-1,3.4065244E0,1.4187723E0,1.3866824E-1,1.4826548E-1,0E0,6.4104237E-3,5.13816E-1,3.3473217E-1,4.3580627E-1,4.077146E-1,3.419836E-2,7.115668E-2,0E0,0E0,0E0,0E0,0E0,0E0,0E0,0E0,0E0,0E0,0E0,0E0,0E0,0E0,0E0,0E0,0E0,0E0,0E0,0E0,0E0,0E0,0E0,0E0,0E0,0E0,0E0,0E0,0E0,0E0],"parents":[2147483647,0,0,1,1,2,2,3,3,4,4,5,5,6,6,7,7,8,8,9,9,10,10,11,11,12,12,13,13,14,14,15,15,16,16,17,17,18,18,19,19,20,20,21,21,22,22,24,24,25,25,26,26,27,27,28,28,29,29,30,30],"right_children":[2,4,6,8,10,12,14,16,18,20,22,24,26,28,30,32,34,36,38,40,42,44,46,-1,48,50,52,54,56,58,60,-1,-1,-1,-1,-1,-1,-1,-1,-1,-1,-1,-1,-1,-1,-1,-1,-1,-1,-1,-1,-1,-1,-1,-1,-1,-1,-1,-1,-1,-1],"split_conditions":[7.7696216E-1,1.7897E3,4.6196543E-2,-9.956475E-2,1.0798042E4,8.8349216E-2,9.434E1,4.068072E7,1.4258976E-1,1.947354E1,7.16E1,3.168935E-1,8.273E1,1.827322E1,4.617013E0,1.3048148E1,1.3279276E-4,1.36755E1,3.2128415E-1,4.752175E3,3.638563E1,7.041472E-1,-1.2205511E-1,-2.4649063E-2,4.710811E1,3.0626354E1,8.801445E-2,3.5609532E7,4.9840737E3,6.338862E9,3.2129166E1,-6.0322504E-3,-1.8556451E-2,-9.6168026E-4,-5.33213E-3,-9.475644E-4,1.8071752E-3,9.1072265E-4,-1.3072948E-3,3.1890054E-4,-1.7488549E-3,3.58016E-4,-1.0747766E-3,-4.9387943E-3,-1.7424154E-3,1.3794336E-3,-1.8357318E-3,-1.8324932E-3,1.4408412E-3,-4.9317568E-3,-1.2353673E-3,-3.1856284E-3,2.8361217E-4,-1.5977796E-2,-6.334107E-3,-1.4196004E-3,-4.0958435E-3,-8.519445E-4,-6.4639784E-3,-4.6660732E-3,5.790203E-4],"split_indices":[33,2,31,30,4,36,1,0,32,3,1,10,1,3,23,5,42,3,32,4,3,12,32,0,17,22,32,0,4,18,21,0,0,0,0,0,0,0,0,0,0,0,0,0,0,0,0,0,0,0,0,0,0,0,0,0,0,0,0,0,0],"split_type":[0,0,0,0,0,0,0,0,0,0,0,0,0,0,0,0,0,0,0,0,0,0,0,0,0,0,0,0,0,0,0,0,0,0,0,0,0,0,0,0,0,0,0,0,0,0,0,0,0,0,0,0,0,0,0,0,0,0,0,0,0],"sum_hessian":[3.7203E4,3.4442E4,2.761E3,3.636E3,3.0806E4,1.939E3,8.22E2,3.3E1,3.603E3,2.989E4,9.16E2,1.1E1,1.928E3,7.21E2,1.01E2,1.1E1,2.2E1,2.203E3,1.4E3,8.415E3,2.1475E4,1.46E2,7.7E2,7E0,4E0,3.94E2,1.534E3,7.1E1,6.5E2,1.1E1,9E1,4E0,7E0,1.7E1,5E0,3.8E1,2.165E3,1.282E3,1.18E2,5.18E3,3.235E3,1.9581E4,1.894E3,8.9E1,5.7E1,3.7E1,7.33E2,2E0,2E0,1.55E2,2.39E2,7.2E1,1.462E3,1.5E1,5.6E1,2.13E2,4.37E2,5E0,6E0,6E0,8.4E1],"tree_param":{"num_deleted":"0","num_feature":"44","num_nodes":"61","size_leaf_vector":"1"}},{"base_weights":[-2.4184777E-5,-3.464525E-3,1.6377032E-2,-9.6044905E-4,-3.9065048E-2,2.8693276E-2,9.568931E-3,8.7149034E-4,-2.627643E-2,-2.429144E-2,-8.221993E-2,3.4954123E-2,1.4940432E-2,2.3865575E-2,-1.1244124E-2,-1.3153768E-2,5.399521E-3,-1.2127595E-2,-4.528656E-2,-3.6622044E-1,-2.2222294E-2,-1.8615572E-1,-6.758378E-2,3.9260913E-2,3.0079367E-2,1.9871296E-2,-2.4754878E-2,-2.284968E-2,2.8387187E-2,3.5733767E-2,-1.3965985E-2,1.5801897E-4,-1.8735441E-3,1.0109785E-3,7.579923E-5,-2.6669586E-4,-1.5739674E-3,-2.343721E-3,3.8382516E-3,-2.3590535E-2,1.11516696E-4,-3.460978E-3,-5.850351E-4,-1.6516577E-3,-1.0553221E-2,1.0782516E-3,-3.8253863E-3,1.3514174E-3,2.184063E-3,1.5532494E-3,8.331045E-5,-1.5155567E-3,1.2552909E-3,1.3898716E-3,-5.2226004E-3,-7.2441896E-4,-2.1595582E-3,1.8409536E-3,8.170452E-4,1.9732488E-3,-4.4217147E-4,-3.410563E-5,-1.2116692E-3],"categories":[],"categories_nodes":[],"categories_segments":[],"categories_sizes":[],"default_left":[0,0,0,0,0,0,0,0,0,0,0,0,0,0,0,0,0,0,0,0,0,0,0,0,0,0,0,0,0,0,0,0,0,0,0,0,0,0,0,0,0,0,0,0,0,0,0,0,0,0,0,0,0,0,0,0,0,0,0,0,0,0,0],"id":14,"left_children":[1,3,5,7,9,11,13,15,17,19,21,23,25,27,29,31,33,35,37,39,41,43,45,47,49,51,53,55,57,59,61,-1,-1,-1,-1,-1,-1,-1,-1,-1,-1,-1,-1,-1,-1,-1,-1,-1,-1,-1,-1,-1,-1,-1,-1,-1,-1,-1,-1,-1,-1,-1,-1],"loss_changes":[2.0993211E0,2.7415714E0,5.4064345E-1,1.3326294E0,1.2864981E0,1.971736E-1,1.2369145E0,1.7017992E0,5.2098584E-1,1.0580666E0,7.7084684E-1,3.1927466E-2,1.414191E-1,5.2111495E-1,2.1697842E-1,2.5946212E0,1.1658447E0,1.4615771E-1,1.6387153E-1,3.5119557E-1,7.4042463E-1,2.3331547E-1,3.6203837E-1,4.391551E-2,2.0783663E-2,1.691395E-1,3.3796495E-1,3.6451958E-2,2.276324E-1,1.5817396E-2,2.183451E-1,0E0,0E0,0E0,0E0,0E0,0E0,0E0,0E0,0E0,0E0,0E0,0E0,0E0,0E0,0E0,0E0,0E0,0E0,0E0,0E0,0E0,0E0,0E0,0E0,0E0,0E0,0E0,0E0,0E0,0E0,0E0,0E0],"parents":[2147483647,0,0,1,1,2,2,3,3,4,4,5,5,6,6,7,7,8,8,9,9,10,10,11,11,12,12,13,13,14,14,15,15,16,16,17,17,18,18,19,19,20,20,21,21,22,22,23,23,24,24,25,25,26,26,27,27,28,28,29,29,30,30],"right_children":[2,4,6,8,10,12,14,16,18,20,22,24,26,28,30,32,34,36,38,40,42,44,46,48,50,52,54,56,58,60,62,-1,-1,-1,-1,-1,-1,-1,-1,-1,-1,-1,-1,-1,-1,-1,-1,-1,-1,-1,-1,-1,-1,-1,-1,-1,-1,-1,-1,-1,-1,-1,-1],"split_conditions":[9.434E1,7.7696216E-1,1.8003E3,1.0507044E4,5.0833117E-2,5.510445E-1,2.458687E3,1.947354E1,3.294902E1,8.8349216E-2,1.8315E1,2.8295852E3,6.022502E-1,9.792E1,9.444E1,1.8488E3,7.725859E3,1.0871442E4,2.6004082E-1,9.657847E6,5.7456715E1,1.82071E1,4.505276E3,1.73122E1,1.0246E2,1.9094339E-2,6.8020966E9,9.784152E-1,2.3451875E3,9.22312E0,9.6640646E8,1.5801897E-4,-1.8735441E-3,1.0109785E-3,7.579923E-5,-2.6669586E-4,-1.5739674E-3,-2.343721E-3,3.8382516E-3,-2.3590535E-2,1.11516696E-4,-3.460978E-3,-5.850351E-4,-1.6516577E-3,-1.0553221E-2,1.0782516E-3,-3.8253863E-3,1.3514174E-3,2.184063E-3,1.5532494E-3,8.331045E-5,-1.5155567E-3,1.2552909E-3,1.3898716E-3,-5.2226004E-3,-7.2441896E-4,-2.1595582E-3,1.8409536E-3,8.170452E-4,1.9732488E-3,-4.4217147E-4,-3.410563E-5,-1.2116692E-3],"split_indices":[1,33,2,4,31,33,4,3,3,36,3,4,36,1,1,2,4,4,32,0,9,3,4,3,1,31,18,24,4,20,18,0,0,0,0,0,0,0,0,0,0,0,0,0,0,0,0,0,0,0,0,0,0,0,0,0,0,0,0,0,0,0,0],"split_type":[0,0,0,0,0,0,0,0,0,0,0,0,0,0,0,0,0,0,0,0,0,0,0,0,0,0,0,0,0,0,0,0,0,0,0,0,0,0,0,0,0,0,0,0,0,0,0,0,0,0,0,0,0,0,0,0,0,0,0,0,0,0,0],"sum_hessian":[3.7203E4,3.0753E4,6.45E3,2.8733E4,2.02E3,2.295E3,4.155E3,2.6795E4,1.938E3,1.506E3,5.14E2,1.576E3,7.19E2,2.463E3,1.692E3,6.539E3,2.0256E4,1.112E3,8.26E2,8E0,1.498E3,6.2E1,4.52E2,8.33E2,7.43E2,6.4E2,7.9E1,2.17E2,2.246E3,9.2E1,1.6E3,3.914E3,2.625E3,4.205E3,1.6051E4,8.24E2,2.88E2,8.16E2,1E1,6E0,2E0,2.73E2,1.225E3,9E0,5.3E1,4.1E1,4.11E2,2.23E2,6.1E2,7.18E2,2.5E1,6E1,5.8E2,4.8E1,3.1E1,1.55E2,6.2E1,1.32E3,9.26E2,8.5E1,7E0,6.98E2,9.02E2],"tree_param":{"num_deleted":"0","num_feature":"44","num_nodes":"63","size_leaf_vector":"1"}},{"base_weights":[-2.4114142E-5,-3.2927133E-3,1.5558357E-2,-9.124621E-4,-3.7132815E-2,2.7259082E-2,9.090498E-3,8.2789076E-4,-2.4962788E-2,-2.3095135E-2,-7.8137964E-2,3.3209696E-2,1.4187727E-2,2.3284126E-2,-9.85007E-3,-1.2496343E-2,5.1295967E-3,-1.1522871E-2,-4.3020424E-2,-3.505182E-1,-2.1113878E-2,-1.7704166E-1,-6.421065E-2,3.7302107E-2,2.8577598E-2,1.8877327E-2,-2.356504E-2,-2.1720426E-2,2.7817572E-2,3.3963542E-2,-1.2256711E-2,1.5012005E-4,-1.7799026E-3,6.2293274E-4,-1.00428784E-4,-1.408809E-3,-2.0339937E-4,-2.2266784E-3,3.6637855E-3,-2.2579513E-2,1.07799344E-4,5.481683E-4,-1.7730071E-3,-1.4040405E-2,-6.787114E-3,-1.1367708E-3,-4.1154292E-3,1.2841483E-3,2.0750386E-3,2.2476823E-3,1.3391583E-3,-1.441021E-3,1.1926345E-3,1.3217962E-3,-4.969631E-3,-7.3031656E-4,-2.207496E-3,1.8022899E-3,8.856686E-4,1.9625535E-3,1.9258262E-4,2.5202038E-5,-1.0722223E-3],"categories":[],"categories_nodes":[],"categories_segments":[],"categories_sizes":[],"default_left":[0,0,0,0,0,0,0,0,0,0,0,0,0,0,0,0,0,0,0,0,0,0,0,0,0,0,0,0,0,0,0,0,0,0,0,0,0,0,0,0,0,0,0,0,0,0,0,0,0,0,0,0,0,0,0,0,0,0,0,0,0,0,0],"id":15,"left_children":[1,3,5,7,9,11,13,15,17,19,21,23,25,27,29,31,33,35,37,39,41,43,45,47,49,51,53,55,57,59,61,-1,-1,-1,-1,-1,-1,-1,-1,-1,-1,-1,-1,-1,-1,-1,-1,-1,-1,-1,-1,-1,-1,-1,-1,-1,-1,-1,-1,-1,-1,-1,-1],"loss_changes":[1.8949572E0,2.4771376E0,4.8795485E-1,1.2027127E0,1.1615176E0,1.7811763E-1,1.1175091E0,1.5359286E0,4.7008622E-1,9.7020364E-1,6.980252E-1,2.8828382E-2,1.2791753E-1,4.853692E-1,1.8821135E-1,2.3417368E0,1.0597919E0,1.3806267E-1,1.487925E-1,3.2178307E-1,6.9021136E-1,2.3186839E-1,3.3815777E-1,3.9620757E-2,2.065891E-2,1.5280543E-1,3.059437E-1,3.414043E-2,1.7886007E-1,1.4656045E-2,1.9803324E-1,0E0,0E0,0E0,0E0,0E0,0E0,0E0,0E0,0E0,0E0,0E0,0E0,0E0,0E0,0E0,0E0,0E0,0E0,0E0,0E0,0E0,0E0,0E0,0E0,0E0,0E0,0E0,0E0,0E0,0E0,0E0,0E0],"parents":[2147483647,0,0,1,1,2,2,3,3,4,4,5,5,6,6,7,7,8,8,9,9,10,10,11,11,12,12,13,13,14,14,15,15,16,16,17,17,18,18,19,19,20,20,21,21,22,22,23,23,24,24,25,25,26,26,27,27,28,28,29,29,30,30],"right_children":[2,4,6,8,10,12,14,16,18,20,22,24,26,28,30,32,34,36,38,40,42,44,46,48,50,52,54,56,58,60,62,-1,-1,-1,-1,-1,-1,-1,-1,-1,-1,-1,-1,-1,-1,-1,-1,-1,-1,-1,-1,-1,-1,-1,-1,-1,-1,-1,-1,-1,-1,-1,-1],"split_conditions":[9.434E1,7.7696216E-1,1.8003E3,1.0507044E4,5.0833117E-2,5.510445E-1,2.451287E3,1.947354E1,3.294902E1,8.8349216E-2,1.8315E1,2.8295852E3,6.022502E-1,9.792E1,9.444E1,1.8488E3,9.044853E3,1.910691E1,2.6004082E-1,9.657847E6,1.7729E3,3.5609532E7,4.9754736E3,1.73122E1,-3.9512133E-3,1.9094339E-2,6.8020966E9,4.2275843E-1,2.3113877E3,4.840762E1,1.5346448E7,1.5012005E-4,-1.7799026E-3,6.2293274E-4,-1.00428784E-4,-1.408809E-3,-2.0339937E-4,-2.2266784E-3,3.6637855E-3,-2.2579513E-2,1.07799344E-4,5.481683E-4,-1.7730071E-3,-1.4040405E-2,-6.787114E-3,-1.1367708E-3,-4.1154292E-3,1.2841483E-3,2.0750386E-3,2.2476823E-3,1.3391583E-3,-1.441021E-3,1.1926345E-3,1.3217962E-3,-4.969631E-3,-7.3031656E-4,-2.207496E-3,1.8022899E-3,8.856686E-4,1.9625535E-3,1.9258262E-4,2.5202038E-5,-1.0722223E-3],"split_indices":[1,33,2,4,31,33,4,3,3,36,3,4,36,1,1,2,4,21,32,0,2,0,4,3,42,31,18,11,4,16,0,0,0,0,0,0,0,0,0,0,0,0,0,0,0,0,0,0,0,0,0,0,0,0,0,0,0,0,0,0,0,0,0],"split_type":[0,0,0,0,0,0,0,0,0,0,0,0,0,0,0,0,0,0,0,0,0,0,0,0,0,0,0,0,0,0,0,0,0,0,0,0,0,0,0,0,0,0,0,0,0,0,0,0,0,0,0,0,0,0,0,0,0,0,0,0,0,0,0],"sum_hessian":[3.7203E4,3.0753E4,6.45E3,2.8733E4,2.02E3,2.295E3,4.155E3,2.6795E4,1.938E3,1.506E3,5.14E2,1.576E3,7.19E2,2.375E3,1.78E3,6.539E3,2.0256E4,1.112E3,8.26E2,8E0,1.498E3,6.2E1,4.52E2,8.33E2,7.43E2,6.4E2,7.9E1,2.17E2,2.158E3,9.2E1,1.688E3,3.914E3,2.625E3,9.994E3,1.0262E4,3.43E2,7.69E2,8.16E2,1E1,6E0,2E0,4.63E2,1.035E3,1.6E1,4.6E1,1.38E2,3.14E2,2.23E2,6.1E2,7.1E1,6.72E2,6E1,5.8E2,4.8E1,3.1E1,1.66E2,5.1E1,1.188E3,9.7E2,7.8E1,1.4E1,7.07E2,9.81E2],"tree_param":{"num_deleted":"0","num_feature":"44","num_nodes":"63","size_leaf_vector":"1"}},{"base_weights":[-2.4177716E-5,1.1046657E-2,-4.197815E-3,5.4929876E-3,2.9947888E-2,-3.0432774E-2,1.455341E-3,7.005709E-3,-1.5405071E-1,1.408564E-1,2.7385028E-2,-1.1762372E-2,-4.5391355E-2,7.422095E-3,-1.0017869E-2,-1.2363564E-2,1.4698052E-2,-2.765511E-1,-1.0973717E-1,4.3717943E-2,8.008551E-3,-4.142614E-2,2.9310929E-2,2.6155459E-3,-4.934435E-2,-3.2281965E-2,-1.10895015E-1,-4.0177505E-2,9.291999E-3,-4.6126112E-2,-5.2746213E-3,-1.4997845E-2,-5.78912E-4,1.3050241E-3,3.6359238E-4,-1.7037094E-2,-5.891618E-3,-3.0984262E-3,-9.631116E-3,4.927191E-3,8.8467496E-4,-6.4712106E-3,-1.2020551E-3,1.6571298E-3,-1.8344446E-4,5.2705494E-4,-3.7826882E-3,-4.483466E-3,-1.7321525E-3,4.6285724E-5,-2.4750277E-3,-2.469701E-2,-4.7692633E-3,1.8345427E-3,-2.2721074E-3,7.0294926E-5,7.541727E-4,-3.4761634E-3,-1.4906067E-3,-1.1016794E-3,1.4180387E-4],"categories":[],"categories_nodes":[],"categories_segments":[],"categories_sizes":[],"default_left":[0,0,0,0,0,0,0,0,0,0,0,0,0,0,0,0,0,0,0,0,0,0,0,0,0,0,0,0,0,0,0,0,0,0,0,0,0,0,0,0,0,0,0,0,0,0,0,0,0,0,0,0,0,0,0,0,0,0,0,0,0],"id":16,"left_children":[1,3,5,7,9,11,13,15,17,19,21,23,25,27,29,31,33,35,37,39,-1,41,43,45,47,49,51,53,55,57,59,-1,-1,-1,-1,-1,-1,-1,-1,-1,-1,-1,-1,-1,-1,-1,-1,-1,-1,-1,-1,-1,-1,-1,-1,-1,-1,-1,-1,-1,-1],"loss_changes":[1.7190814E0,1.0690721E0,4.0072403E0,1.9014313E0,6.535969E-1,1.3372302E0,1.5218917E0,1.1624924E0,3.7135577E-1,9.05596E-2,3.0098248E-1,1.1521565E0,2.2797375E0,1.3020959E0,1.3024389E0,4.974715E-1,4.7264552E-1,1.5342677E-1,2.0978492E-1,1.2524543E-2,0E0,9.1739185E-2,2.7825654E-1,9.579628E-1,3.46663E-1,1.2677026E0,2.5847197E0,2.2545767E-1,6.427208E-1,3.3496928E-1,9.140352E-1,0E0,0E0,0E0,0E0,0E0,0E0,0E0,0E0,0E0,0E0,0E0,0E0,0E0,0E0,0E0,0E0,0E0,0E0,0E0,0E0,0E0,0E0,0E0,0E0,0E0,0E0,0E0,0E0,0E0,0E0],"parents":[2147483647,0,0,1,1,2,2,3,3,4,4,5,5,6,6,7,7,8,8,9,9,10,10,11,11,12,12,13,13,14,14,15,15,16,16,17,17,18,18,19,19,21,21,22,22,23,23,24,24,25,25,26,26,27,27,28,28,29,29,30,30],"right_children":[2,4,6,8,10,12,14,16,18,20,22,24,26,28,30,32,34,36,38,40,-1,42,44,46,48,50,52,54,56,58,60,-1,-1,-1,-1,-1,-1,-1,-1,-1,-1,-1,-1,-1,-1,-1,-1,-1,-1,-1,-1,-1,-1,-1,-1,-1,-1,-1,-1,-1,-1],"split_conditions":[4.6178755E3,1.849162E1,1.97313E1,7.9329985E-1,1.4321E4,1.8488E3,9.756648E3,9.481E1,3.9256E0,1.739561E8,-9.956475E-2,5.3607715E3,1.1954354E-1,1.874E3,7.209E1,-2.1096912E-1,2.418287E3,6.266954E7,3.8091707E-1,3.1386293E1,8.008551E-3,-6.237996E-1,2.0185E3,1.2518305E0,9.895996E0,7.955E1,2.9985029E-1,2.382824E8,2.91255E1,3.1705906E1,-4.057482E-2,-1.4997845E-2,-5.78912E-4,1.3050241E-3,3.6359238E-4,-1.7037094E-2,-5.891618E-3,-3.0984262E-3,-9.631116E-3,4.927191E-3,8.8467496E-4,-6.4712106E-3,-1.2020551E-3,1.6571298E-3,-1.8344446E-4,5.2705494E-4,-3.7826882E-3,-4.483466E-3,-1.7321525E-3,4.6285724E-5,-2.4750277E-3,-2.469701E-2,-4.7692633E-3,1.8345427E-3,-2.2721074E-3,7.0294926E-5,7.541727E-4,-3.4761634E-3,-1.4906067E-3,-1.1016794E-3,1.4180387E-4],"split_indices":[4,3,3,36,0,2,4,1,7,18,30,4,32,2,1,32,4,0,12,9,0,35,2,33,8,1,24,18,3,14,33,0,0,0,0,0,0,0,0,0,0,0,0,0,0,0,0,0,0,0,0,0,0,0,0,0,0,0,0,0,0],"split_type":[0,0,0,0,0,0,0,0,0,0,0,0,0,0,0,0,0,0,0,0,0,0,0,0,0,0,0,0,0,0,0,0,0,0,0,0,0,0,0,0,0,0,0,0,0,0,0,0,0,0,0,0,0,0,0,0,0,0,0,0,0],"sum_hessian":[3.7203E4,1.0185E4,2.7018E4,7.873E3,2.312E3,4.789E3,2.2229E4,7.8E3,7.3E1,5.1E1,2.261E3,2.131E3,2.658E3,1.4624E4,7.605E3,2.217E3,5.583E3,1.8E1,5.5E1,9E0,4.2E1,6.1E1,2.2E3,1.542E3,5.89E2,2.216E3,4.42E2,5.52E2,1.4072E4,8.82E2,6.723E3,5E0,2.212E3,2.201E3,3.382E3,1.2E1,6E0,3.6E1,1.9E1,2E0,7E0,9E0,5.2E1,1.971E3,2.29E2,1.401E3,1.41E2,1.56E2,4.33E2,7.57E2,1.459E3,1.6E1,4.26E2,3.5E1,5.17E2,5.959E3,8.113E3,3.61E2,5.21E2,2.192E3,4.531E3],"tree_param":{"num_deleted":"0","num_feature":"44","num_nodes":"61","size_leaf_vector":"1"}},{"base_weights":[-2.5357243E-5,1.6756126E-3,-2.5508476E-2,2.145091E-2,-7.588631E-4,-1.2078073E-2,-6.114228E-2,2.482949E-2,-1.8307636E-2,2.719129E-4,-3.4522675E-2,8.187901E-3,-1.3854407E-2,-7.004137E-2,2.6012238E-3,3.7365258E-2,2.0274647E-2,-1.3640923E-3,-7.9544075E-2,-1.3472106E-2,3.1478775E-3,3.010602E-2,-3.726488E-2,-7.62497E-2,-9.931094E-3,-1.6057156E-1,-5.738671E-2,-4.4633495E-3,1.0014845E-2,9.921564E-4,1.9980336E-3,-4.653371E-6,1.4905615E-3,1.455436E-4,-4.913469E-3,1.1570059E-3,-6.4539174E-3,-1.2188142E-4,-2.0463753E-3,2.429616E-4,-1.01013E-3,1.727237E-4,3.1412658E-3,-2.1354354E-3,-3.1227563E-4,-8.786476E-3,-1.192361E-3,1.6722489E-4,-1.2797521E-3,-1.4592832E-3,-9.270736E-3,1.4493173E-3,-3.3073418E-3,9.39932E-4,-1.8467326E-3],"categories":[],"categories_nodes":[],"categories_segments":[],"categories_sizes":[],"default_left":[0,0,0,0,0,0,0,0,0,0,0,0,0,0,0,0,0,0,0,0,0,0,0,0,0,0,0,0,0,0,0,0,0,0,0,0,0,0,0,0,0,0,0,0,0,0,0,0,0,0,0,0,0,0,0],"id":17,"left_children":[1,3,5,7,9,11,13,15,17,19,21,-1,23,25,27,29,31,33,35,37,39,41,43,45,47,49,51,-1,53,-1,-1,-1,-1,-1,-1,-1,-1,-1,-1,-1,-1,-1,-1,-1,-1,-1,-1,-1,-1,-1,-1,-1,-1,-1,-1],"loss_changes":[1.6126878E0,1.6790818E0,1.1133876E0,5.1398826E-1,1.0808142E0,5.3075415E-1,3.615265E-1,2.0045733E-1,3.1116015E-1,1.1912374E0,1.6416919E-1,0E0,4.0952128E-1,6.3119197E-1,5.469901E-2,4.1864514E-2,5.0249755E-1,9.805298E-2,3.33602E-1,1.5798155E0,9.9600506E-1,3.2919716E-2,1.4884019E-1,5.118953E-1,3.2822782E-1,2.1654308E-1,3.741833E-1,0E0,3.1211538E-2,0E0,0E0,0E0,0E0,0E0,0E0,0E0,0E0,0E0,0E0,0E0,0E0,0E0,0E0,0E0,0E0,0E0,0E0,0E0,0E0,0E0,0E0,0E0,0E0,0E0,0E0],"parents":[2147483647,0,0,1,1,2,2,3,3,4,4,5,5,6,6,7,7,8,8,9,9,10,10,12,12,13,13,14,14,15,15,16,16,17,17,18,18,19,19,20,20,21,21,22,22,23,23,24,24,25,25,26,26,28,28],"right_children":[2,4,6,8,10,12,14,16,18,20,22,-1,24,26,28,30,32,34,36,38,40,42,44,46,48,50,52,-1,54,-1,-1,-1,-1,-1,-1,-1,-1,-1,-1,-1,-1,-1,-1,-1,-1,-1,-1,-1,-1,-1,-1,-1,-1,-1,-1],"split_conditions":[5.010223E-2,1.7736E3,7.613638E-1,7.900987E1,1.0798042E4,1.4321E4,9.434E1,3.019984E3,6.393585E-1,1.874E3,-1.2205511E-1,8.187901E-3,-9.956475E-2,1.8315E1,3.2129166E1,-1.8408686E-1,1.84429E1,1.208231E0,1.9479558E9,1.86399E1,3.638563E1,1.3123727E9,3.4993107E1,5.4729526E-4,5.214272E3,1.82071E1,4.505276E3,-4.4633495E-3,1.9655E3,9.921564E-4,1.9980336E-3,-4.653371E-6,1.4905615E-3,1.455436E-4,-4.913469E-3,1.1570059E-3,-6.4539174E-3,-1.2188142E-4,-2.0463753E-3,2.429616E-4,-1.01013E-3,1.727237E-4,3.1412658E-3,-2.1354354E-3,-3.1227563E-4,-8.786476E-3,-1.192361E-3,1.6722489E-4,-1.2797521E-3,-1.4592832E-3,-9.270736E-3,1.4493173E-3,-3.3073418E-3,9.39932E-4,-1.8467326E-3],"split_indices":[31,2,33,9,4,0,1,4,36,2,32,0,30,3,21,12,3,35,18,3,3,18,22,37,4,3,4,0,2,0,0,0,0,0,0,0,0,0,0,0,0,0,0,0,0,0,0,0,0,0,0,0,0,0,0],"split_type":[0,0,0,0,0,0,0,0,0,0,0,0,0,0,0,0,0,0,0,0,0,0,0,0,0,0,0,0,0,0,0,0,0,0,0,0,0,0,0,0,0,0,0,0,0,0,0,0,0,0,0,0,0,0,0],"sum_hessian":[3.7203E4,3.4876E4,2.327E3,3.822E3,3.1054E4,1.691E3,6.36E2,3.523E3,2.99E2,3.0135E4,9.19E2,1.6E1,1.675E3,5.58E2,7.8E1,9.37E2,2.586E3,2.35E2,6.4E1,5.214E3,2.4921E4,3.7E1,8.82E2,9.8E1,1.577E3,6.7E1,4.91E2,5E0,7.3E1,1.22E2,8.15E2,8.25E2,1.761E3,2.26E2,9E0,2.1E1,4.3E1,3.72E3,1.494E3,2.322E4,1.701E3,2.1E1,1.6E1,7.5E2,1.32E2,3.3E1,6.5E1,8.54E2,7.23E2,1.1E1,5.6E1,4.5E1,4.46E2,6.2E1,1.1E1],"tree_param":{"num_deleted":"0","num_feature":"44","num_nodes":"55","size_leaf_vector":"1"}},{"base_weights":[-2.4857103E-5,1.7739045E-3,-2.2455966E-2,2.1200065E-2,-5.1955855E-4,-9.09668E-3,-5.3919587E-2,-1.2150473E-1,2.2540454E-2,1.0103867E-3,-2.2083212E-2,-2.9160425E-1,-7.33453E-3,1.2125928E-2,-5.9129097E-2,-2.70717E-1,-3.8372044E-2,2.4183609E-2,-2.5783714E-2,-1.7856348E-3,1.6654287E-2,-4.5561858E-2,-2.1541852E-3,-2.1801172E-2,-2.2127517E-3,-4.609725E-2,2.6450201E-3,-5.6044452E-2,3.3624433E-2,-1.9274658E-2,-6.958867E-2,-6.40191E-3,-1.7716963E-2,1.7231938E-3,-2.7759904E-3,1.5082262E-3,7.812194E-4,-3.576085E-3,3.0725452E-4,4.5893303E-5,-1.1382876E-3,1.4752747E-3,2.5812045E-4,-3.9333077E-3,-1.3926713E-3,1.5619656E-3,-5.1514653E-4,-1.6839628E-3,1.4995667E-3,-3.427608E-3,1.1931298E-4,2.910306E-4,-2.8374018E-3,7.886486E-4,-5.2837646E-3,2.2040352E-3,5.305184E-4,-8.256519E-5,-6.208838E-3,-3.089557E-3,-1.1103208E-2],"categories":[],"categories_nodes":[],"categories_segments":[],"categories_sizes":[],"default_left":[0,0,0,0,0,0,0,0,0,0,0,0,0,0,0,0,0,0,0,0,0,0,0,0,0,0,0,0,0,0,0,0,0,0,0,0,0,0,0,0,0,0,0,0,0,0,0,0,0,0,0,0,0,0,0,0,0,0,0,0,0],"id":18,"left_children":[1,3,5,7,9,11,13,15,17,19,21,23,25,27,29,31,33,35,37,39,41,43,45,-1,47,49,51,53,55,57,59,-1,-1,-1,-1,-1,-1,-1,-1,-1,-1,-1,-1,-1,-1,-1,-1,-1,-1,-1,-1,-1,-1,-1,-1,-1,-1,-1,-1,-1,-1],"loss_changes":[1.5011549E0,1.5345562E0,1.1604652E0,6.984242E-1,1.0163826E0,9.636336E-1,2.8388214E-1,4.1136217E-1,2.8679585E-1,1.258318E0,9.548992E-1,5.005592E-1,7.4632573E-1,9.128371E-2,3.167231E-1,9.780455E-2,3.0639816E-2,1.7798376E-1,1.7422226E-1,1.3843235E0,6.440474E-1,5.4710186E-1,3.0100903E-1,0E0,6.0768356E-3,4.3019718E-1,2.8984374E-1,5.513219E-2,1.0842435E-2,2.9559124E-1,7.043936E-1,0E0,0E0,0E0,0E0,0E0,0E0,0E0,0E0,0E0,0E0,0E0,0E0,0E0,0E0,0E0,0E0,0E0,0E0,0E0,0E0,0E0,0E0,0E0,0E0,0E0,0E0,0E0,0E0,0E0,0E0],"parents":[2147483647,0,0,1,1,2,2,3,3,4,4,5,5,6,6,7,7,8,8,9,9,10,10,11,11,12,12,13,13,14,14,15,15,16,16,17,17,18,18,19,19,20,20,21,21,22,22,24,24,25,25,26,26,27,27,28,28,29,29,30,30],"right_children":[2,4,6,8,10,12,14,16,18,20,22,24,26,28,30,32,34,36,38,40,42,44,46,-1,48,50,52,54,56,58,60,-1,-1,-1,-1,-1,-1,-1,-1,-1,-1,-1,-1,-1,-1,-1,-1,-1,-1,-1,-1,-1,-1,-1,-1,-1,-1,-1,-1,-1,-1],"split_conditions":[7.7696216E-1,1.7897E3,4.6196543E-2,-9.956475E-2,3.638563E1,8.8349216E-2,1.6654E3,4.068072E7,3.2128415E-1,3.42306E1,2.4931723E1,3.168935E-1,8.273E1,3.489433E0,2.382824E8,1.4087915E1,4.26071E1,1.3012652E-1,1.7361E3,2.405E3,9.756648E3,3.59108E1,-2.5531273E0,-2.1801172E-2,4.710811E1,4.8878597E1,8.69619E1,3.9013058E1,6.338862E9,6.498093E3,1.4337778E2,-6.40191E-3,-1.7716963E-2,1.7231938E-3,-2.7759904E-3,1.5082262E-3,7.812194E-4,-3.576085E-3,3.0725452E-4,4.5893303E-5,-1.1382876E-3,1.4752747E-3,2.5812045E-4,-3.9333077E-3,-1.3926713E-3,1.5619656E-3,-5.1514653E-4,-1.6839628E-3,1.4995667E-3,-3.427608E-3,1.1931298E-4,2.910306E-4,-2.8374018E-3,7.886486E-4,-5.2837646E-3,2.2040352E-3,5.305184E-4,-8.256519E-5,-6.208838E-3,-3.089557E-3,-1.1103208E-2],"split_indices":[33,2,31,30,3,36,2,0,32,3,23,10,1,14,18,5,21,32,2,2,4,7,11,0,17,21,9,21,18,13,5,0,0,0,0,0,0,0,0,0,0,0,0,0,0,0,0,0,0,0,0,0,0,0,0,0,0,0,0,0,0],"split_type":[0,0,0,0,0,0,0,0,0,0,0,0,0,0,0,0,0,0,0,0,0,0,0,0,0,0,0,0,0,0,0,0,0,0,0,0,0,0,0,0,0,0,0,0,0,0,0,0,0,0,0,0,0,0,0,0,0,0,0,0,0],"sum_hessian":[3.7203E4,3.4442E4,2.761E3,3.636E3,3.0806E4,1.939E3,8.22E2,3.3E1,3.603E3,2.8766E4,2.04E3,1.1E1,1.928E3,6E1,7.62E2,1.1E1,2.2E1,3.485E3,1.18E2,2.4405E4,4.361E3,9.36E2,1.104E3,7E0,4E0,3.94E2,1.534E3,1.4E1,4.6E1,1.59E2,6.03E2,5E0,6E0,4E0,1.8E1,2.05E3,1.435E3,4.8E1,7E1,2.162E4,2.785E3,2.058E3,2.303E3,3.25E2,6.11E2,2.16E2,8.88E2,2E0,2E0,2.69E2,1.25E2,1.457E3,7.7E1,6E0,8E0,3.1E1,1.5E1,1.37E2,2.2E1,5.75E2,2.8E1],"tree_param":{"num_deleted":"0","num_feature":"44","num_nodes":"61","size_leaf_vector":"1"}},{"base_weights":[-2.5762072E-5,-2.8293836E-3,1.3340011E-2,-1.6272236E-2,1.9120426E-3,2.3220627E-2,7.878212E-3,-5.4762913E-3,-4.4226162E-2,7.5138253E-3,-8.9146085E-3,2.8497688E-2,1.1630147E-2,2.0310234E-2,-1.0220064E-2,6.6195855E-5,-4.089025E-2,-4.0974613E-2,-1.4270675E-1,-4.2950563E-2,8.950696E-3,-4.1315224E-2,-4.749471E-3,3.0692874E-2,2.1018356E-2,-7.312644E-2,1.3537204E-2,-2.1654826E-2,2.4372572E-2,3.2006767E-2,-1.2666581E-2,9.325565E-5,-5.678313E-3,-1.7966339E-3,-2.5833173E-2,-3.8486514E-3,-1.5524928E-3,-6.119047E-3,-1.5552993E-2,1.4200323E-3,-2.3896273E-3,1.1423634E-4,7.2375615E-4,-2.2530684E-3,2.6776716E-3,-1.1564542E-3,9.018464E-5,1.7314717E-3,1.3346443E-3,-8.7171205E-4,1.1252451E-3,-1.884417E-2,1.2981176E-3,-1.1105821E-2,7.093723E-4,-7.420086E-4,-2.156196E-3,1.5322198E-3,5.9191155E-4,1.8755302E-3,2.5974386E-4,2.3865072E-5,-1.066489E-3],"categories":[],"categories_nodes":[],"categories_segments":[],"categories_sizes":[],"default_left":[0,0,0,0,0,0,0,0,0,0,0,0,0,0,0,0,0,0,0,0,0,0,0,0,0,0,0,0,0,0,0,0,0,0,0,0,0,0,0,0,0,0,0,0,0,0,0,0,0,0,0,0,0,0,0,0,0,0,0,0,0,0,0],"id":19,"left_children":[1,3,5,7,9,11,13,15,17,19,21,23,25,27,29,31,33,35,37,39,41,43,45,47,49,51,53,55,57,59,61,-1,-1,-1,-1,-1,-1,-1,-1,-1,-1,-1,-1,-1,-1,-1,-1,-1,-1,-1,-1,-1,-1,-1,-1,-1,-1,-1,-1,-1,-1,-1,-1],"loss_changes":[1.3941672E0,1.9602387E0,3.479513E-1,2.4198039E0,1.3789724E0,1.4010036E-1,9.3530005E-1,1.135687E0,7.095113E-1,1.0868863E0,1.0460947E0,2.5246859E-2,1.1736761E-1,4.2058122E-1,1.7530702E-1,1.0231063E0,1.8282815E0,7.7075386E-1,2.0488822E-1,1.4473224E-1,5.3651667E-1,3.162235E-1,8.276166E-1,1.8238783E-2,2.102767E-2,4.913673E-1,1.1117965E-1,3.1254403E-2,1.7628098E-1,1.352898E-2,1.8231294E-1,0E0,0E0,0E0,0E0,0E0,0E0,0E0,0E0,0E0,0E0,0E0,0E0,0E0,0E0,0E0,0E0,0E0,0E0,0E0,0E0,0E0,0E0,0E0,0E0,0E0,0E0,0E0,0E0,0E0,0E0,0E0,0E0],"parents":[2147483647,0,0,1,1,2,2,3,3,4,4,5,5,6,6,7,7,8,8,9,9,10,10,11,11,12,12,13,13,14,14,15,15,16,16,17,17,18,18,19,19,20,20,21,21,22,22,23,23,24,24,25,25,26,26,27,27,28,28,29,29,30,30],"right_children":[2,4,6,8,10,12,14,16,18,20,22,24,26,28,30,32,34,36,38,40,42,44,46,48,50,52,54,56,58,60,62,-1,-1,-1,-1,-1,-1,-1,-1,-1,-1,-1,-1,-1,-1,-1,-1,-1,-1,-1,-1,-1,-1,-1,-1,-1,-1,-1,-1,-1,-1,-1,-1],"split_conditions":[9.434E1,1.947354E1,1.8003E3,5.092273E3,9.739648E3,5.510445E-1,2.458687E3,1.91207E1,1.3804128E0,1.874E3,7.209E1,3.0759154E-2,1.4347291E-2,9.792E1,9.444E1,7.4894917E-1,3.279397E8,7.3228154E0,1.9072E3,2.382824E8,2.91255E1,1.9957455E-1,-9.3293905E-2,2.7504854E3,-7.715624E-1,5.337239E1,7.116158E-2,4.2275843E-1,2.3907874E3,-6.230262E-2,1.3696486E7,9.325565E-5,-5.678313E-3,-1.7966339E-3,-2.5833173E-2,-3.8486514E-3,-1.5524928E-3,-6.119047E-3,-1.5552993E-2,1.4200323E-3,-2.3896273E-3,1.1423634E-4,7.2375615E-4,-2.2530684E-3,2.6776716E-3,-1.1564542E-3,9.018464E-5,1.7314717E-3,1.3346443E-3,-8.7171205E-4,1.1252451E-3,-1.884417E-2,1.2981176E-3,-1.1105821E-2,7.093723E-4,-7.420086E-4,-2.156196E-3,1.5322198E-3,5.9191155E-4,1.8755302E-3,2.5974386E-4,2.3865072E-5,-1.066489E-3],"split_indices":[1,3,2,4,4,33,4,3,33,2,1,31,31,1,1,32,0,8,2,18,3,32,33,4,10,9,36,11,4,12,0,0,0,0,0,0,0,0,0,0,0,0,0,0,0,0,0,0,0,0,0,0,0,0,0,0,0,0,0,0,0,0,0],"split_type":[0,0,0,0,0,0,0,0,0,0,0,0,0,0,0,0,0,0,0,0,0,0,0,0,0,0,0,0,0,0,0,0,0,0,0,0,0,0,0,0,0,0,0,0,0,0,0,0,0,0,0,0,0,0,0,0,0,0,0,0,0,0,0],"sum_hessian":[3.7203E4,3.0753E4,6.45E3,8.018E3,2.2735E4,2.295E3,4.155E3,5.785E3,2.233E3,1.4983E4,7.752E3,1.576E3,7.19E2,2.463E3,1.692E3,5.003E3,7.82E2,2.163E3,7E1,4.14E2,1.4569E4,8.82E2,6.87E3,1.216E3,3.6E2,1.5E1,7.04E2,2.17E2,2.246E3,9.2E1,1.6E3,4.926E3,7.7E1,7.75E2,7E0,4.66E2,1.697E3,6.4E1,6E0,2.6E1,3.88E2,6.603E3,7.966E3,8.49E2,3.3E1,1.805E3,5.065E3,6.09E2,6.07E2,1.3E1,3.47E2,3E0,1.2E1,1E0,7.03E2,1.66E2,5.1E1,1.496E3,7.5E2,7.6E1,1.6E1,6.36E2,9.64E2],"tree_param":{"num_deleted":"0","num_feature":"44","num_nodes":"63","size_leaf_vector":"1"}},{"base_weights":[-2.6768847E-5,1.349808E-3,-2.5691118E-2,-3.1614648E-3,9.833128E-3,-5.705773E-2,-7.1287435E-3,-2.214013E-2,6.553953E-4,-1.6241444E-2,1.2307669E-2,-2.075502E-1,-5.0284646E-2,1.0311391E-2,-3.98855E-2,-4.8054103E-3,-3.8872223E-2,1.2143658E-2,-7.969243E-3,1.0256166E-2,-2.4402156E-2,1.3050488E-2,-4.865611E-2,-1.6654404E-2,-1.3788693E-1,-3.2307915E-2,-1.002966E-1,2.9811032E-2,-1.2295705E-2,-1.7148955E-1,-2.4565982E-2,4.4391557E-4,-1.9604268E-3,-5.535739E-4,-3.2295343E-3,2.123838E-5,1.5625897E-3,-7.8878755E-4,2.71324E-5,1.5851975E-3,-3.608927E-5,-1.3956164E-3,1.2240935E-3,1.4404595E-3,5.218665E-4,-1.2971283E-4,-5.3973026E-3,-8.3661685E-3,-4.0023434E-3,6.94324E-4,-2.3748353E-3,-4.3576453E-3,-1.2402019E-2,7.637813E-3,1.2743734E-3,-1.2069835E-4,-2.9057714E-3,-3.9671115E-3,-9.850434E-3,-6.7396513E-3,-1.0258661E-3],"categories":[],"categories_nodes":[],"categories_segments":[],"categories_sizes":[],"default_left":[0,0,0,0,0,0,0,0,0,0,0,0,0,0,0,0,0,0,0,0,0,0,0,0,0,0,0,0,0,0,0,0,0,0,0,0,0,0,0,0,0,0,0,0,0,0,0,0,0,0,0,0,0,0,0,0,0,0,0,0,0],"id":20,"left_children":[1,3,5,7,9,11,13,15,17,19,21,23,25,27,29,31,33,35,37,39,41,43,45,-1,47,49,51,53,55,57,59,-1,-1,-1,-1,-1,-1,-1,-1,-1,-1,-1,-1,-1,-1,-1,-1,-1,-1,-1,-1,-1,-1,-1,-1,-1,-1,-1,-1,-1,-1],"loss_changes":[1.3144127E0,1.3514034E0,1.1023536E0,1.6699487E0,7.911825E-1,7.0714927E-1,6.808084E-1,1.1193912E0,1.9018787E0,2.3011273E-1,5.076915E-1,2.1643281E-1,6.036196E-1,3.4333247E-1,8.304568E-1,8.933851E-1,1.4035296E0,1.8431226E0,7.2854596E-1,5.9121512E-2,1.4018705E-1,4.552734E-1,3.6840555E-1,0E0,2.236104E-2,3.5007483E-1,3.240404E-1,2.1829948E-1,1.6331275E-1,8.548415E-2,1.6324751E-1,0E0,0E0,0E0,0E0,0E0,0E0,0E0,0E0,0E0,0E0,0E0,0E0,0E0,0E0,0E0,0E0,0E0,0E0,0E0,0E0,0E0,0E0,0E0,0E0,0E0,0E0,0E0,0E0,0E0,0E0],"parents":[2147483647,0,0,1,1,2,2,3,3,4,4,5,5,6,6,7,7,8,8,9,9,10,10,11,11,12,12,13,13,14,14,15,15,16,16,17,17,18,18,19,19,20,20,21,21,22,22,24,24,25,25,26,26,27,27,28,28,29,29,30,30],"right_children":[2,4,6,8,10,12,14,16,18,20,22,24,26,28,30,32,34,36,38,40,42,44,46,-1,48,50,52,54,56,58,60,-1,-1,-1,-1,-1,-1,-1,-1,-1,-1,-1,-1,-1,-1,-1,-1,-1,-1,-1,-1,-1,-1,-1,-1,-1,-1,-1,-1,-1,-1],"split_conditions":[5.230469E-2,8.621E1,1.882532E1,1.94231E1,1.376228E1,5.4729526E-4,1.9788E3,4.2569157E-1,9.044853E3,8.886E1,5.986378E-1,-1.2739869E2,1.871924E1,5.1887725E3,1.947354E1,1.919348E1,1.869367E1,2.91255E1,3.42748E1,8.762E1,3.676349E-1,2.3907874E3,2.3496858E9,-1.6654404E-2,1.7027962E0,1.515621E9,2.1675E1,1.4321E4,2.720738E1,6.197351E0,1.3023025E1,4.4391557E-4,-1.9604268E-3,-5.535739E-4,-3.2295343E-3,2.123838E-5,1.5625897E-3,-7.8878755E-4,2.71324E-5,1.5851975E-3,-3.608927E-5,-1.3956164E-3,1.2240935E-3,1.4404595E-3,5.218665E-4,-1.2971283E-4,-5.3973026E-3,-8.3661685E-3,-4.0023434E-3,6.94324E-4,-2.3748353E-3,-4.3576453E-3,-1.2402019E-2,7.637813E-3,1.2743734E-3,-1.2069835E-4,-2.9057714E-3,-3.9671115E-3,-9.850434E-3,-6.7396513E-3,-1.0258661E-3],"split_indices":[31,1,3,3,3,37,2,33,4,1,32,20,3,4,3,3,3,3,3,1,36,4,18,0,11,18,19,0,3,5,23,0,0,0,0,0,0,0,0,0,0,0,0,0,0,0,0,0,0,0,0,0,0,0,0,0,0,0,0,0,0],"split_type":[0,0,0,0,0,0,0,0,0,0,0,0,0,0,0,0,0,0,0,0,0,0,0,0,0,0,0,0,0,0,0,0,0,0,0,0,0,0,0,0,0,0,0,0,0,0,0,0,0,0,0,0,0,0,0,0,0,0,0,0,0],"sum_hessian":[3.7203E4,3.531E4,1.893E3,2.3052E4,1.2258E4,7.03E2,1.19E3,3.859E3,1.9193E4,1.062E3,1.1196E4,2.9E1,6.74E2,7.77E2,4.13E2,1.896E3,1.963E3,8.23E3,1.0963E4,2.5E2,8.12E2,1.1062E4,1.34E2,9E0,2E1,4.97E2,1.77E2,4.17E2,3.6E2,4.2E1,3.71E2,1.357E3,5.39E2,9.44E2,1.019E3,5.102E3,3.128E3,5.718E3,5.245E3,8.4E1,1.66E2,7.58E2,5.4E1,1.572E3,9.49E3,7.6E1,5.8E1,1.2E1,8E0,1.23E2,3.74E2,1.64E2,1.3E1,1.3E1,4.04E2,2.97E2,6.3E1,1E1,3.2E1,1.2E1,3.59E2],"tree_param":{"num_deleted":"0","num_feature":"44","num_nodes":"61","size_leaf_vector":"1"}}]},"name":"gbtree"},"learner_model_param":{"base_score":"[-8.5081026E-2]","boost_from_average":"1","num_class":"0","num_feature":"44","num_target":"1"},"objective":{"name":"reg:squarederror","reg_loss_param":{"scale_pos_weight":"1"}}},"version":[3,2,0]}