{"learner":{"attributes":{"best_iteration":"24","best_score":"0.6889351642340591","scikit_learn":"{\"_estimator_type\": \"classifier\"}"},"feature_names":["Volume","Macro_petrol","Macro_altin","Macro_dolar","Macro_bist100","SMA_9","SMA_21","SMA_50","SMA_200","RSI_14","MACD","MACD_Signal","MACD_Hist","BB_Upper","BB_Lower","BB_Middle","STOCH_K","STOCH_D","OBV","MOM_10","CCI_10","ADX","PLUS_DI","MINUS_DI","ATR_14","EMA_9","EMA_21","DC_Upper_20","DC_Lower_20","DC_Mid_20","Log_Return","Volatility_10","Dist_SMA_50","Dist_SMA_200","RSI_Slope","Volume_Change","BB_Width","Body_Size","Upper_Shadow","Lower_Shadow","Macro_petrol_LogRet","Macro_altin_LogRet","Macro_dolar_LogRet","Macro_bist100_LogRet"],"feature_types":["int","float","float","float","float","float","float","float","float","float","float","float","float","float","float","float","float","float","float","float","float","float","float","float","float","float","float","float","float","float","float","float","float","float","float","float","float","float","float","float","float","float","float","float"],"gradient_booster":{"model":{"cats":{"enc":[],"feature_segments":[],"sorted_idx":[]},"gbtree_model_param":{"num_parallel_tree":"1","num_trees":"125"},"iteration_indptr":[0,1,2,3,4,5,6,7,8,9,10,11,12,13,14,15,16,17,18,19,20,21,22,23,24,25,26,27,28,29,30,31,32,33,34,35,36,37,38,39,40,41,42,43,44,45,46,47,48,49,50,51,52,53,54,55,56,57,58,59,60,61,62,63,64,65,66,67,68,69,70,71,72,73,74,75,76,77,78,79,80,81,82,83,84,85,86,87,88,89,90,91,92,93,94,95,96,97,98,99,100,101,102,103,104,105,106,107,108,109,110,111,112,113,114,115,116,117,118,119,120,121,122,123,124,125],"tree_info":[0,0,0,0,0,0,0,0,0,0,0,0,0,0,0,0,0,0,0,0,0,0,0,0,0,0,0,0,0,0,0,0,0,0,0,0,0,0,0,0,0,0,0,0,0,0,0,0,0,0,0,0,0,0,0,0,0,0,0,0,0,0,0,0,0,0,0,0,0,0,0,0,0,0,0,0,0,0,0,0,0,0,0,0,0,0,0,0,0,0,0,0,0,0,0,0,0,0,0,0,0,0,0,0,0,0,0,0,0,0,0,0,0,0,0,0,0,0,0,0,0,0,0,0,0],"trees":[{"base_weights":[8.4609315E-3,4.974101E-1,-6.366282E-2,1.293553E0,3.893084E-1,8.892297E-1,-7.931922E-2,-2.310814E-3,1.4000264E0,4.9285358E-1,-3.0476356E-1,-1.5483748E-2,1.1347494E0,-1.4094165E-1,1.5052752E-1,1.4715304E0,1.4625463E-3,7.7356446E-1,3.3606517E-1,2.5280237E-1,-7.980984E-1,-1.1301374E-2,1.3904682E0,-1.0425095E-1,-5.532427E-1,7.502051E-2,7.4402297E-1,6.3883774E-3,1.5975615E-2,4.2657778E-3,9.707111E-3,-1.9430007E-3,5.623594E-3,6.4339787E-3,-5.441585E-3,6.199017E-3,-9.94426E-3,1.4788437E-2,1.4625463E-3,-1.2397594E-3,1.1560143E-2,-7.702462E-3,2.0508508E-3,4.2168573E-3,-9.61839E-4,1.6724009E-2,4.088353E-3],"categories":[],"categories_nodes":[],"categories_segments":[],"categories_sizes":[],"default_left":[0,0,0,0,0,0,0,0,0,0,0,0,0,0,0,0,0,0,0,0,0,0,0,0,0,0,0,0,0,0,0,0,0,0,0,0,0,0,0,0,0,0,0,0,0,0,0],"id":0,"left_children":[1,3,5,7,9,11,13,-1,15,17,19,-1,21,23,25,27,-1,29,31,33,35,-1,37,39,41,43,45,-1,-1,-1,-1,-1,-1,-1,-1,-1,-1,-1,-1,-1,-1,-1,-1,-1,-1,-1,-1],"loss_changes":[2.3375406E2,7.2829285E1,8.6250244E1,1.6789566E1,5.4168633E1,5.7690254E1,8.0529236E1,0E0,8.297379E0,2.8543488E1,2.7211637E1,0E0,5.1081535E1,6.775769E1,5.381922E1,8.395172E0,0E0,1.5577255E1,5.0718136E1,1.4935755E1,1.5187046E1,0E0,8.279022E0,1.0250616E2,6.040336E1,6.34057E1,4.1504974E1,0E0,0E0,0E0,0E0,0E0,0E0,0E0,0E0,0E0,0E0,0E0,0E0,0E0,0E0,0E0,0E0,0E0,0E0,0E0,0E0],"parents":[2147483647,0,0,1,1,2,2,3,3,4,4,5,5,6,6,8,8,9,9,10,10,12,12,13,13,14,14,15,15,17,17,18,18,19,19,20,20,22,22,23,23,24,24,25,25,26,26],"right_children":[2,4,6,8,10,12,14,-1,16,18,20,-1,22,24,26,28,-1,30,32,34,36,-1,38,40,42,44,46,-1,-1,-1,-1,-1,-1,-1,-1,-1,-1,-1,-1,-1,-1,-1,-1,-1,-1,-1,-1],"split_conditions":[1.7933E3,-1.0645343E-2,-4.5952693E-2,-9.93984E-2,4.5553803E-2,1.8362E3,1.4580869E-2,-2.310814E-3,6.6150947E0,1.81658E1,1.4102598E1,-1.5483748E-2,7.104E1,2.9194E3,6.4636357E-3,-9.396048E-4,1.4625463E-3,1.78674E1,4.1321367E-3,9.946089E-4,-7.2112733E-1,-1.1301374E-2,2.7444752E1,3.62928E1,3.3087E3,-1.1693779E-4,7.429E1,6.3883774E-3,1.5975615E-2,4.2657778E-3,9.707111E-3,-1.9430007E-3,5.623594E-3,6.4339787E-3,-5.441585E-3,6.199017E-3,-9.94426E-3,1.4788437E-2,1.4625463E-3,-1.2397594E-3,1.1560143E-2,-7.702462E-3,2.0508508E-3,4.2168573E-3,-9.61839E-4,1.6724009E-2,4.088353E-3],"split_indices":[2,43,43,30,31,2,43,0,34,3,23,0,1,2,42,42,0,3,43,42,12,0,22,3,2,42,1,0,0,0,0,0,0,0,0,0,0,0,0,0,0,0,0,0,0,0,0],"split_type":[0,0,0,0,0,0,0,0,0,0,0,0,0,0,0,0,0,0,0,0,0,0,0,0,0,0,0,0,0,0,0,0,0,0,0,0,0,0,0,0,0,0,0,0,0,0,0],"sum_hessian":[6.626631E3,8.5106976E2,5.775561E3,1.0043371E2,7.5063605E2,9.2458824E1,5.6831025E3,6.479594E0,9.395412E1,6.5344214E2,9.719391E1,7.974885E0,8.448394E1,4.4818853E3,1.201217E3,8.87206E1,5.233518E0,2.3276695E2,4.2067517E2,4.5855587E1,5.133832E1,8.2241E0,7.6259834E1,4.116785E3,3.651002E2,1.0666409E3,1.3457619E2,1.2460758E1,7.6259834E1,8.54808E1,1.4728616E2,1.2585365E2,2.9482153E2,3.090268E1,1.4952909E1,5.981164E0,4.535716E1,7.102632E1,5.233518E0,4.0542322E3,6.2553005E1,2.8385605E2,8.124414E1,3.5214102E2,7.144999E2,3.4640907E1,9.993528E1],"tree_param":{"num_deleted":"0","num_feature":"44","num_nodes":"47","size_leaf_vector":"1"}},{"base_weights":[1.1891784E-2,2.9031318E-1,-1.1341398E-1,5.8795474E-2,4.8734927E-1,-3.9099373E-2,-3.5419533E-1,2.4610761E-1,-7.1461153E-1,4.4056448E-1,1.6757953E0,-4.600287E-1,4.4748202E-2,-6.9314414E-1,2.1062586E-1,-2.880933E-1,5.080774E-1,-1.1385763E0,-3.2846668E-1,5.533795E-1,-2.0472094E-1,1.8095791E-2,6.659392E-3,2.4353766E-1,-6.823985E-1,5.649637E-1,-7.524374E-2,9.3533427E-1,-8.284535E-1,1.2264612E0,-7.358114E-3,4.943185E-3,-8.146098E-3,8.876755E-3,1.1148506E-3,-9.181581E-3,-1.6668139E-2,7.2836457E-3,-7.7832243E-3,5.926305E-3,-4.7558555E-3,4.5768134E-3,-1.283754E-2,5.095821E-3,-2.7429196E-3,-1.3283488E-2,-3.5900495E-3,1.7432014E-2,5.060812E-3,-4.9482705E-3,8.02926E-4,1.4848861E-2,3.293247E-3,-7.256741E-3,-1.5687596E-2,1.3666678E-2,1.815175E-4,1.3029542E-2,-1.2128032E-3],"categories":[],"categories_nodes":[],"categories_segments":[],"categories_sizes":[],"default_left":[0,0,0,0,0,0,0,0,0,0,0,0,0,0,0,0,0,0,0,0,0,0,0,0,0,0,0,0,0,0,0,0,0,0,0,0,0,0,0,0,0,0,0,0,0,0,0,0,0,0,0,0,0,0,0,0,0,0,0],"id":1,"left_children":[1,3,5,7,9,11,13,15,17,19,21,23,25,27,29,31,33,35,37,39,41,-1,-1,43,45,47,49,51,53,55,57,-1,-1,-1,-1,-1,-1,-1,-1,-1,-1,-1,-1,-1,-1,-1,-1,-1,-1,-1,-1,-1,-1,-1,-1,-1,-1,-1,-1],"loss_changes":[2.3192413E2,9.409152E1,8.2019485E1,1.377661E2,6.1229004E1,1.2370427E2,2.07122E2,1.072498E2,2.998333E1,7.827202E1,4.449669E0,9.125198E1,1.8251324E2,1.497067E2,8.996287E1,1.0440407E2,7.726172E1,8.713593E0,4.7371975E1,3.7202057E1,1.15306496E2,0E0,0E0,1.9503498E1,9.198924E1,3.71369E1,1.5511119E2,1.6935623E1,4.6384125E1,1.2135033E1,5.023241E1,0E0,0E0,0E0,0E0,0E0,0E0,0E0,0E0,0E0,0E0,0E0,0E0,0E0,0E0,0E0,0E0,0E0,0E0,0E0,0E0,0E0,0E0,0E0,0E0,0E0,0E0,0E0,0E0],"parents":[2147483647,0,0,1,1,2,2,3,3,4,4,5,5,6,6,7,7,8,8,9,9,10,10,11,11,12,12,13,13,14,14,15,15,16,16,17,17,18,18,19,19,20,20,23,23,24,24,25,25,26,26,27,27,28,28,29,29,30,30],"right_children":[2,4,6,8,10,12,14,16,18,20,22,24,26,28,30,32,34,36,38,40,42,-1,-1,44,46,48,50,52,54,56,58,-1,-1,-1,-1,-1,-1,-1,-1,-1,-1,-1,-1,-1,-1,-1,-1,-1,-1,-1,-1,-1,-1,-1,-1,-1,-1,-1,-1],"split_conditions":[4.9765737E3,1.74112E1,9.890747E3,2.4901868E3,1.99071E1,1.941784E1,8.192E1,9.696E1,1.1548E2,1.92653E1,6.456717E1,1.870299E1,7.6803594E3,7.056E1,1.0188847E4,2.0075894E3,2.3808872E3,1.3495839E-2,-8.623011E-3,7.9292196E-1,4.5702754E3,1.8095791E-2,6.659392E-3,5.404371E3,8.217E1,5.261372E3,2.93114E1,1.0446145E4,1.0739543E4,2.9791787E-1,-3.5441793E-3,4.943185E-3,-8.146098E-3,8.876755E-3,1.1148506E-3,-9.181581E-3,-1.6668139E-2,7.2836457E-3,-7.7832243E-3,5.926305E-3,-4.7558555E-3,4.5768134E-3,-1.283754E-2,5.095821E-3,-2.7429196E-3,-1.3283488E-2,-3.5900495E-3,1.7432014E-2,5.060812E-3,-4.9482705E-3,8.02926E-4,1.4848861E-2,3.293247E-3,-7.256741E-3,-1.5687596E-2,1.3666678E-2,1.815175E-4,1.3029542E-2,-1.2128032E-3],"split_indices":[4,3,4,4,3,3,1,1,1,3,9,3,4,1,4,4,4,40,40,36,4,0,0,4,1,4,3,4,4,36,42,0,0,0,0,0,0,0,0,0,0,0,0,0,0,0,0,0,0,0,0,0,0,0,0,0,0,0,0],"split_type":[0,0,0,0,0,0,0,0,0,0,0,0,0,0,0,0,0,0,0,0,0,0,0,0,0,0,0,0,0,0,0,0,0,0,0,0,0,0,0,0,0,0,0,0,0,0,0,0,0,0,0,0,0,0,0,0,0,0,0],"sum_hessian":[6.6457695E3,2.0622546E3,4.583515E3,9.4875934E2,1.1134954E3,3.5033923E3,1.0801226E3,7.643279E2,1.8443146E2,1.0726401E3,4.085523E1,5.811969E2,2.9221956E3,6.748927E2,4.0522986E2,2.514595E2,5.1286835E2,8.698184E1,9.7449615E1,9.131388E2,1.5950128E2,3.537668E1,5.4785523E0,1.3955548E2,4.4164142E2,5.470023E2,2.375193E3,5.132095E1,6.235718E2,7.0776276E1,3.3445358E2,1.0117421E2,1.502853E2,2.6141595E2,2.5145241E2,6.3304768E1,2.3677074E1,2.8910955E1,6.8538666E1,8.7999445E2,3.314433E1,9.918744E1,6.0313843E1,9.22013E1,4.7354176E1,1.4630414E2,2.9533728E2,2.4673874E1,5.223284E2,6.4176135E2,1.7334319E3,2.6153616E1,2.5167336E1,5.492919E2,7.427988E1,6.3300156E1,7.476122E0,2.5917542E1,3.0853604E2],"tree_param":{"num_deleted":"0","num_feature":"44","num_nodes":"59","size_leaf_vector":"1"}},{"base_weights":[7.1358723E-3,2.690296E-1,-1.1159657E-1,2.2936928E-1,1.4492043E0,-3.559893E-2,-3.5858613E-1,2.8085878E-1,-4.6550217E-1,1.7270828E-2,-4.2028213E-3,-4.5216578E-1,4.8795998E-2,-6.681569E-1,1.8296757E-1,6.0291175E-2,5.138571E-1,2.5110462E-1,-1.2934744E0,2.5684404E-1,-6.700682E-1,5.489929E-1,-5.4533985E-2,3.6391857E-1,-8.799181E-1,1.2374684E0,-3.905652E-2,2.4333075E-3,-6.857343E-3,5.7505737E-3,-4.236459E-3,-2.8022171E-3,9.1264965E-3,1.8311087E-3,-1.5132935E-2,4.3769577E-3,-8.274345E-3,-1.2991566E-2,-3.5102027E-3,5.857954E-3,-1.4590623E-2,-4.1273874E-3,8.4997213E-4,9.485552E-3,-1.8845847E-2,-7.4674534E-3,-1.2402182E-2,1.369766E-2,6.644566E-3,1.8284643E-3,-4.0208856E-3],"categories":[],"categories_nodes":[],"categories_segments":[],"categories_sizes":[],"default_left":[0,0,0,0,0,0,0,0,0,0,0,0,0,0,0,0,0,0,0,0,0,0,0,0,0,0,0,0,0,0,0,0,0,0,0,0,0,0,0,0,0,0,0,0,0,0,0,0,0,0,0],"id":2,"left_children":[1,3,5,7,9,11,13,15,17,-1,-1,19,21,23,25,27,29,31,33,35,37,39,41,43,45,47,49,-1,-1,-1,-1,-1,-1,-1,-1,-1,-1,-1,-1,-1,-1,-1,-1,-1,-1,-1,-1,-1,-1,-1,-1],"loss_changes":[2.0593452E2,9.636304E1,8.552223E1,7.1684135E1,3.5520996E1,1.225677E2,1.7985893E2,9.568898E1,8.240841E1,0E0,0E0,9.09113E1,1.498878E2,1.4945486E2,9.152759E1,1.3097449E2,5.220392E1,2.6616802E1,2.1162994E1,2.7578865E1,8.976955E1,3.754692E1,1.2018503E2,1.5543312E2,2.625534E1,4.244011E0,2.6153286E1,0E0,0E0,0E0,0E0,0E0,0E0,0E0,0E0,0E0,0E0,0E0,0E0,0E0,0E0,0E0,0E0,0E0,0E0,0E0,0E0,0E0,0E0,0E0,0E0],"parents":[2147483647,0,0,1,1,2,2,3,3,4,4,5,5,6,6,7,7,8,8,11,11,12,12,13,13,14,14,15,15,16,16,17,17,18,18,19,19,20,20,21,21,22,22,23,23,24,24,25,25,26,26],"right_children":[2,4,6,8,10,12,14,16,18,-1,-1,20,22,24,26,28,30,32,34,36,38,40,42,44,46,48,50,-1,-1,-1,-1,-1,-1,-1,-1,-1,-1,-1,-1,-1,-1,-1,-1,-1,-1,-1,-1,-1,-1,-1,-1],"split_conditions":[4.9765737E3,1.98159E1,9.890747E3,1.92653E1,7.176555E-3,1.941784E1,8.192E1,1.74112E1,4.5702754E3,1.7270828E-2,-4.2028213E-3,1.870299E1,7.6286597E3,7.214E1,1.0188847E4,2.4901868E3,5.8358643E-2,-1.0885807E-2,1.49502125E1,1.2405154E0,8.217E1,9.048E1,2.93114E1,1.0739543E4,1.0158546E4,1.12334496E2,3.28263E1,2.4333075E-3,-6.857343E-3,5.7505737E-3,-4.236459E-3,-2.8022171E-3,9.1264965E-3,1.8311087E-3,-1.5132935E-2,4.3769577E-3,-8.274345E-3,-1.2991566E-2,-3.5102027E-3,5.857954E-3,-1.4590623E-2,-4.1273874E-3,8.4997213E-4,9.485552E-3,-1.8845847E-2,-7.4674534E-3,-1.2402182E-2,1.369766E-2,6.644566E-3,1.8284643E-3,-4.0208856E-3],"split_indices":[4,3,4,3,41,3,1,3,4,0,0,3,4,1,4,4,31,30,22,33,1,1,3,4,4,20,3,0,0,0,0,0,0,0,0,0,0,0,0,0,0,0,0,0,0,0,0,0,0,0,0],"split_type":[0,0,0,0,0,0,0,0,0,0,0,0,0,0,0,0,0,0,0,0,0,0,0,0,0,0,0,0,0,0,0,0,0,0,0,0,0,0,0,0,0,0,0,0,0,0,0,0,0,0,0],"sum_hessian":[6.6207285E3,2.0648738E3,4.5558545E3,1.9988944E3,6.5979385E1,3.4847546E3,1.0711001E3,1.8615505E3,1.3734381E2,5.750768E1,8.471707E0,5.863278E2,2.8984268E3,6.813711E2,3.89729E2,9.5693134E2,9.0461926E2,7.399669E1,6.3347126E1,1.377944E2,4.4853342E2,4.955019E2,2.4029248E3,1.1588E2,5.654911E2,6.698952E1,3.2273947E2,7.6894275E2,1.8798857E2,8.4954736E2,5.5071922E1,4.13569E1,3.2639786E1,8.230124E0,5.5117E1,1.1860762E2,1.9186779E1,1.498978E2,2.9863565E2,4.872796E2,8.222309E0,6.7306726E2,1.7298575E3,9.2426254E1,2.3453745E1,4.1512622E2,1.5036484E2,5.3294373E1,1.3695147E1,2.0061195E2,1.2212752E2],"tree_param":{"num_deleted":"0","num_feature":"44","num_nodes":"51","size_leaf_vector":"1"}},{"base_weights":[4.8520695E-3,4.3504792E-1,-7.381258E-2,1.0860639E0,3.295479E-1,-1.3691694E-1,2.733139E-1,1.2404983E0,-1.7458451E-1,-1.267898E0,3.7069127E-1,-9.4400264E-2,-6.424388E-1,1.5043076E0,2.251241E-1,9.2107034E-1,1.627048E-2,1.6346065E-2,-1.5142416E-2,-1.5373002E-2,-5.5623287E-3,2.0525548E-1,5.871673E-1,-1.2295998E-1,1.2670219E0,-7.655929E-1,5.656778E-1,6.5556797E-3,1.6527796E-2,4.9135434E-3,5.4130167E-1,1.1369711E-2,1.2267958E-3,-1.6510931E-3,4.2290078E-3,-4.99087E-3,7.0683784E-3,-4.49599E-3,-6.958901E-4,1.3711797E-2,3.1734714E-3,-9.366771E-3,3.1848002E-4,1.5667837E-2,-5.1075113E-3,1.2680294E-2,-8.7692414E-4,-6.3650846E-3,6.1920574E-3],"categories":[],"categories_nodes":[],"categories_segments":[],"categories_sizes":[],"default_left":[0,0,0,0,0,0,0,0,0,0,0,0,0,0,0,0,0,0,0,0,0,0,0,0,0,0,0,0,0,0,0,0,0,0,0,0,0,0,0,0,0,0,0,0,0,0,0,0,0],"id":3,"left_children":[1,3,5,7,9,11,13,15,17,19,21,23,25,27,29,31,-1,-1,-1,-1,-1,33,35,37,39,41,43,-1,-1,45,47,-1,-1,-1,-1,-1,-1,-1,-1,-1,-1,-1,-1,-1,-1,-1,-1,-1,-1],"loss_changes":[2.2459238E2,7.01071E1,1.229419E2,2.798668E1,5.859118E1,1.0199578E2,5.088028E1,1.4206848E1,4.2329266E1,3.445385E0,3.0781975E1,1.7050214E2,5.5215836E1,2.9931564E0,5.7930332E1,1.2262642E1,0E0,0E0,0E0,0E0,0E0,3.96195E1,4.887204E1,7.479173E1,8.4778595E0,4.5674362E1,3.812568E1,0E0,0E0,5.7600025E1,3.1737106E1,0E0,0E0,0E0,0E0,0E0,0E0,0E0,0E0,0E0,0E0,0E0,0E0,0E0,0E0,0E0,0E0,0E0,0E0],"parents":[2147483647,0,0,1,1,2,2,3,3,4,4,5,5,6,6,7,7,8,8,9,9,10,10,11,11,12,12,13,13,14,14,15,15,21,21,22,22,23,23,24,24,25,25,26,26,29,29,30,30],"right_children":[2,4,6,8,10,12,14,16,18,20,22,24,26,28,30,32,-1,-1,-1,-1,-1,34,36,38,40,42,44,-1,-1,46,48,-1,-1,-1,-1,-1,-1,-1,-1,-1,-1,-1,-1,-1,-1,-1,-1,-1,-1],"split_conditions":[1.8127E3,-1.0645343E-2,1.9077597E-2,1.86307E1,1.35226E1,2.9194E3,-4.5952693E-2,1.827322E1,8.329E1,1.803E3,9.457E1,3.62928E1,3.3325E3,-1.9557008E-1,5.975552E-3,2.037536E-1,1.627048E-2,1.6346065E-2,-1.5142416E-2,-1.5373002E-2,-5.5623287E-3,1.848265E1,1.72339E1,1.8746E3,4.130251E-3,3.4005657E1,6.425E1,6.5556797E-3,1.6527796E-2,1.9891962E-2,-7.6908236E0,1.1369711E-2,1.2267958E-3,-1.6510931E-3,4.2290078E-3,-4.99087E-3,7.0683784E-3,-4.49599E-3,-6.958901E-4,1.3711797E-2,3.1734714E-3,-9.366771E-3,3.1848002E-4,1.5667837E-2,-5.1075113E-3,1.2680294E-2,-8.7692414E-4,-6.3650846E-3,6.1920574E-3],"split_indices":[2,43,40,3,3,2,43,3,1,2,1,3,2,35,43,32,0,0,0,0,0,3,3,2,40,23,1,0,0,40,34,0,0,0,0,0,0,0,0,0,0,0,0,0,0,0,0,0,0],"split_type":[0,0,0,0,0,0,0,0,0,0,0,0,0,0,0,0,0,0,0,0,0,0,0,0,0,0,0,0,0,0,0,0,0,0,0,0,0,0,0,0,0,0,0,0,0,0,0,0,0],"sum_hessian":[6.6347046E3,1.0249574E3,5.609747E3,1.4163939E2,8.8331805E2,4.747332E3,8.62415E2,1.2619588E2,1.5443517E1,2.1430578E1,8.6188745E2,4.3801304E3,3.6720197E2,3.1350857E1,8.3106415E2,7.094925E1,5.5246628E1,6.476676E0,8.966842E0,1.4704146E1,6.726433E0,4.8964108E2,3.7224637E2,4.2910234E3,8.910678E1,3.33565E2,3.3636948E1,5.474027E0,2.587683E1,4.904749E2,3.4058923E2,5.551327E1,1.5435977E1,1.8132448E2,3.0831662E2,3.6625412E1,3.3562097E2,6.0161536E2,3.6894082E3,7.989975E1,9.207035E0,2.7449896E2,5.9066063E1,1.7192219E1,1.644473E1,3.2636105E1,4.578388E2,2.0685207E1,3.1990402E2],"tree_param":{"num_deleted":"0","num_feature":"44","num_nodes":"49","size_leaf_vector":"1"}},{"base_weights":[7.5845146E-3,1.8189883E-1,-1.6734675E-1,7.553774E-2,5.5248666E-1,-5.695276E-1,-9.223244E-2,2.270792E-1,-4.52947E-1,1.4877632E0,4.285552E-1,-1.3451673E-1,-8.275947E-1,6.715056E-1,-1.9729093E-1,-3.3097562E-1,3.0013466E-1,1.1881602E-1,-9.897112E-1,1.7152284E0,7.5138736E-1,-1.7912637E-1,5.3545517E-1,-4.3435648E-1,7.2504514E-1,-6.8761724E-1,-1.6005828E0,-1.3326162E-1,8.7115324E-1,-1.2910368E-1,-5.690947E-1,4.83368E-3,-9.9531235E-3,8.194373E-3,1.9980902E-3,3.8682737E-3,-7.9902345E-3,-1.0676491E-2,1.4900544E-2,1.7686175E-2,9.254135E-3,-2.0990642E-3,1.3070473E-2,1.7651323E-2,-5.7383147E-3,7.763226E-3,1.6065257E-3,-8.210522E-3,5.086459E-3,9.817958E-3,-2.368277E-4,-5.203715E-3,-1.0994478E-2,-1.7398497E-2,-8.057911E-3,1.7943523E-3,-5.9603206E-3,1.2851144E-2,3.208283E-3,-6.491977E-3,-5.5952225E-4,-4.1418863E-3,-1.0377889E-2],"categories":[],"categories_nodes":[],"categories_segments":[],"categories_sizes":[],"default_left":[0,0,0,0,0,0,0,0,0,0,0,0,0,0,0,0,0,0,0,0,0,0,0,0,0,0,0,0,0,0,0,0,0,0,0,0,0,0,0,0,0,0,0,0,0,0,0,0,0,0,0,0,0,0,0,0,0,0,0,0,0,0,0],"id":4,"left_children":[1,3,5,7,9,11,13,15,17,19,21,23,25,27,29,31,33,35,37,39,41,43,45,47,49,51,53,55,57,59,61,-1,-1,-1,-1,-1,-1,-1,-1,-1,-1,-1,-1,-1,-1,-1,-1,-1,-1,-1,-1,-1,-1,-1,-1,-1,-1,-1,-1,-1,-1,-1,-1],"loss_changes":[2.0239197E2,1.3099722E2,1.0002622E2,2.0707146E2,8.527687E1,5.839534E1,2.2420744E2,8.200633E1,1.7696463E2,1.3169891E1,4.270362E1,5.063642E1,3.427173E1,5.441078E1,6.2184906E1,1.2655408E2,9.241765E1,6.916524E1,5.9053223E1,1.1113281E0,1.2106432E1,7.6886566E1,5.025255E1,5.3430912E1,9.802118E0,1.8613113E1,4.0626984E0,9.952385E0,6.1299957E1,7.896352E1,2.7179962E1,0E0,0E0,0E0,0E0,0E0,0E0,0E0,0E0,0E0,0E0,0E0,0E0,0E0,0E0,0E0,0E0,0E0,0E0,0E0,0E0,0E0,0E0,0E0,0E0,0E0,0E0,0E0,0E0,0E0,0E0,0E0,0E0],"parents":[2147483647,0,0,1,1,2,2,3,3,4,4,5,5,6,6,7,7,8,8,9,9,10,10,11,11,12,12,13,13,14,14,15,15,16,16,17,17,18,18,19,19,20,20,21,21,22,22,23,23,24,24,25,25,26,26,27,27,28,28,29,29,30,30],"right_children":[2,4,6,8,10,12,14,16,18,20,22,24,26,28,30,32,34,36,38,40,42,44,46,48,50,52,54,56,58,60,62,-1,-1,-1,-1,-1,-1,-1,-1,-1,-1,-1,-1,-1,-1,-1,-1,-1,-1,-1,-1,-1,-1,-1,-1,-1,-1,-1,-1,-1,-1,-1,-1],"split_conditions":[7.750359E3,1.98159E1,2.93114E1,4.9765737E3,5.261372E3,2.7462E1,8.883453E3,1.376228E1,1.8495E3,1.9643E3,2.53178E1,1.9241E3,2.0960912E-2,3.019136E1,1.0473444E4,2.0075894E3,2.3808872E3,5.434471E3,5.2263405E-2,6.5149155E1,1.8010634E-3,1.9192E3,7.54776E3,2.71934E1,1.1779583E2,2.88761E1,2.0233E3,8.0092573E3,8.793553E3,2.261E3,3.308814E1,4.83368E-3,-9.9531235E-3,8.194373E-3,1.9980902E-3,3.8682737E-3,-7.9902345E-3,-1.0676491E-2,1.4900544E-2,1.7686175E-2,9.254135E-3,-2.0990642E-3,1.3070473E-2,1.7651323E-2,-5.7383147E-3,7.763226E-3,1.6065257E-3,-8.210522E-3,5.086459E-3,9.817958E-3,-2.368277E-4,-5.203715E-3,-1.0994478E-2,-1.7398497E-2,-8.057911E-3,1.7943523E-3,-5.9603206E-3,1.2851144E-2,3.208283E-3,-6.491977E-3,-5.5952225E-4,-4.1418863E-3,-1.0377889E-2],"split_indices":[4,3,3,4,4,3,4,3,2,2,3,2,43,3,4,4,4,4,43,9,40,2,4,3,15,3,2,4,4,2,3,0,0,0,0,0,0,0,0,0,0,0,0,0,0,0,0,0,0,0,0,0,0,0,0,0,0,0,0,0,0,0,0],"split_type":[0,0,0,0,0,0,0,0,0,0,0,0,0,0,0,0,0,0,0,0,0,0,0,0,0,0,0,0,0,0,0,0,0,0,0,0,0,0,0,0,0,0,0,0,0,0,0,0,0,0,0,0,0,0,0,0,0,0,0,0,0,0,0],"sum_hessian":[6.635322E3,3.3235017E3,3.31182E3,2.583286E3,7.402158E2,5.201617E2,2.7916584E3,2.0080529E3,5.7523303E2,8.532054E1,6.5489526E2,1.9424826E2,3.2591342E2,3.3692694E2,2.4547314E3,2.3203761E2,1.7760153E3,2.789128E2,2.963202E2,6.4169426E1,2.1151117E1,9.786994E1,5.570253E2,1.443793E2,4.9868954E1,2.7754367E2,4.836977E1,6.70371E1,2.6988983E2,2.07545E3,3.7928156E2,1.043715E2,1.27666115E2,2.863987E2,1.4896166E3,2.1632417E2,6.2588642E1,2.878429E2,8.477312E0,5.8945587E1,5.2238393E0,7.975578E0,1.3175539E1,1.5929848E1,8.1940094E1,3.384492E2,2.1857614E2,1.024834E2,4.1895905E1,3.690303E1,1.2965921E1,1.989948E2,7.854886E1,4.014612E1,8.22365E0,4.0370655E1,2.6666443E1,1.5326604E2,1.16623795E2,2.5494696E2,1.820503E3,2.8648148E2,9.280006E1],"tree_param":{"num_deleted":"0","num_feature":"44","num_nodes":"63","size_leaf_vector":"1"}},{"base_weights":[-5.1551824E-3,2.6704115E-1,-1.3179931E-1,1.7401737E-1,6.3707435E-1,-4.552441E-2,-4.290945E-1,-1.1194406E0,2.1166761E-1,-1.1907375E-2,6.73901E-1,-3.6396852E-1,3.1717613E-2,-7.8203124E-1,1.2714478E-1,8.564294E-3,-1.5202814E0,1.2661698E0,1.7293479E-1,1.7454416E-1,7.841382E-1,-5.138937E-1,3.8865638E-1,6.2155706E-1,-7.412949E-2,7.721929E-1,-9.158182E-1,1.158185E0,-8.190622E-2,-7.4773706E-3,-1.6672976E-2,1.5282628E-2,-3.3616736E-3,-3.590508E-4,3.2556155E-3,-6.6273566E-3,1.0703292E-2,8.464137E-3,-5.142859E-3,-6.0438045E-4,-8.282115E-3,1.3283397E-2,-1.5891724E-3,6.9639534E-3,-6.529222E-3,-1.9501571E-3,1.4405065E-3,1.3254381E-2,2.3767597E-3,-3.353342E-3,-1.0282508E-2,1.2937655E-2,1.9781664E-3,1.2593256E-2,-2.0114824E-3],"categories":[],"categories_nodes":[],"categories_segments":[],"categories_sizes":[],"default_left":[0,0,0,0,0,0,0,0,0,0,0,0,0,0,0,0,0,0,0,0,0,0,0,0,0,0,0,0,0,0,0,0,0,0,0,0,0,0,0,0,0,0,0,0,0,0,0,0,0,0,0,0,0,0,0],"id":5,"left_children":[1,3,5,7,9,11,13,15,17,-1,19,21,23,25,27,-1,29,31,33,35,37,39,41,43,45,47,49,51,53,-1,-1,-1,-1,-1,-1,-1,-1,-1,-1,-1,-1,-1,-1,-1,-1,-1,-1,-1,-1,-1,-1,-1,-1,-1,-1],"loss_changes":[2.2903719E2,7.250986E1,1.16283615E2,8.2405655E1,2.9305634E1,8.64859E1,2.0030064E2,3.922616E1,6.678101E1,0E0,2.2747757E1,7.764718E1,1.7674619E2,1.3046902E2,8.560698E1,0E0,3.3154526E0,2.485482E1,5.0482914E1,5.8059486E1,2.7948654E1,8.1587814E1,5.9169373E1,4.153688E1,6.334183E1,1.4471806E1,3.718582E1,8.460968E0,5.3156624E1,0E0,0E0,0E0,0E0,0E0,0E0,0E0,0E0,0E0,0E0,0E0,0E0,0E0,0E0,0E0,0E0,0E0,0E0,0E0,0E0,0E0,0E0,0E0,0E0,0E0,0E0],"parents":[2147483647,0,0,1,1,2,2,3,3,4,4,5,5,6,6,7,7,8,8,10,10,11,11,12,12,13,13,14,14,16,16,17,17,18,18,19,19,20,20,21,21,22,22,23,23,24,24,25,25,26,26,27,27,28,28],"right_children":[2,4,6,8,10,12,14,16,18,-1,20,22,24,26,28,-1,30,32,34,36,38,40,42,44,46,48,50,52,54,-1,-1,-1,-1,-1,-1,-1,-1,-1,-1,-1,-1,-1,-1,-1,-1,-1,-1,-1,-1,-1,-1,-1,-1,-1,-1],"split_conditions":[4.9848735E3,7.031499E-3,9.907348E3,-7.2122444E-3,-5.364022E-2,5.7328696E3,8.192E1,1.9860895E3,-4.5952693E-2,-1.1907375E-2,2.0428892E3,2.5327694E-2,7.6803594E3,7.056E1,1.0188847E4,8.564294E-3,8.458E1,5.5087388E-2,-1.2799577E0,9.659E1,1.216E2,2.9772276E-4,7.676E1,8.765E1,5.91449E-3,1.0446145E4,-1.6500697E-2,3.357964E-2,-3.5441793E-3,-7.4773706E-3,-1.6672976E-2,1.5282628E-2,-3.3616736E-3,-3.590508E-4,3.2556155E-3,-6.6273566E-3,1.0703292E-2,8.464137E-3,-5.142859E-3,-6.0438045E-4,-8.282115E-3,1.3283397E-2,-1.5891724E-3,6.9639534E-3,-6.529222E-3,-1.9501571E-3,1.4405065E-3,1.3254381E-2,2.3767597E-3,-3.353342E-3,-1.0282508E-2,1.2937655E-2,1.9781664E-3,1.2593256E-2,-2.0114824E-3],"split_indices":[4,41,4,42,40,4,1,4,43,0,4,43,4,1,4,0,1,31,34,1,1,42,1,1,40,4,40,31,42,0,0,0,0,0,0,0,0,0,0,0,0,0,0,0,0,0,0,0,0,0,0,0,0,0,0],"split_type":[0,0,0,0,0,0,0,0,0,0,0,0,0,0,0,0,0,0,0,0,0,0,0,0,0,0,0,0,0,0,0,0,0,0,0,0,0,0,0,0,0,0,0,0,0,0,0,0,0,0,0,0,0,0,0],"sum_hessian":[6.642117E3,2.1087249E3,4.5333926E3,1.6862769E3,4.22448E2,3.5146084E3,1.01878424E3,4.6883446E1,1.6393933E3,7.7245116E0,4.1472348E2,6.853632E2,2.829245E3,6.230499E2,3.957343E2,7.715372E0,3.916807E1,5.6960217E1,1.5824331E3,7.546453E1,3.3925894E2,5.717801E2,1.1358315E2,4.2972183E2,2.3995232E3,4.9002987E1,5.7404694E2,6.594637E1,3.2978793E2,7.235085E0,3.1932987E1,4.899274E1,7.967478E0,6.684943E2,9.1393884E2,3.914051E1,3.632402E1,3.2406418E2,1.5194773E1,2.345684E2,3.3721167E2,4.129372E1,7.228944E1,4.0631625E2,2.3405588E1,1.5440974E3,8.554258E2,2.3352537E1,2.565045E1,9.379099E1,4.8025595E2,5.7483902E1,8.462473E0,2.614528E1,3.0364267E2],"tree_param":{"num_deleted":"0","num_feature":"44","num_nodes":"55","size_leaf_vector":"1"}},{"base_weights":[-1.2128938E-2,1.6960233E-1,-1.9266395E-1,6.8091094E-2,5.330736E-1,-6.019051E-1,-1.1423978E-1,1.851174E-1,-6.349972E-1,1.4515078E0,4.010031E-1,-1.3983732E-1,-8.7302744E-1,6.532441E-1,-2.145185E-1,2.6540363E-1,-6.976126E-1,-1.1708884E-1,-1.2138234E0,1.6747806E0,-3.9264695E-3,7.2287947E-1,1.8119968E-1,-4.069514E-1,6.841054E-1,-7.351452E-1,-1.6070367E0,-1.755101E-1,8.737091E-1,-6.696636E-1,-1.6252261E-1,-3.3041697E-3,3.4277008E-3,-1.3486392E-2,3.4503415E-3,2.501715E-3,-7.551944E-3,-1.5004612E-2,-2.9958752E-3,1.7548388E-2,6.608764E-3,-2.9269094E-3,8.310926E-3,-5.9058317E-3,3.4219925E-3,-7.238033E-3,4.2357743E-3,8.834331E-3,-5.785261E-3,-8.988151E-3,-2.4010735E-3,-1.2035843E-2,-1.7684253E-2,-1.041536E-4,-1.3745454E-2,1.3413226E-2,4.6074665E-3,3.4839322E-3,-1.1068727E-2,2.5372088E-3,-2.7348767E-3],"categories":[],"categories_nodes":[],"categories_segments":[],"categories_sizes":[],"default_left":[0,0,0,0,0,0,0,0,0,0,0,0,0,0,0,0,0,0,0,0,0,0,0,0,0,0,0,0,0,0,0,0,0,0,0,0,0,0,0,0,0,0,0,0,0,0,0,0,0,0,0,0,0,0,0,0,0,0,0,0,0],"id":6,"left_children":[1,3,5,7,9,11,13,15,17,19,21,23,25,27,29,31,33,35,37,39,-1,41,43,45,47,49,51,53,55,57,59,-1,-1,-1,-1,-1,-1,-1,-1,-1,-1,-1,-1,-1,-1,-1,-1,-1,-1,-1,-1,-1,-1,-1,-1,-1,-1,-1,-1,-1,-1],"loss_changes":[2.154594E2,1.2071636E2,1.05661934E2,2.1070567E2,8.606523E1,6.621843E1,2.1300363E2,1.5574522E2,1.09409546E2,3.7478302E1,4.4151756E1,4.3637787E1,3.257518E1,5.85963E1,5.7799896E1,9.289189E1,1.24867E2,4.5647533E1,4.474565E1,5.330536E0,0E0,2.8118607E1,4.6582314E1,3.9623253E1,1.2743965E1,2.2684235E1,1.2511292E0,1.3455238E1,4.8203537E1,1.11910446E2,1.0156357E2,0E0,0E0,0E0,0E0,0E0,0E0,0E0,0E0,0E0,0E0,0E0,0E0,0E0,0E0,0E0,0E0,0E0,0E0,0E0,0E0,0E0,0E0,0E0,0E0,0E0,0E0,0E0,0E0,0E0,0E0],"parents":[2147483647,0,0,1,1,2,2,3,3,4,4,5,5,6,6,7,7,8,8,9,9,10,10,11,11,12,12,13,13,14,14,15,15,16,16,17,17,18,18,19,19,21,21,22,22,23,23,24,24,25,25,26,26,27,27,28,28,29,29,30,30],"right_children":[2,4,6,8,10,12,14,16,18,20,22,24,26,28,30,32,34,36,38,40,-1,42,44,46,48,50,52,54,56,58,60,-1,-1,-1,-1,-1,-1,-1,-1,-1,-1,-1,-1,-1,-1,-1,-1,-1,-1,-1,-1,-1,-1,-1,-1,-1,-1,-1,-1,-1,-1],"split_conditions":[7.750359E3,1.98159E1,2.93114E1,5.096273E3,5.261372E3,2.7462E1,8.883453E3,1.92653E1,1.8495E3,7.176555E-3,1.9523E3,1.9241E3,2.0960912E-2,3.019136E1,2.261E3,1.376228E1,2.0145E3,5.428271E3,5.0125437E0,6.5149155E1,-3.9264695E-3,1.9061E3,2.53178E1,2.71934E1,1.7021235E-2,6.527917E-3,7.8414585E3,2.4210477E-2,8.718054E3,3.10165E1,3.28263E1,-3.3041697E-3,3.4277008E-3,-1.3486392E-2,3.4503415E-3,2.501715E-3,-7.551944E-3,-1.5004612E-2,-2.9958752E-3,1.7548388E-2,6.608764E-3,-2.9269094E-3,8.310926E-3,-5.9058317E-3,3.4219925E-3,-7.238033E-3,4.2357743E-3,8.834331E-3,-5.785261E-3,-8.988151E-3,-2.4010735E-3,-1.2035843E-2,-1.7684253E-2,-1.041536E-4,-1.3745454E-2,1.3413226E-2,4.6074665E-3,3.4839322E-3,-1.1068727E-2,2.5372088E-3,-2.7348767E-3],"split_indices":[4,3,3,4,4,3,4,3,2,41,2,2,43,3,2,3,2,4,34,9,0,2,3,3,39,41,4,38,4,3,3,0,0,0,0,0,0,0,0,0,0,0,0,0,0,0,0,0,0,0,0,0,0,0,0,0,0,0,0,0,0],"split_type":[0,0,0,0,0,0,0,0,0,0,0,0,0,0,0,0,0,0,0,0,0,0,0,0,0,0,0,0,0,0,0,0,0,0,0,0,0,0,0,0,0,0,0,0,0,0,0,0,0,0,0,0,0,0,0,0,0,0,0,0,0],"sum_hessian":[6.5651143E3,3.2717478E3,3.2933665E3,2.558414E3,7.133336E2,5.285511E2,2.7648154E3,2.1939727E3,3.6444147E2,8.8425E1,6.249086E2,1.9601051E2,3.325406E2,3.1886508E2,2.4459504E3,2.0117031E3,1.822695E2,1.929767E2,1.7146478E2,7.895743E1,9.467573E0,2.5264734E2,3.7226126E2,1.4840514E2,4.760538E1,2.8163712E2,5.0903454E1,6.704372E1,2.5182137E2,2.4955917E2,2.196391E3,2.308204E2,1.7808827E3,1.1202673E2,7.024277E1,1.2286813E2,7.010856E1,1.300495E2,4.1415276E1,7.250188E1,6.455551E0,2.4164154E1,2.2848318E2,6.379228E1,3.08469E2,1.0751572E2,4.088942E1,4.1374104E1,6.231278E0,2.1104543E2,7.0591705E1,1.6960897E1,3.3942554E1,5.981632E1,7.2274E0,1.1704203E2,1.3477933E2,7.50367E1,1.7452248E2,4.6201822E2,1.7343729E3],"tree_param":{"num_deleted":"0","num_feature":"44","num_nodes":"61","size_leaf_vector":"1"}},{"base_weights":[2.5525563E-3,4.1283986E-1,-7.0942804E-2,3.8382736E-1,1.5584662E-2,-3.417115E-2,-5.259642E-1,-1.748655E-2,4.7559124E-1,-3.3547717E-1,1.9239478E-2,3.1605095E-1,-7.487392E-1,2.4296457E-1,-1.361481E0,1.4284576E0,4.030468E-1,-1.8417936E-2,-2.518589E-1,-2.8832775E-2,5.393457E-1,-5.3310263E-1,8.550622E-1,-8.812676E-1,2.7972385E-1,1.3593432E-2,4.2833254E-4,-1.6858919E-2,-2.9155144E-3,1.6107175E-2,1.7301456E-4,-1.8925553E-3,5.022282E-3,2.8208685E-3,-3.524433E-3,-1.01147816E-4,-1.1428987E-2,8.938119E-3,2.054069E-3,-1.0773486E-2,1.798059E-4,1.6690794E-2,4.4710073E-3,-1.3307564E-2,-7.482238E-3,7.950963E-3,-5.5279867E-3],"categories":[],"categories_nodes":[],"categories_segments":[],"categories_sizes":[],"default_left":[0,0,0,0,0,0,0,0,0,0,0,0,0,0,0,0,0,0,0,0,0,0,0,0,0,0,0,0,0,0,0,0,0,0,0,0,0,0,0,0,0,0,0,0,0,0,0],"id":7,"left_children":[1,3,5,7,-1,9,11,13,15,17,19,21,23,25,27,29,31,-1,33,35,37,39,41,43,45,-1,-1,-1,-1,-1,-1,-1,-1,-1,-1,-1,-1,-1,-1,-1,-1,-1,-1,-1,-1,-1,-1],"loss_changes":[2.0071361E2,3.3011627E1,9.443462E1,3.6376083E1,0E0,8.4076775E1,7.939823E1,6.500242E1,5.4987152E1,9.8619484E1,1.1098732E2,4.1190094E1,4.5773422E1,3.470851E1,9.970829E0,1.4496902E1,4.4055862E1,0E0,4.018818E1,8.473165E1,4.4273003E1,1.0568536E1,1.7460258E1,1.671341E1,1.7124619E1,0E0,0E0,0E0,0E0,0E0,0E0,0E0,0E0,0E0,0E0,0E0,0E0,0E0,0E0,0E0,0E0,0E0,0E0,0E0,0E0,0E0,0E0],"parents":[2147483647,0,0,1,1,2,2,3,3,5,5,6,6,7,7,8,8,9,9,10,10,11,11,12,12,13,13,14,14,15,15,16,16,18,18,19,19,20,20,21,21,22,22,23,23,24,24],"right_children":[2,4,6,8,-1,10,12,14,16,18,20,22,24,26,28,30,32,-1,34,36,38,40,42,44,46,-1,-1,-1,-1,-1,-1,-1,-1,-1,-1,-1,-1,-1,-1,-1,-1,-1,-1,-1,-1,-1,-1],"split_conditions":[1.8092E3,1.8075E3,2.9194E3,8.711E1,1.5584662E-2,1.8746E3,6.425E1,8.549E1,8.901E1,7.999E1,9.696E1,3.2824E3,3.5547302E1,7.718E1,3.778777E1,7.127101E-2,9.15E1,-1.8417936E-2,-2.119449E-1,1.9277757E-2,1.4795011E-1,6.333E1,-8.760642E-3,6.548E1,3.0602E3,1.3593432E-2,4.2833254E-4,-1.6858919E-2,-2.9155144E-3,1.6107175E-2,1.7301456E-4,-1.8925553E-3,5.022282E-3,2.8208685E-3,-3.524433E-3,-1.01147816E-4,-1.1428987E-2,8.938119E-3,2.054069E-3,-1.0773486E-2,1.798059E-4,1.6690794E-2,4.4710073E-3,-1.3307564E-2,-7.482238E-3,7.950963E-3,-5.5279867E-3],"split_indices":[2,2,2,1,0,2,1,1,1,1,1,2,23,1,22,30,1,0,10,41,11,1,41,1,2,0,0,0,0,0,0,0,0,0,0,0,0,0,0,0,0,0,0,0,0,0,0],"split_type":[0,0,0,0,0,0,0,0,0,0,0,0,0,0,0,0,0,0,0,0,0,0,0,0,0,0,0,0,0,0,0,0,0,0,0,0,0,0,0,0,0,0,0,0,0,0,0],"sum_hessian":[6.6542666E3,1.01020233E3,5.644064E3,9.8655334E2,2.3648996E1,5.223049E3,4.2101535E2,1.8375241E2,8.028009E2,7.8565314E2,4.4373955E3,8.799707E1,3.3301828E2,1.5460995E2,2.914246E1,5.5473232E1,7.473277E2,4.0213467E1,7.4543964E2,4.0628225E3,3.7457303E2,3.4172688E1,5.3824383E1,2.9513065E2,3.7887615E1,2.2622755E1,1.319872E2,2.192034E1,7.222121E0,4.9002792E1,6.470441E0,1.07061035E2,6.4026666E2,1.1787954E2,6.275601E2,3.9966814E3,6.614122E1,1.8088857E2,1.9368448E2,1.6712534E1,1.7460152E1,1.693741E1,3.688697E1,6.534842E1,2.2978223E2,2.3428915E1,1.4458699E1],"tree_param":{"num_deleted":"0","num_feature":"44","num_nodes":"47","size_leaf_vector":"1"}},{"base_weights":[-3.90581E-3,4.155485E-1,-8.154471E-2,1.0599954E0,3.10761E-1,-4.451064E-2,-5.249807E-1,1.1787099E0,2.3839007E-1,-1.49898585E-2,3.4296882E-1,-6.44762E-2,1.0174204E0,3.113426E-1,-7.4282724E-1,-2.3698157E-3,1.2639928E0,1.4762059E-2,-1.0185925E-2,3.9848223E-1,-4.301998E-1,1.02176E0,-8.0135435E-2,6.528495E-1,1.5951034E-2,-3.915696E-1,1.3987828E0,-8.474658E-1,2.9796952E-1,9.757516E-3,1.5776943E-2,5.4741544E-3,2.4073764E-3,5.7688155E-3,-1.04002785E-2,-1.5703542E-2,1.3480183E-2,-3.6751365E-3,-3.0562055E-4,1.1035163E-2,2.9628442E-3,-7.208946E-3,3.1595863E-3,1.616329E-2,6.336789E-3,-9.803502E-3,-2.7851774E-3,1.3422847E-2,-3.7379588E-3],"categories":[],"categories_nodes":[],"categories_segments":[],"categories_sizes":[],"default_left":[0,0,0,0,0,0,0,0,0,0,0,0,0,0,0,0,0,0,0,0,0,0,0,0,0,0,0,0,0,0,0,0,0,0,0,0,0,0,0,0,0,0,0,0,0,0,0,0,0],"id":8,"left_children":[1,3,5,7,9,11,13,15,17,-1,19,21,23,25,27,-1,29,-1,-1,31,33,35,37,39,-1,41,43,45,47,-1,-1,-1,-1,-1,-1,-1,-1,-1,-1,-1,-1,-1,-1,-1,-1,-1,-1,-1,-1],"loss_changes":[2.1514133E2,6.9349045E1,9.1521866E1,1.3753952E1,5.2327522E1,1.0916891E2,7.849663E1,1.5448593E1,3.1719555E1,0E0,3.7692787E1,8.601221E1,1.897107E1,6.894282E1,3.7401093E1,0E0,9.175812E0,0E0,0E0,1.9042328E1,3.6860996E1,6.28936E1,7.09496E1,9.306551E0,0E0,1.3073323E1,4.8594284E0,2.3179565E1,2.288102E1,0E0,0E0,0E0,0E0,0E0,0E0,0E0,0E0,0E0,0E0,0E0,0E0,0E0,0E0,0E0,0E0,0E0,0E0,0E0,0E0],"parents":[2147483647,0,0,1,1,2,2,3,3,4,4,5,5,6,6,7,7,8,8,10,10,11,11,12,12,13,13,14,14,16,16,19,19,20,20,21,21,22,22,23,23,25,25,26,26,27,27,28,28],"right_children":[2,4,6,8,10,12,14,16,18,-1,20,22,24,26,28,-1,30,-1,-1,32,34,36,38,40,-1,42,44,46,48,-1,-1,-1,-1,-1,-1,-1,-1,-1,-1,-1,-1,-1,-1,-1,-1,-1,-1,-1,-1],"split_conditions":[1.8127E3,-1.0645343E-2,2.9194E3,1.86307E1,-9.762642E-3,3.62928E1,6.425E1,-9.93984E-2,8.329E1,-1.49898585E-2,5.5087388E-2,-4.5952693E-2,2.0922483E-3,3.86105E1,3.6991413E1,-2.3698157E-3,1.827322E1,1.4762059E-2,-1.0185925E-2,7.897706E-4,3.4608896E-5,1.8362E3,1.8746E3,-8.076948E-3,1.5951034E-2,5.8264197E-3,1.18301865E-2,1.3333521E-2,3.0209E3,9.757516E-3,1.5776943E-2,5.4741544E-3,2.4073764E-3,5.7688155E-3,-1.04002785E-2,-1.5703542E-2,1.3480183E-2,-3.6751365E-3,-3.0562055E-4,1.1035163E-2,2.9628442E-3,-7.208946E-3,3.1595863E-3,1.616329E-2,6.336789E-3,-9.803502E-3,-2.7851774E-3,1.3422847E-2,-3.7379588E-3],"split_indices":[2,43,2,3,42,3,1,30,1,0,31,43,41,3,23,0,3,0,0,42,42,2,2,43,0,41,41,43,2,0,0,0,0,0,0,0,0,0,0,0,0,0,0,0,0,0,0,0,0],"split_type":[0,0,0,0,0,0,0,0,0,0,0,0,0,0,0,0,0,0,0,0,0,0,0,0,0,0,0,0,0,0,0,0,0,0,0,0,0,0,0,0,0,0,0,0,0,0,0,0,0],"sum_hessian":[6.604282E3,1.0308153E3,5.573467E3,1.4289435E2,8.8792096E2,5.144886E3,4.2858072E2,1.24474304E2,1.8420046E1,1.4729579E1,8.731914E2,5.0508633E3,9.4022896E1,8.847845E1,3.4010226E2,6.9713573E0,1.17502945E2,9.192908E0,9.227137E0,8.1514844E2,5.8042953E1,7.0865685E1,4.9799976E3,5.8950104E1,3.5072796E1,5.412951E1,3.434894E1,3.092018E2,3.0900454E1,6.3378654E1,5.412429E1,4.1801398E2,3.971345E2,2.191166E1,3.6131294E1,7.496104E0,6.3369576E1,7.317294E2,4.2482686E3,2.5113722E1,3.383638E1,3.692402E1,1.7205488E1,2.5878273E1,8.470668E0,2.5007158E2,5.9130234E1,1.17053585E1,1.9195095E1],"tree_param":{"num_deleted":"0","num_feature":"44","num_nodes":"49","size_leaf_vector":"1"}},{"base_weights":[-7.399914E-4,2.6359782E-1,-1.2171663E-1,1.6207375E-1,6.697821E-1,-4.2950917E-2,-3.7571576E-1,3.8449135E-1,9.478151E-3,-9.382601E-3,7.0263976E-1,-4.2231888E-1,2.7835036E-2,-6.719372E-1,1.4166735E-1,4.7789258E-1,-6.002371E-1,-4.2834795E-1,2.1358974E-1,2.5996464E-1,8.0048555E-1,-3.1238675E-1,-1.0335417E0,7.38464E-2,-5.236025E-1,7.804314E-1,-7.8964573E-1,1.2150339E0,-8.306087E-2,5.4697846E-3,-5.891617E-3,7.4758604E-3,-7.6602767E-3,7.366379E-3,-6.493263E-3,-8.2916906E-4,5.1225433E-3,-7.537959E-3,1.1586926E-2,8.654316E-3,-3.8781147E-3,-3.666545E-3,1.0550151E-2,-2.6569883E-3,-1.5703022E-2,1.0910982E-3,-5.2687596E-3,-1.1475369E-2,5.481321E-4,1.2825614E-2,2.3096858E-3,-3.90699E-3,-1.0495803E-2,1.3514795E-2,-3.528866E-3,-9.285077E-3,-5.0271512E-5],"categories":[],"categories_nodes":[],"categories_segments":[],"categories_sizes":[],"default_left":[0,0,0,0,0,0,0,0,0,0,0,0,0,0,0,0,0,0,0,0,0,0,0,0,0,0,0,0,0,0,0,0,0,0,0,0,0,0,0,0,0,0,0,0,0,0,0,0,0,0,0,0,0,0,0,0,0],"id":9,"left_children":[1,3,5,7,9,11,13,15,17,-1,19,21,23,25,27,29,31,33,35,37,39,41,43,45,47,49,51,53,55,-1,-1,-1,-1,-1,-1,-1,-1,-1,-1,-1,-1,-1,-1,-1,-1,-1,-1,-1,-1,-1,-1,-1,-1,-1,-1,-1,-1],"loss_changes":[2.1144675E2,8.550032E1,9.0735245E1,5.6410946E1,2.2576248E1,9.302137E1,1.6463092E2,6.249231E1,8.8282364E1,0E0,1.7423843E1,3.627703E1,7.412204E1,1.1735782E2,9.45846E1,4.590204E1,1.37645645E1,8.134314E1,5.9706375E1,6.93604E1,2.6027512E1,3.4751377E1,3.3626175E1,5.7165142E1,8.126018E1,1.3967325E1,6.514667E1,1.4997902E1,2.1424965E1,0E0,0E0,0E0,0E0,0E0,0E0,0E0,0E0,0E0,0E0,0E0,0E0,0E0,0E0,0E0,0E0,0E0,0E0,0E0,0E0,0E0,0E0,0E0,0E0,0E0,0E0,0E0,0E0],"parents":[2147483647,0,0,1,1,2,2,3,3,4,4,5,5,6,6,7,7,8,8,10,10,11,11,12,12,13,13,14,14,15,15,16,16,17,17,18,18,19,19,20,20,21,21,22,22,23,23,24,24,25,25,26,26,27,27,28,28],"right_children":[2,4,6,8,10,12,14,16,18,-1,20,22,24,26,28,30,32,34,36,38,40,42,44,46,48,50,52,54,56,-1,-1,-1,-1,-1,-1,-1,-1,-1,-1,-1,-1,-1,-1,-1,-1,-1,-1,-1,-1,-1,-1,-1,-1,-1,-1,-1,-1],"split_conditions":[4.9848735E3,7.031499E-3,9.890747E3,1.7956E3,-5.364022E-2,-1.8748105E-2,8.192E1,5.140774E-2,1.8417E3,-9.382601E-3,2.0428892E3,8.49E1,1.49808945E-2,7.056E1,1.0188847E4,5.586858E-3,3.199483E3,2.0075894E3,-2.6146612E-1,9.659E1,1.216E2,8.418E1,-3.1058092E-3,3.0359E3,9.109252E3,1.0446145E4,1.0000647E4,3.0267915E-1,-1.5667781E-2,5.4697846E-3,-5.891617E-3,7.4758604E-3,-7.6602767E-3,7.366379E-3,-6.493263E-3,-8.2916906E-4,5.1225433E-3,-7.537959E-3,1.1586926E-2,8.654316E-3,-3.8781147E-3,-3.666545E-3,1.0550151E-2,-2.6569883E-3,-1.5703022E-2,1.0910982E-3,-5.2687596E-3,-1.1475369E-2,5.481321E-4,1.2825614E-2,2.3096858E-3,-3.90699E-3,-1.0495803E-2,1.3514795E-2,-3.528866E-3,-9.285077E-3,-5.0271512E-5],"split_indices":[4,41,4,2,40,40,1,31,2,0,4,1,41,1,4,41,4,4,34,1,1,1,41,2,4,4,4,36,41,0,0,0,0,0,0,0,0,0,0,0,0,0,0,0,0,0,0,0,0,0,0,0,0,0,0,0,0],"split_type":[0,0,0,0,0,0,0,0,0,0,0,0,0,0,0,0,0,0,0,0,0,0,0,0,0,0,0,0,0,0,0,0,0,0,0,0,0,0,0,0,0,0,0,0,0,0,0,0,0,0,0,0,0,0,0,0,0],"sum_hessian":[6.610109E3,2.0749966E3,4.5351123E3,1.6611885E3,4.1380804E2,3.4625398E3,1.0725725E3,6.7533136E2,9.858572E2,7.734382E0,4.0607367E2,5.436977E2,2.918842E3,6.8187463E2,3.9069785E2,6.172957E2,5.803563E1,3.1311548E2,6.727417E2,7.416996E1,3.3190372E2,4.620977E2,8.1599976E1,2.6948525E3,2.2398955E2,5.069795E1,6.311767E2,6.687534E1,3.238225E2,5.802172E2,3.7078495E1,5.97244E0,5.206319E1,4.9551125E1,2.6356436E2,3.3795294E2,3.3478873E2,3.493017E1,3.923979E1,3.149613E2,1.694242E1,4.451625E2,1.69352E1,3.418825E1,4.741172E1,2.5462043E3,1.4864813E2,1.0728151E2,1.1670804E2,2.5792814E1,2.4905134E1,2.4999236E2,3.8118433E2,6.164852E1,5.226819E0,2.644192E1,2.9738058E2],"tree_param":{"num_deleted":"0","num_feature":"44","num_nodes":"57","size_leaf_vector":"1"}},{"base_weights":[2.4136102E-3,2.6997343E-1,-1.1860037E-1,2.3110706E-1,1.4316324E0,-3.785298E-2,-4.0670475E-1,2.8711173E-1,-5.614445E-1,1.6287023E-2,-1.676153E-3,-4.4212374E-1,4.01855E-2,-7.579084E-1,1.4581867E-1,-2.8171864E-1,3.797213E-1,1.257338E-1,-1.2996821E0,2.1533653E-1,-6.3495004E-1,5.0732195E-1,-6.651465E-2,8.7169534E-1,-9.0986204E-1,1.2398863E0,-8.055306E-2,4.515254E-3,-8.336751E-3,8.929627E-3,2.6945353E-3,-3.6971602E-3,8.353663E-3,-1.7344E-2,-6.1845616E-3,1.5212976E-2,6.8934445E-5,-8.690139E-3,3.6386554E-3,1.0874773E-2,3.709059E-3,-4.4967635E-3,6.411803E-4,1.2937406E-2,4.4299243E-3,-7.5989068E-3,-1.2075778E-2,1.34682935E-2,3.4661544E-4,1.216441E-2,-1.926348E-3],"categories":[],"categories_nodes":[],"categories_segments":[],"categories_sizes":[],"default_left":[0,0,0,0,0,0,0,0,0,0,0,0,0,0,0,0,0,0,0,0,0,0,0,0,0,0,0,0,0,0,0,0,0,0,0,0,0,0,0,0,0,0,0,0,0,0,0,0,0,0,0],"id":10,"left_children":[1,3,5,7,9,11,13,15,17,-1,-1,19,21,23,25,27,29,31,33,35,37,39,41,43,45,47,49,-1,-1,-1,-1,-1,-1,-1,-1,-1,-1,-1,-1,-1,-1,-1,-1,-1,-1,-1,-1,-1,-1,-1,-1],"loss_changes":[2.1479416E2,9.294733E1,1.06250305E2,8.8947464E1,2.1292099E1,1.12615074E2,1.9413504E2,9.85609E1,6.730859E1,0E0,0E0,7.335654E1,1.4918797E2,1.5220773E2,9.6543E1,1.06512985E2,9.074492E1,2.4730526E1,1.7849731E1,3.584705E1,1.0477931E2,4.3642365E1,1.2200466E2,8.955582E0,2.4077026E1,8.56575E0,4.7274143E1,0E0,0E0,0E0,0E0,0E0,0E0,0E0,0E0,0E0,0E0,0E0,0E0,0E0,0E0,0E0,0E0,0E0,0E0,0E0,0E0,0E0,0E0,0E0,0E0],"parents":[2147483647,0,0,1,1,2,2,3,3,4,4,5,5,6,6,7,7,8,8,11,11,12,12,13,13,14,14,15,15,16,16,17,17,18,18,19,19,20,20,21,21,22,22,23,23,24,24,25,25,26,26],"right_children":[2,4,6,8,10,12,14,16,18,-1,-1,20,22,24,26,28,30,32,34,36,38,40,42,44,46,48,50,-1,-1,-1,-1,-1,-1,-1,-1,-1,-1,-1,-1,-1,-1,-1,-1,-1,-1,-1,-1,-1,-1,-1,-1],"split_conditions":[4.9765737E3,1.98159E1,9.914647E3,1.92653E1,7.176555E-3,1.941784E1,8.192E1,1.38205E1,4.5702754E3,1.6287023E-2,-1.676153E-3,1.870299E1,7.6803594E3,7.056E1,1.0188847E4,2.0075894E3,2.3933872E3,-9.051437E-3,-2.6146612E-1,-1.6170334E-2,5.8358643E-2,-4.839695E-3,2.93114E1,1.0446145E4,1.0158546E4,2.1348515E-1,-3.5441793E-3,4.515254E-3,-8.336751E-3,8.929627E-3,2.6945353E-3,-3.6971602E-3,8.353663E-3,-1.7344E-2,-6.1845616E-3,1.5212976E-2,6.8934445E-5,-8.690139E-3,3.6386554E-3,1.0874773E-2,3.709059E-3,-4.4967635E-3,6.411803E-4,1.2937406E-2,4.4299243E-3,-7.5989068E-3,-1.2075778E-2,1.34682935E-2,3.4661544E-4,1.216441E-2,-1.926348E-3],"split_indices":[4,3,4,3,41,3,1,3,4,0,0,3,4,1,4,4,4,43,34,43,31,41,3,4,4,32,42,0,0,0,0,0,0,0,0,0,0,0,0,0,0,0,0,0,0,0,0,0,0,0,0],"split_type":[0,0,0,0,0,0,0,0,0,0,0,0,0,0,0,0,0,0,0,0,0,0,0,0,0,0,0,0,0,0,0,0,0,0,0,0,0,0,0,0,0,0,0,0,0,0,0,0,0,0,0],"sum_hessian":[6.631867E3,2.0649868E3,4.5668804E3,1.999294E3,6.56927E1,3.568003E3,9.9887756E2,1.8679363E3,1.3135771E2,5.846931E1,7.223396E0,5.7655426E2,2.9914487E3,6.104695E2,3.8840802E2,2.6124768E2,1.6066886E3,6.846121E1,6.2896496E1,1.3072333E2,4.458309E2,5.5553687E2,2.4359119E3,5.1664524E1,5.58805E2,6.5819824E1,3.225882E2,1.1227647E2,1.489712E2,2.8288803E2,1.3238005E3,4.0596577E1,2.7864635E1,3.74513E1,2.5445194E1,1.712589E1,1.1359744E2,3.6129456E2,8.4536354E1,1.04432144E2,4.5110474E2,6.1871185E2,1.8172001E3,2.5017616E1,2.6646906E1,3.7397247E2,1.848325E2,6.034752E1,5.4723024E0,2.48758E1,2.977124E2],"tree_param":{"num_deleted":"0","num_feature":"44","num_nodes":"51","size_leaf_vector":"1"}},{"base_weights":[1.933869E-3,4.5773217E-1,-6.560622E-2,1.1953136E0,3.5092828E-1,-1.3678041E-1,1.8584058E-1,1.4529433E0,6.21001E-1,4.4674972E-1,-2.0104419E-1,-9.468177E-2,-6.8149316E-1,1.4890572E0,1.5178722E-1,1.524768E0,8.229262E-3,1.441412E-2,1.6364962E-1,7.8864825E-1,3.228889E-1,3.228998E-1,-6.8927485E-1,-1.1827575E-1,9.3701184E-1,-7.6844007E-1,8.772168E-1,1.6076917E-2,7.3305927E-3,1.2343681E0,1.2652493E-1,1.6210355E-2,1.0658298E-2,8.085079E-3,-4.0791216E-3,1.2394051E-2,5.4299044E-3,3.4292435E-4,4.880213E-3,1.2074151E-2,-1.1881681E-3,-1.2312677E-2,-7.406397E-4,-2.2397002E-3,-1.4778931E-4,1.1176877E-2,-6.3876747E-3,-2.951845E-3,-1.0593942E-2,1.4096228E-2,-3.049175E-3,1.4695364E-2,3.1011342E-3,3.5191174E-3,1.2922124E-4],"categories":[],"categories_nodes":[],"categories_segments":[],"categories_sizes":[],"default_left":[0,0,0,0,0,0,0,0,0,0,0,0,0,0,0,0,0,0,0,0,0,0,0,0,0,0,0,0,0,0,0,0,0,0,0,0,0,0,0,0,0,0,0,0,0,0,0,0,0,0,0,0,0,0,0],"id":11,"left_children":[1,3,5,7,9,11,13,15,17,19,21,23,25,27,29,31,-1,-1,33,35,37,39,41,43,45,47,49,-1,-1,51,53,-1,-1,-1,-1,-1,-1,-1,-1,-1,-1,-1,-1,-1,-1,-1,-1,-1,-1,-1,-1,-1,-1,-1,-1],"loss_changes":[2.0329233E2,6.6717606E1,1.0295669E2,1.4986038E1,3.953916E1,1.0274269E2,5.610273E1,2.0658722E0,1.2896651E1,2.6672081E1,2.8621487E1,1.0143896E2,4.4241196E1,1.7101364E0,3.3702896E1,1.1307678E0,0E0,0E0,9.02836E0,1.7974213E1,2.2307877E1,2.1331882E1,1.9177092E1,4.452449E1,2.7243301E1,4.1686905E1,1.141337E1,0E0,0E0,5.6557617E0,3.100114E1,0E0,0E0,0E0,0E0,0E0,0E0,0E0,0E0,0E0,0E0,0E0,0E0,0E0,0E0,0E0,0E0,0E0,0E0,0E0,0E0,0E0,0E0,0E0,0E0],"parents":[2147483647,0,0,1,1,2,2,3,3,4,4,5,5,6,6,7,7,8,8,9,9,10,10,11,11,12,12,13,13,14,14,15,15,18,18,19,19,20,20,21,21,22,22,23,23,24,24,25,25,26,26,29,29,30,30],"right_children":[2,4,6,8,10,12,14,16,18,20,22,24,26,28,30,32,-1,-1,34,36,38,40,42,44,46,48,50,-1,-1,52,54,-1,-1,-1,-1,-1,-1,-1,-1,-1,-1,-1,-1,-1,-1,-1,-1,-1,-1,-1,-1,-1,-1,-1,-1],"split_conditions":[1.7933E3,-1.04972655E-2,1.579417E-2,3.8116556E-2,4.3981105E-2,2.9194E3,-4.5952693E-2,5.0376167E0,8.983E1,-4.5706527E-4,6.6250446E-4,2.8902E3,5.3733155E-2,1.11453445E2,6.425E1,9.991E1,8.229262E-3,1.441412E-2,1.6877043E-1,4.114914E-1,4.1321367E-3,8.498961E-3,6.76282E1,8.23E1,7.532E1,-1.5113607E-2,-1.1693779E-4,1.6076917E-2,7.3305927E-3,2.3340546E1,3.6923452E-3,1.6210355E-2,1.0658298E-2,8.085079E-3,-4.0791216E-3,1.2394051E-2,5.4299044E-3,3.4292435E-4,4.880213E-3,1.2074151E-2,-1.1881681E-3,-1.2312677E-2,-7.406397E-4,-2.2397002E-3,-1.4778931E-4,1.1176877E-2,-6.3876747E-3,-2.951845E-3,-1.0593942E-2,1.4096228E-2,-3.049175E-3,1.4695364E-2,3.1011342E-3,3.5191174E-3,1.2922124E-4],"split_indices":[2,43,40,31,31,2,43,19,1,42,42,2,37,26,1,1,0,0,32,19,43,43,16,1,1,40,42,0,0,22,39,0,0,0,0,0,0,0,0,0,0,0,0,0,0,0,0,0,0,0,0,0,0,0,0],"split_type":[0,0,0,0,0,0,0,0,0,0,0,0,0,0,0,0,0,0,0,0,0,0,0,0,0,0,0,0,0,0,0,0,0,0,0,0,0,0,0,0,0,0,0,0,0,0,0,0,0,0,0,0,0,0,0],"sum_hessian":[6.6017144E3,8.512469E2,5.7504673E3,1.06382675E2,7.448642E2,4.482198E3,1.268269E3,7.238276E1,3.3999924E1,6.348466E2,1.1001762E2,4.161729E3,3.204693E2,3.1208216E1,1.2370608E3,6.3700436E1,8.68232E0,1.1399498E1,2.2600424E1,1.6739938E2,4.674472E2,5.3231236E1,5.678638E1,4.0695474E3,9.21818E1,3.040178E2,1.6451508E1,2.6001383E1,5.206832E0,2.7117456E1,1.2099434E3,5.056227E1,1.3138165E1,1.0424518E1,1.2175906E1,5.7622574E1,1.0977681E2,1.7056464E2,2.9688257E2,1.7151918E1,3.607932E1,2.9657305E1,2.7129078E1,2.0128235E3,2.0567239E3,8.296043E1,9.221378E0,1.16514336E2,1.8750346E2,1.1210236E1,5.241271E0,2.1146856E1,5.970599E0,4.0477536E2,8.05168E2],"tree_param":{"num_deleted":"0","num_feature":"44","num_nodes":"55","size_leaf_vector":"1"}},{"base_weights":[1.4765227E-2,1.9236149E-1,-1.5426114E-1,8.947512E-2,6.0201025E-1,-5.292298E-1,-7.4612044E-2,2.0095015E-1,-5.704129E-1,1.5075814E0,4.6589133E-1,-6.844553E-1,2.958175E-1,7.091819E-1,-1.8044019E-1,2.745537E-1,-6.16363E-1,-3.657225E-2,-1.1429969E0,1.7098136E-2,9.3074876E-1,-2.8196016E-1,5.675435E-1,3.221127E-1,-8.330277E-1,-1.3469887E0,5.966023E-1,-8.785164E-1,8.487333E-1,-2.426016E-1,5.4691386E-1,-2.6341584E-3,3.5559305E-3,-1.2850197E-2,3.9710295E-3,3.0884359E-3,-6.4521204E-3,-1.274427E-2,1.290828E-2,-4.256244E-4,1.3510973E-2,7.871953E-3,-1.4050237E-2,-3.5398134E-3,6.148306E-3,1.2070334E-2,7.3357753E-4,1.14143975E-2,-8.724908E-3,-1.7339922E-2,-6.9386195E-3,1.1859617E-2,1.4170895E-4,-1.2410444E-2,4.1983426E-3,2.1298E-3,1.0491324E-2,-7.5172954E-3,-1.8817594E-3,-4.7269836E-3,7.807701E-3],"categories":[],"categories_nodes":[],"categories_segments":[],"categories_sizes":[],"default_left":[0,0,0,0,0,0,0,0,0,0,0,0,0,0,0,0,0,0,0,0,0,0,0,0,0,0,0,0,0,0,0,0,0,0,0,0,0,0,0,0,0,0,0,0,0,0,0,0,0,0,0,0,0,0,0,0,0,0,0,0,0],"id":12,"left_children":[1,3,5,7,9,11,13,15,17,19,21,23,25,27,29,31,33,35,37,-1,39,41,43,45,47,49,51,53,55,57,59,-1,-1,-1,-1,-1,-1,-1,-1,-1,-1,-1,-1,-1,-1,-1,-1,-1,-1,-1,-1,-1,-1,-1,-1,-1,-1,-1,-1,-1,-1],"loss_changes":[1.9874492E2,1.3601846E2,1.01273895E2,1.9001848E2,7.916301E1,7.629588E1,2.3230708E2,1.3307074E2,1.1407741E2,8.232803E0,4.3088776E1,7.509918E1,4.7639072E1,7.456705E1,1.11670876E2,8.8482254E1,1.24404045E2,4.1035328E1,5.925563E1,0E0,9.899498E0,8.304408E1,2.1894943E1,1.4237234E1,3.499185E1,2.5820618E0,2.772148E1,1.3422791E1,3.886049E1,6.2853363E1,4.6755135E1,0E0,0E0,0E0,0E0,0E0,0E0,0E0,0E0,0E0,0E0,0E0,0E0,0E0,0E0,0E0,0E0,0E0,0E0,0E0,0E0,0E0,0E0,0E0,0E0,0E0,0E0,0E0,0E0,0E0,0E0],"parents":[2147483647,0,0,1,1,2,2,3,3,4,4,5,5,6,6,7,7,8,8,9,9,10,10,11,11,12,12,13,13,14,14,15,15,16,16,17,17,18,18,20,20,21,21,22,22,23,23,24,24,25,25,26,26,27,27,28,28,29,29,30,30],"right_children":[2,4,6,8,10,12,14,16,18,20,22,24,26,28,30,32,34,36,38,-1,40,42,44,46,48,50,52,54,56,58,60,-1,-1,-1,-1,-1,-1,-1,-1,-1,-1,-1,-1,-1,-1,-1,-1,-1,-1,-1,-1,-1,-1,-1,-1,-1,-1,-1,-1,-1,-1],"split_conditions":[7.706359E3,1.98159E1,2.93114E1,5.096273E3,5.261372E3,9.236E1,8.883453E3,1.92653E1,1.8495E3,1.9643E3,2.3646E1,2.68165E1,2.6947E1,7.428E1,8.66E1,1.38205E1,2.0145E3,5.428271E3,4.5008246E-2,1.7098136E-2,1.8010634E-3,5.434471E3,1.9061E3,8.368153E-3,7.326E1,2.9493446E1,5.3233654E1,1.8049408E-2,3.019136E1,3.21605E1,2.261E3,-2.6341584E-3,3.5559305E-3,-1.2850197E-2,3.9710295E-3,3.0884359E-3,-6.4521204E-3,-1.274427E-2,1.290828E-2,-4.256244E-4,1.3510973E-2,7.871953E-3,-1.4050237E-2,-3.5398134E-3,6.148306E-3,1.2070334E-2,7.3357753E-4,1.14143975E-2,-8.724908E-3,-1.7339922E-2,-6.9386195E-3,1.1859617E-2,1.4170895E-4,-1.2410444E-2,4.1983426E-3,2.1298E-3,1.0491324E-2,-7.5172954E-3,-1.8817594E-3,-4.7269836E-3,7.807701E-3],"split_indices":[4,3,3,4,4,1,4,3,2,2,3,3,3,1,1,3,2,4,43,0,40,4,2,37,1,21,9,30,3,3,2,0,0,0,0,0,0,0,0,0,0,0,0,0,0,0,0,0,0,0,0,0,0,0,0,0,0,0,0,0,0],"split_type":[0,0,0,0,0,0,0,0,0,0,0,0,0,0,0,0,0,0,0,0,0,0,0,0,0,0,0,0,0,0,0,0,0,0,0,0,0,0,0,0,0,0,0,0,0,0,0,0,0,0,0,0,0,0,0,0,0,0,0,0,0],"sum_hessian":[6.61877E3,3.2274966E3,3.3912737E3,2.5805823E3,6.469143E2,5.9316266E2,2.7981108E3,2.2082393E3,3.723429E2,8.3216515E1,5.6369775E2,4.9937924E2,9.378343E1,3.3218097E2,2.46593E3,2.0264137E3,1.818256E2,1.9324115E2,1.7910175E2,6.01606E1,2.3055912E1,6.724022E1,4.9645755E2,6.40792E1,4.3530005E2,1.3975385E1,7.9808044E1,2.6410398E1,3.0577057E2,2.2723923E3,1.9353763E2,2.6499933E2,1.7614144E3,1.0938709E2,7.2438515E1,1.2359242E2,6.964872E1,1.7037749E2,8.724265E0,7.2250814E0,1.5830832E1,3.460006E1,3.2640163E1,2.3915188E1,4.7254236E2,1.3215191E1,5.086401E1,7.982565E0,4.2731747E2,7.7363677E0,6.239017E0,3.915305E1,4.0654995E1,2.0680178E1,5.7302217E0,7.377784E1,2.3199272E2,2.1822081E2,2.0541716E3,3.591725E1,1.5762038E2],"tree_param":{"num_deleted":"0","num_feature":"44","num_nodes":"61","size_leaf_vector":"1"}},{"base_weights":[7.5061554E-3,8.057423E-2,-3.730769E-1,2.4830435E-1,-2.2282658E-2,-6.7462313E-1,1.4629848E-1,1.6016626E-1,5.965937E-1,-3.8185737E-1,4.3785017E-2,2.9569018E-1,-8.828556E-1,1.1657907E0,-7.962255E-2,-6.6006994E-1,2.0677304E-1,3.4688216E-1,8.275608E-1,-4.9570435E-1,6.187962E-1,9.109668E-2,-5.164731E-1,8.5385656E-1,-1.7191588E0,-2.8782666E-1,-9.7754794E-1,1.3208263E0,3.0932727E-1,1.4562253E0,-2.0649657E-1,6.024719E-3,-9.168663E-3,5.7990244E-3,1.1624268E-3,2.2586372E-3,1.2605635E-2,1.077417E-2,5.852961E-3,-3.5718824E-3,-1.2768421E-2,-6.677976E-3,9.023006E-3,4.7288677E-3,2.9878117E-4,-1.09369E-2,-1.1525192E-4,3.6281073E-3,1.45467715E-2,-1.8869333E-2,-9.8820925E-3,-7.939267E-3,6.7525944E-3,-8.492701E-3,-1.340177E-2,8.878041E-3,1.441517E-2,-2.090116E-3,7.278314E-3,8.390224E-3,1.6878609E-2,-3.295922E-3,5.0249808E-3],"categories":[],"categories_nodes":[],"categories_segments":[],"categories_sizes":[],"default_left":[0,0,0,0,0,0,0,0,0,0,0,0,0,0,0,0,0,0,0,0,0,0,0,0,0,0,0,0,0,0,0,0,0,0,0,0,0,0,0,0,0,0,0,0,0,0,0,0,0,0,0,0,0,0,0,0,0,0,0,0,0,0,0],"id":13,"left_children":[1,3,5,7,9,11,13,15,17,19,21,23,25,27,29,31,33,35,37,39,41,43,45,47,49,51,53,55,57,59,61,-1,-1,-1,-1,-1,-1,-1,-1,-1,-1,-1,-1,-1,-1,-1,-1,-1,-1,-1,-1,-1,-1,-1,-1,-1,-1,-1,-1,-1,-1,-1,-1],"loss_changes":[1.8331595E2,9.541434E1,1.6638846E2,6.443884E1,8.1476364E1,1.3602533E2,9.0112465E1,6.432501E1,2.4178314E1,6.0952103E1,7.685381E1,1.3582634E2,3.090329E1,9.014046E0,6.2826145E1,2.9899044E1,5.3627075E1,2.244312E1,1.2664856E1,5.131987E1,2.059991E1,6.2457245E1,6.5797E1,2.7270409E1,1.3543015E0,3.8263477E1,2.1053314E1,1.8444443E0,2.7948418E0,2.1020432E0,2.610929E1,0E0,0E0,0E0,0E0,0E0,0E0,0E0,0E0,0E0,0E0,0E0,0E0,0E0,0E0,0E0,0E0,0E0,0E0,0E0,0E0,0E0,0E0,0E0,0E0,0E0,0E0,0E0,0E0,0E0,0E0,0E0,0E0],"parents":[2147483647,0,0,1,1,2,2,3,3,4,4,5,5,6,6,7,7,8,8,9,9,10,10,11,11,12,12,13,13,14,14,15,15,16,16,17,17,18,18,19,19,20,20,21,21,22,22,23,23,24,24,25,25,26,26,27,27,28,28,29,29,30,30],"right_children":[2,4,6,8,10,12,14,16,18,20,22,24,26,28,30,32,34,36,38,40,42,44,46,48,50,52,54,56,58,60,62,-1,-1,-1,-1,-1,-1,-1,-1,-1,-1,-1,-1,-1,-1,-1,-1,-1,-1,-1,-1,-1,-1,-1,-1,-1,-1,-1,-1,-1,-1,-1,-1],"split_conditions":[9.890747E3,4.9848735E3,8.192E1,7.031499E-3,-1.8748105E-2,7.214E1,1.0188847E4,-4.977897E-3,2.1723781E-3,2.4173786E-3,1.49808945E-2,1.0739543E4,-1.369905E-2,2.8154334E-1,-3.5441793E-3,-1.0302322E-2,-2.1268266E-4,1.6258834E-2,1.682035E-2,8.49E1,5.7328696E3,-1.0037334E-3,9.109252E3,4.629536E-3,1.4053681E-1,6.1379874E-4,1.0158546E4,-1.3006501E-2,3.920833E1,8.329E1,1.8349499E-2,6.024719E-3,-9.168663E-3,5.7990244E-3,1.1624268E-3,2.2586372E-3,1.2605635E-2,1.077417E-2,5.852961E-3,-3.5718824E-3,-1.2768421E-2,-6.677976E-3,9.023006E-3,4.7288677E-3,2.9878117E-4,-1.09369E-2,-1.1525192E-4,3.6281073E-3,1.45467715E-2,-1.8869333E-2,-9.8820925E-3,-7.939267E-3,6.7525944E-3,-8.492701E-3,-1.340177E-2,8.878041E-3,1.441517E-2,-2.090116E-3,7.278314E-3,8.390224E-3,1.6878609E-2,-3.295922E-3,5.0249808E-3],"split_indices":[4,4,1,41,40,1,4,42,43,42,41,4,43,36,42,41,42,41,37,1,4,42,4,41,32,42,4,41,5,1,43,0,0,0,0,0,0,0,0,0,0,0,0,0,0,0,0,0,0,0,0,0,0,0,0,0,0,0,0,0,0,0,0],"split_type":[0,0,0,0,0,0,0,0,0,0,0,0,0,0,0,0,0,0,0,0,0,0,0,0,0,0,0,0,0,0,0,0,0,0,0,0,0,0,0,0,0,0,0,0,0,0,0,0,0,0,0,0,0,0,0,0,0,0,0,0,0,0,0],"sum_hessian":[6.5900093E3,5.5292397E3,1.0607695E3,2.1012646E3,3.427975E3,6.709317E2,3.898379E2,1.6780718E3,4.23193E2,5.3134406E2,2.896631E3,1.1846996E2,5.5246173E2,6.996288E1,3.19875E2,8.951572E1,1.588556E3,2.045473E2,2.186457E2,4.7752E2,5.3824078E1,2.6718416E3,2.2478944E2,9.322139E1,2.524857E1,7.640251E1,4.760592E2,5.8780373E1,1.1182515E1,2.3608562E1,2.9626645E2,1.49023E1,7.461342E1,3.091128E2,1.2794432E3,1.817248E2,2.282251E1,1.0593938E2,1.1270632E2,4.0683484E2,7.068516E1,9.473973E0,4.43501E1,3.682877E2,2.303554E3,1.0434474E2,1.204447E2,5.217943E1,4.104196E1,1.9248896E1,5.999675E0,5.019878E1,2.6203728E1,3.5412988E2,1.2192932E2,1.463346E1,4.414691E1,5.2190404E0,5.9634743E0,7.703753E0,1.590481E1,2.528941E2,4.3372334E1],"tree_param":{"num_deleted":"0","num_feature":"44","num_nodes":"63","size_leaf_vector":"1"}},{"base_weights":[-6.393069E-3,4.1761845E-1,-8.546738E-2,1.1201049E0,3.073572E-1,-2.2937942E-1,4.871176E-2,-2.4528268E-3,1.1930496E0,-1.1396321E0,3.461033E-1,1.240209E0,-2.4727045E-1,1.392307E-1,-3.3266076E-1,1.2900034E0,4.3406454E-1,-1.4375446E-3,-1.5259692E-2,4.0893584E-1,-3.420729E-1,1.4355184E0,3.1857553E-3,-1.6962731E-1,-5.361681E-1,-5.3245354E-1,1.7980877E-1,-7.363612E-1,1.6378516E-1,1.0156257E-2,1.6060673E-2,1.5259902E-2,-8.679857E-3,-8.292254E-4,4.606089E-3,-5.9051216E-3,1.3640537E-2,7.4038575E-3,1.5704853E-2,-4.6282667E-3,-5.764388E-4,-8.620182E-3,-3.3863317E-3,1.2406884E-3,-1.0859128E-2,1.6658502E-2,1.6317295E-3,5.953847E-3,-8.5979225E-3,1.0499854E-2,-1.6636507E-3],"categories":[],"categories_nodes":[],"categories_segments":[],"categories_sizes":[],"default_left":[0,0,0,0,0,0,0,0,0,0,0,0,0,0,0,0,0,0,0,0,0,0,0,0,0,0,0,0,0,0,0,0,0,0,0,0,0,0,0,0,0,0,0,0,0,0,0,0,0,0,0],"id":14,"left_children":[1,3,5,7,9,11,13,-1,15,17,19,21,23,25,27,29,31,-1,-1,33,35,37,-1,39,41,43,45,47,49,-1,-1,-1,-1,-1,-1,-1,-1,-1,-1,-1,-1,-1,-1,-1,-1,-1,-1,-1,-1,-1,-1],"loss_changes":[2.2186296E2,8.021713E1,1.07703354E2,1.4308426E1,5.087301E1,7.106206E1,9.9707245E1,0E0,9.282822E0,8.904106E0,3.8089005E1,5.398926E0,5.9565323E1,6.3706566E1,1.11164825E2,8.610519E0,2.5008068E1,0E0,0E0,2.0489532E1,3.2159794E1,1.3290787E0,0E0,6.884657E1,3.5940292E1,4.8539127E1,5.4156105E1,5.0772507E1,7.311735E1,0E0,0E0,0E0,0E0,0E0,0E0,0E0,0E0,0E0,0E0,0E0,0E0,0E0,0E0,0E0,0E0,0E0,0E0,0E0,0E0,0E0,0E0],"parents":[2147483647,0,0,1,1,2,2,3,3,4,4,5,5,6,6,8,8,9,9,10,10,11,11,12,12,13,13,14,14,15,15,16,16,19,19,20,20,21,21,23,23,24,24,25,25,26,26,27,27,28,28],"right_children":[2,4,6,8,10,12,14,-1,16,18,20,22,24,26,28,30,32,-1,-1,34,36,38,-1,40,42,44,46,48,50,-1,-1,-1,-1,-1,-1,-1,-1,-1,-1,-1,-1,-1,-1,-1,-1,-1,-1,-1,-1,-1,-1],"split_conditions":[1.8127E3,-1.0645343E-2,1.363414E-4,-9.93984E-2,1.35226E1,-3.6847755E-2,9.845849E3,-2.4528268E-3,1.86307E1,-1.0610169E-2,5.140774E-2,2.6094232E-2,-4.088534E-3,1.8299E3,8.077E1,1.827322E1,8.329E1,-1.4375446E-3,-1.5259692E-2,-1.3267172E-2,1.8075E3,6.584263E6,3.1857553E-3,1.98159E1,-3.0944264E-3,8.447E1,-7.656071E-2,7.056E1,1.0188847E4,1.0156257E-2,1.6060673E-2,1.5259902E-2,-8.679857E-3,-8.292254E-4,4.606089E-3,-5.9051216E-3,1.3640537E-2,7.4038575E-3,1.5704853E-2,-4.6282667E-3,-5.764388E-4,-8.620182E-3,-3.3863317E-3,1.2406884E-3,-1.0859128E-2,1.6658502E-2,1.6317295E-3,5.953847E-3,-8.5979225E-3,1.0499854E-2,-1.6636507E-3],"split_indices":[2,43,40,30,3,43,4,0,3,30,31,38,40,2,1,3,1,0,0,41,2,0,0,3,43,1,43,1,4,0,0,0,0,0,0,0,0,0,0,0,0,0,0,0,0,0,0,0,0,0,0],"split_type":[0,0,0,0,0,0,0,0,0,0,0,0,0,0,0,0,0,0,0,0,0,0,0,0,0,0,0,0,0,0,0,0,0,0,0,0,0,0,0,0,0,0,0,0,0,0,0,0,0,0,0],"sum_hessian":[6.615097E3,1.0390786E3,5.5760186E3,1.3972389E2,8.9935474E2,2.6900896E3,2.8859287E3,6.966247E0,1.3275764E2,2.2713068E1,8.7664166E2,3.1534006E1,2.6585557E3,2.3328586E3,5.5307007E2,1.1709953E2,1.5658105E1,6.7319446E0,1.5981124E1,8.036699E2,7.297172E1,2.5559866E1,5.97414E0,2.0966533E3,5.619023E2,1.3221394E2,2.2006448E3,3.0476096E2,2.4830913E2,6.4938896E1,5.216064E1,8.422682E0,7.235423E0,7.6346695E1,7.2732324E2,6.4267265E1,8.7044525E0,5.210331E0,2.0349535E1,5.78602E2,1.5180514E3,2.1080238E2,3.5109988E2,6.083102E1,7.138292E1,2.3265316E1,2.1773794E3,2.552611E1,2.7923486E2,6.680598E1,1.8150314E2],"tree_param":{"num_deleted":"0","num_feature":"44","num_nodes":"51","size_leaf_vector":"1"}},{"base_weights":[-4.8679565E-3,2.3088236E-1,-1.1046393E-1,-2.992108E-1,3.0836225E-1,-4.784112E-1,-5.673434E-2,5.461972E-1,-7.2898865E-1,8.79577E-1,2.1453856E-1,2.0309532E-1,-6.7173034E-1,4.489967E-1,-1.5949629E-1,-4.040113E-1,6.950254E-1,4.943653E-1,-1.0578082E0,1.0003052E0,1.7472005E-2,-2.171036E-1,3.8760918E-1,1.39420945E-2,4.4364333E-3,-1.2641922E0,-3.5527116E-1,1.3537989E0,3.8939154E-1,-5.554085E-1,-8.512408E-2,1.6678516E-3,-9.357886E-3,2.4074772E-3,1.0662112E-2,7.111604E-3,-6.062454E-3,-1.4483823E-2,-8.119687E-3,1.2939109E-2,5.925076E-3,8.584087E-3,-4.582438E-3,-5.633528E-3,2.5590383E-3,3.2767083E-3,1.3572144E-2,7.830536E-3,-2.0346087E-3,-1.3752056E-2,7.917329E-3,-2.5156632E-4,-1.0960125E-2,1.5320634E-2,9.7109063E-4,2.1118224E-3,6.6425237E-3,4.649657E-3,-6.7813313E-3,6.9967047E-3,-1.8967513E-3],"categories":[],"categories_nodes":[],"categories_segments":[],"categories_sizes":[],"default_left":[0,0,0,0,0,0,0,0,0,0,0,0,0,0,0,0,0,0,0,0,0,0,0,0,0,0,0,0,0,0,0,0,0,0,0,0,0,0,0,0,0,0,0,0,0,0,0,0,0,0,0,0,0,0,0,0,0,0,0,0,0],"id":15,"left_children":[1,3,5,7,9,11,13,15,17,19,21,23,25,27,29,31,33,35,37,39,41,43,45,-1,47,49,51,53,55,57,59,-1,-1,-1,-1,-1,-1,-1,-1,-1,-1,-1,-1,-1,-1,-1,-1,-1,-1,-1,-1,-1,-1,-1,-1,-1,-1,-1,-1,-1,-1],"loss_changes":[1.6535136E2,8.448457E1,9.066327E1,9.578818E1,9.591644E1,7.7127625E1,2.0815773E2,1.2874809E1,7.07109E1,2.628006E1,1.15245674E2,3.0732517E1,8.4948166E1,3.5954422E1,9.796062E1,4.0085616E0,1.2788425E1,9.413439E0,1.2058975E1,2.5767242E1,1.3216649E1,7.250801E1,6.352527E1,0E0,1.8343857E1,3.7193863E1,7.291169E1,9.126732E0,3.1015038E1,6.6208954E1,2.3014825E2,0E0,0E0,0E0,0E0,0E0,0E0,0E0,0E0,0E0,0E0,0E0,0E0,0E0,0E0,0E0,0E0,0E0,0E0,0E0,0E0,0E0,0E0,0E0,0E0,0E0,0E0,0E0,0E0,0E0,0E0],"parents":[2147483647,0,0,1,1,2,2,3,3,4,4,5,5,6,6,7,7,8,8,9,9,10,10,11,11,12,12,13,13,14,14,15,15,16,16,17,17,18,18,19,19,20,20,21,21,22,22,24,24,25,25,26,26,27,27,28,28,29,29,30,30],"right_children":[2,4,6,8,10,12,14,16,18,20,22,24,26,28,30,32,34,36,38,40,42,44,46,-1,48,50,52,54,56,58,60,-1,-1,-1,-1,-1,-1,-1,-1,-1,-1,-1,-1,-1,-1,-1,-1,-1,-1,-1,-1,-1,-1,-1,-1,-1,-1,-1,-1,-1,-1],"split_conditions":[4.9765737E3,1.38205E1,1.941784E1,2.0031893E3,2.3808872E3,1.870299E1,7.750359E3,2.1620739E0,8.389E1,1.02652805E-2,1.74112E1,-1.6170334E-2,8.217E1,-1.1667933E-2,2.93114E1,9.003E1,2.1561422E1,3.929663E1,-3.33166E-3,1.47471E1,2.8632088E-2,4.5927815E-4,1.98159E1,1.39420945E-2,-1.812168E-2,6.667851E-2,8.595E1,2.6574774E-2,1.5747582E-3,2.68165E1,8.883453E3,1.6678516E-3,-9.357886E-3,2.4074772E-3,1.0662112E-2,7.111604E-3,-6.062454E-3,-1.4483823E-2,-8.119687E-3,1.2939109E-2,5.925076E-3,8.584087E-3,-4.582438E-3,-5.633528E-3,2.5590383E-3,3.2767083E-3,1.3572144E-2,7.830536E-3,-2.0346087E-3,-1.3752056E-2,7.917329E-3,-2.5156632E-4,-1.0960125E-2,1.5320634E-2,9.7109063E-4,2.1118224E-3,6.6425237E-3,4.649657E-3,-6.7813313E-3,6.9967047E-3,-1.8967513E-3],"split_indices":[4,3,3,4,4,3,4,13,1,42,3,43,1,41,3,1,21,15,42,3,31,41,3,0,40,31,1,38,41,3,4,0,0,0,0,0,0,0,0,0,0,0,0,0,0,0,0,0,0,0,0,0,0,0,0,0,0,0,0,0,0],"split_type":[0,0,0,0,0,0,0,0,0,0,0,0,0,0,0,0,0,0,0,0,0,0,0,0,0,0,0,0,0,0,0,0,0,0,0,0,0,0,0,0,0,0,0,0,0,0,0,0,0,0,0,0,0,0,0,0,0,0,0,0,0],"sum_hessian":[6.640117E3,2.053763E3,4.5863545E3,2.615382E2,1.7922247E3,5.8338104E2,4.0029731E3,8.8055336E1,1.734829E2,2.5166574E2,1.540559E3,1.2890448E2,4.5447656E2,6.7545087E2,3.3275225E3,1.1691997E1,7.6363335E1,3.664475E1,1.3683813E2,2.2061127E2,3.1054468E1,4.4083984E2,1.0997191E3,1.7565796E1,1.11338684E2,1.5719244E2,2.9728412E2,4.0404243E1,6.3504663E2,5.2520166E2,2.8023208E3,5.9701505E0,5.7218466E0,3.507959E1,4.1283745E1,3.091003E1,5.7347193E0,5.0969444E1,8.586869E1,1.270006E2,9.3610664E1,1.0929543E1,2.0124926E1,2.5441377E2,1.8642607E2,1.0369553E3,6.27638E1,2.2880411E1,8.845827E1,1.4945354E2,7.738911E0,2.0635507E2,9.092905E1,3.5192917E1,5.2113247E0,3.86332E2,2.4871463E2,5.608697E1,4.691147E2,3.2877032E2,2.4735503E3],"tree_param":{"num_deleted":"0","num_feature":"44","num_nodes":"61","size_leaf_vector":"1"}},{"base_weights":[5.0323433E-3,3.8525942E-1,-6.376179E-2,9.747146E-1,2.9184142E-1,1.0309395E-3,-3.3560973E-1,1.1926237E0,4.3420255E-1,-1.3831894E-2,3.225453E-1,-4.977258E-1,4.0433936E-2,-6.2835336E-1,1.629963E-1,1.3853527E0,5.8300775E-1,1.5012492E-1,1.3225497E-2,4.4047564E-1,-4.056882E-2,-2.7456867E-2,-1.0612831E0,-3.109059E-1,1.1716479E-1,4.0184006E-1,-8.469756E-1,1.1968839E0,-4.2335916E-2,5.463701E-3,1.4408112E-2,-1.2660645E-3,1.0509555E-2,4.580204E-3,-1.1535981E-2,4.8163845E-3,-5.065906E-3,-1.0053896E-2,9.870796E-4,5.053738E-3,-3.8270187E-3,-1.3634743E-2,-4.7933683E-3,-1.833418E-2,-2.3143978E-3,1.3421561E-3,-1.2296474E-2,1.00013325E-2,-1.7719684E-2,-2.5993292E-3,-9.398377E-3,1.3398648E-2,2.493386E-3,1.2724831E-2,-1.5966248E-3],"categories":[],"categories_nodes":[],"categories_segments":[],"categories_sizes":[],"default_left":[0,0,0,0,0,0,0,0,0,0,0,0,0,0,0,0,0,0,0,0,0,0,0,0,0,0,0,0,0,0,0,0,0,0,0,0,0,0,0,0,0,0,0,0,0,0,0,0,0,0,0,0,0,0,0],"id":16,"left_children":[1,3,5,7,9,11,13,15,17,-1,19,21,23,25,27,29,31,33,-1,35,37,39,41,43,45,47,49,51,53,-1,-1,-1,-1,-1,-1,-1,-1,-1,-1,-1,-1,-1,-1,-1,-1,-1,-1,-1,-1,-1,-1,-1,-1,-1,-1],"loss_changes":[1.7342651E2,5.565085E1,9.88908E1,1.5799088E1,4.561486E1,8.914011E1,1.5783015E2,1.0725006E1,1.0243116E1,0E0,3.6984528E1,8.798605E1,1.1336191E2,1.537302E2,8.5081085E1,2.6490784E0,8.535881E0,1.356569E1,0E0,2.5650246E1,2.8660818E1,3.4655113E1,2.5908432E1,9.077365E1,7.941255E1,1.5771965E2,3.0400757E1,8.662018E0,5.190245E1,0E0,0E0,0E0,0E0,0E0,0E0,0E0,0E0,0E0,0E0,0E0,0E0,0E0,0E0,0E0,0E0,0E0,0E0,0E0,0E0,0E0,0E0,0E0,0E0,0E0,0E0],"parents":[2147483647,0,0,1,1,2,2,3,3,4,4,5,5,6,6,7,7,8,8,10,10,11,11,12,12,13,13,14,14,15,15,16,16,17,17,19,19,20,20,21,21,22,22,23,23,24,24,25,25,26,26,27,27,28,28],"right_children":[2,4,6,8,10,12,14,16,18,-1,20,22,24,26,28,30,32,34,-1,36,38,40,42,44,46,48,50,52,54,-1,-1,-1,-1,-1,-1,-1,-1,-1,-1,-1,-1,-1,-1,-1,-1,-1,-1,-1,-1,-1,-1,-1,-1,-1,-1],"split_conditions":[1.8127E3,-1.0645343E-2,9.890747E3,2.0086147E-1,-9.762642E-3,7.183E1,8.192E1,1.787E3,-1.6493706E-2,-1.3831894E-2,3.8116556E-2,9.420351E3,1.8746E3,7.214E1,1.0188847E4,-6.01624E-1,1.8075E3,-1.9502154E-2,1.3225497E-2,7.4936477E-3,3.0481253E1,6.425E1,4.0253587E-3,7.999E1,2.3855366E-2,1.0739543E4,-1.369905E-2,3.5206653E-2,-3.5441793E-3,5.463701E-3,1.4408112E-2,-1.2660645E-3,1.0509555E-2,4.580204E-3,-1.1535981E-2,4.8163845E-3,-5.065906E-3,-1.0053896E-2,9.870796E-4,5.053738E-3,-3.8270187E-3,-1.3634743E-2,-4.7933683E-3,-1.833418E-2,-2.3143978E-3,1.3421561E-3,-1.2296474E-2,1.00013325E-2,-1.7719684E-2,-2.5993292E-3,-9.398377E-3,1.3398648E-2,2.493386E-3,1.2724831E-2,-1.5966248E-3],"split_indices":[2,43,4,32,42,1,1,2,43,0,31,4,2,1,4,10,2,43,0,42,16,1,41,1,41,4,43,31,42,0,0,0,0,0,0,0,0,0,0,0,0,0,0,0,0,0,0,0,0,0,0,0,0,0,0],"split_type":[0,0,0,0,0,0,0,0,0,0,0,0,0,0,0,0,0,0,0,0,0,0,0,0,0,0,0,0,0,0,0,0,0,0,0,0,0,0,0,0,0,0,0,0,0,0,0,0,0,0,0,0,0,0,0],"sum_hessian":[6.6281753E3,1.01479193E3,5.6133833E3,1.375344E2,8.7725757E2,4.533788E3,1.0795951E3,9.715826E1,4.037613E1,1.4998061E1,8.622595E2,3.311034E2,4.202685E3,6.80057E2,3.9953812E2,7.285331E1,2.4304949E1,3.1478771E1,8.897358E0,6.507116E2,2.1154788E2,1.8106209E2,1.500413E2,7.527762E2,3.4499087E3,1.18906555E2,5.6115045E2,6.540123E1,3.3413687E2,5.19001E0,6.76633E1,9.948341E0,1.4356607E1,2.5989588E1,5.4891834E0,6.240784E2,2.6633177E1,2.5901327E1,1.8564656E2,7.225879E1,1.0880331E2,9.787441E1,5.2166893E1,3.624659E1,7.165296E2,3.4076675E3,4.2241158E1,9.366675E1,2.5239805E1,7.7161385E1,4.8398904E2,5.64666E1,8.9346285E0,2.6567114E1,3.0756976E2],"tree_param":{"num_deleted":"0","num_feature":"44","num_nodes":"55","size_leaf_vector":"1"}},{"base_weights":[6.3574114E-3,3.8104737E-1,-6.235442E-2,4.547824E-1,-1.1131216E-1,-2.0636152E-1,7.005948E-2,-1.6935697E-2,4.7134164E-1,-2.743242E-1,1.4007057E-2,-1.127931E-1,-4.4937524E-1,2.5190282E-1,-3.243108E-2,6.534726E-1,3.1477234E-1,2.0826612E-1,-6.412745E-1,-4.077882E-2,-5.0597954E-1,-6.0381985E-1,3.8005624E-2,-7.097555E-1,3.312427E-1,-1.0608021E0,3.5624925E-2,2.689431E-3,7.617676E-3,1.2823886E-3,5.2919155E-3,-7.2687503E-4,1.1869458E-2,7.126923E-5,-9.458495E-3,-1.1334064E-3,8.894572E-3,-1.3343926E-2,-2.4699706E-3,-4.0179277E-3,-1.0834217E-2,2.3175955E-3,-1.1805513E-2,-9.1057166E-4,-1.1197598E-2,3.860246E-4,5.8287065E-3,-3.6852353E-3,-1.4595769E-2,7.6607056E-4,-7.1779136E-3],"categories":[],"categories_nodes":[],"categories_segments":[],"categories_sizes":[],"default_left":[0,0,0,0,0,0,0,0,0,0,0,0,0,0,0,0,0,0,0,0,0,0,0,0,0,0,0,0,0,0,0,0,0,0,0,0,0,0,0,0,0,0,0,0,0,0,0,0,0,0,0],"id":17,"left_children":[1,3,5,7,9,11,13,-1,15,17,-1,19,21,23,25,27,29,31,33,35,37,39,41,43,45,47,49,-1,-1,-1,-1,-1,-1,-1,-1,-1,-1,-1,-1,-1,-1,-1,-1,-1,-1,-1,-1,-1,-1,-1,-1],"loss_changes":[1.6931532E2,3.7048935E1,1.0598642E2,3.2338196E1,3.3300297E1,6.0488617E1,5.3981552E1,0E0,2.4904922E1,2.1629353E1,0E0,5.4446667E1,5.571077E1,7.989017E1,1.297232E2,1.6707443E1,1.8948242E1,1.4710535E1,1.3672749E1,1.0991757E2,6.3538857E1,5.4003235E1,4.252684E1,2.016288E1,7.1045105E1,3.1223007E1,5.3747803E1,0E0,0E0,0E0,0E0,0E0,0E0,0E0,0E0,0E0,0E0,0E0,0E0,0E0,0E0,0E0,0E0,0E0,0E0,0E0,0E0,0E0,0E0,0E0,0E0],"parents":[2147483647,0,0,1,1,2,2,3,3,4,4,5,5,6,6,8,8,9,9,11,11,12,12,13,13,14,14,15,15,16,16,17,17,18,18,19,19,20,20,21,21,22,22,23,23,24,24,25,25,26,26],"right_children":[2,4,6,8,10,12,14,-1,16,18,-1,20,22,24,26,28,30,32,34,36,38,40,42,44,46,48,50,-1,-1,-1,-1,-1,-1,-1,-1,-1,-1,-1,-1,-1,-1,-1,-1,-1,-1,-1,-1,-1,-1,-1,-1],"split_conditions":[1.8127E3,4.5553803E-2,1.363414E-4,-1.1074267E-2,1.803E3,-5.9409537E-3,3.2376332E-4,-1.6935697E-2,-2.787322E-3,1.389432E1,1.4007057E-2,8.293621E-3,2.4797707E-3,1.8299E3,5.238738E-4,-1.3267172E-2,9.457E1,9.442E1,1.3279276E-4,6.527917E-3,1.1169567E-2,1.2549484E-3,-1.3748548E-4,8.447E1,8.175E1,1.9262E3,1.6258834E-2,2.689431E-3,7.617676E-3,1.2823886E-3,5.2919155E-3,-7.2687503E-4,1.1869458E-2,7.126923E-5,-9.458495E-3,-1.1334064E-3,8.894572E-3,-1.3343926E-2,-2.4699706E-3,-4.0179277E-3,-1.0834217E-2,2.3175955E-3,-1.1805513E-2,-9.1057166E-4,-1.1197598E-2,3.860246E-4,5.8287065E-3,-3.6852353E-3,-1.4595769E-2,7.6607056E-4,-7.1779136E-3],"split_indices":[2,31,40,42,2,40,42,0,40,23,0,41,42,2,42,41,1,1,42,41,41,42,40,1,1,2,41,0,0,0,0,0,0,0,0,0,0,0,0,0,0,0,0,0,0,0,0,0,0,0,0],"split_type":[0,0,0,0,0,0,0,0,0,0,0,0,0,0,0,0,0,0,0,0,0,0,0,0,0,0,0,0,0,0,0,0,0,0,0,0,0,0,0,0,0,0,0,0,0,0,0,0,0,0,0],"sum_hessian":[6.574545E3,1.018121E3,5.556424E3,8.8557495E2,1.3254607E2,2.661425E3,2.8949985E3,5.999057E0,8.7957587E2,1.2038574E2,1.2160328E1,1.9226173E3,7.388078E2,1.0430012E3,1.8519974E3,4.051301E2,4.7444574E2,5.2186165E1,6.819958E1,1.625924E3,2.9669333E2,5.608446E2,1.7796318E2,7.888697E1,9.6411426E2,1.14049355E2,1.737948E3,8.979021E1,3.153399E2,2.5457603E2,2.1986972E2,4.1265606E1,1.092056E1,2.210898E1,4.60906E1,1.5090878E3,1.1683622E2,6.967379E1,2.2701953E2,3.959097E2,1.649349E2,1.5424725E2,2.371593E1,3.1928621E1,4.695835E1,4.4626587E2,5.178484E2,4.2387764E1,7.166159E1,1.6491412E3,8.880682E1],"tree_param":{"num_deleted":"0","num_feature":"44","num_nodes":"51","size_leaf_vector":"1"}},{"base_weights":[5.337276E-4,3.980776E-1,-5.9094023E-2,4.7653148E-1,-4.028112E-1,-1.3868773E-1,1.1900639E-1,1.2006468E0,3.8492355E-1,9.620344E-2,-9.7114766E-1,-1.0032693E-1,-6.1877936E-1,1.2993009E0,9.233694E-2,5.3067726E-1,1.326347E0,6.485801E-1,2.2969635E-1,5.9942186E-1,-5.2620715E-1,-1.3271964E0,-1.56214E-1,-1.2406585E-1,1.017666E0,1.2892309E-1,-7.952639E-1,-1.695479E-4,1.5114152E0,5.2259344E-1,3.3101164E-2,1.3571856E-2,-4.507837E-4,1.6072422E-2,1.0735807E-2,8.102297E-3,3.5197486E-3,-1.5077405E-3,4.0894398E-3,-4.2622983E-3,1.0700867E-2,2.2580228E-3,-1.2261325E-2,-1.5273443E-2,-4.7385925E-3,4.5062993E-3,-6.751827E-3,-9.751826E-3,-1.0744369E-3,6.3582407E-3,1.6805835E-2,-1.8233298E-3,1.57905E-2,-8.655325E-3,1.1027048E-2,1.665908E-2,5.5318302E-3,6.1144023E-3,-1.4798294E-2,-3.6526886E-3,1.2998342E-3],"categories":[],"categories_nodes":[],"categories_segments":[],"categories_sizes":[],"default_left":[0,0,0,0,0,0,0,0,0,0,0,0,0,0,0,0,0,0,0,0,0,0,0,0,0,0,0,0,0,0,0,0,0,0,0,0,0,0,0,0,0,0,0,0,0,0,0,0,0,0,0,0,0,0,0,0,0,0,0,0,0],"id":18,"left_children":[1,3,5,7,9,11,13,15,17,19,21,23,25,27,29,31,33,35,37,39,41,43,45,47,49,51,53,-1,55,57,59,-1,-1,-1,-1,-1,-1,-1,-1,-1,-1,-1,-1,-1,-1,-1,-1,-1,-1,-1,-1,-1,-1,-1,-1,-1,-1,-1,-1,-1,-1],"loss_changes":[1.5713316E2,5.451573E1,8.1728226E1,5.180284E1,2.212365E1,7.331547E1,5.5939697E1,6.708046E0,2.8535965E1,1.355523E1,1.0356331E1,9.807687E1,3.897843E1,1.0991188E1,4.4396927E1,7.470906E0,3.4888E0,1.2141594E1,3.0253452E1,1.1965215E1,1.0503983E1,3.5808601E0,4.1474643E0,5.103582E1,1.8383324E1,2.6069407E1,3.276111E1,0E0,4.087494E0,3.8411396E1,5.9207153E1,0E0,0E0,0E0,0E0,0E0,0E0,0E0,0E0,0E0,0E0,0E0,0E0,0E0,0E0,0E0,0E0,0E0,0E0,0E0,0E0,0E0,0E0,0E0,0E0,0E0,0E0,0E0,0E0,0E0,0E0],"parents":[2147483647,0,0,1,1,2,2,3,3,4,4,5,5,6,6,7,7,8,8,9,9,10,10,11,11,12,12,13,13,14,14,15,15,16,16,17,17,18,18,19,19,20,20,21,21,22,22,23,23,24,24,25,25,26,26,28,28,29,29,30,30],"right_children":[2,4,6,8,10,12,14,16,18,20,22,24,26,28,30,32,34,36,38,40,42,44,46,48,50,52,54,-1,56,58,60,-1,-1,-1,-1,-1,-1,-1,-1,-1,-1,-1,-1,-1,-1,-1,-1,-1,-1,-1,-1,-1,-1,-1,-1,-1,-1,-1,-1,-1,-1],"split_conditions":[1.7933E3,5.140774E-2,1.1123566E-2,-1.0645343E-2,6.6250446E-4,2.9194E3,-4.5952693E-2,-1.8166509E-2,2.4957713E-2,9.616395E-3,6.556666E1,2.8902E3,6.425E1,7.1706506E-3,1.3021596E-2,9.071487E-2,2.6467987E1,1.2345868E-2,4.1321367E-3,-9.93984E-2,-1.6349682E-4,1.7128E3,4.2134137E-3,7.183E1,4.2435452E-3,3.3188E3,5.780782E-2,-1.695479E-4,1.1517842E2,1.02652805E-2,1.579417E-2,1.3571856E-2,-4.507837E-4,1.6072422E-2,1.0735807E-2,8.102297E-3,3.5197486E-3,-1.5077405E-3,4.0894398E-3,-4.2622983E-3,1.0700867E-2,2.2580228E-3,-1.2261325E-2,-1.5273443E-2,-4.7385925E-3,4.5062993E-3,-6.751827E-3,-9.751826E-3,-1.0744369E-3,6.3582407E-3,1.6805835E-2,-1.8233298E-3,1.57905E-2,-8.655325E-3,1.1027048E-2,1.665908E-2,5.5318302E-3,6.1144023E-3,-1.4798294E-2,-3.6526886E-3,1.2998342E-3],"split_indices":[2,31,40,43,42,2,43,41,31,43,9,2,1,37,40,10,22,40,43,30,41,2,43,1,41,2,37,0,7,42,40,0,0,0,0,0,0,0,0,0,0,0,0,0,0,0,0,0,0,0,0,0,0,0,0,0,0,0,0,0,0],"split_type":[0,0,0,0,0,0,0,0,0,0,0,0,0,0,0,0,0,0,0,0,0,0,0,0,0,0,0,0,0,0,0,0,0,0,0,0,0,0,0,0,0,0,0,0,0,0,0,0,0,0,0,0,0,0,0,0,0,0,0,0,0],"sum_hessian":[6.626799E3,8.635765E2,5.7632227E3,7.8689813E2,7.667837E1,3.9832952E3,1.7799274E3,8.701123E1,6.998869E2,4.1271557E1,3.5406807E1,3.6896868E3,2.936083E2,3.8275414E1,1.7416519E3,1.4571005E1,7.244022E1,2.5818173E2,4.4170517E2,2.2841312E1,1.8430246E1,2.4203554E1,1.1203252E1,3.6138413E3,7.5845535E1,5.6119473E1,2.3748882E2,5.4397326E0,3.2835682E1,2.0981894E2,1.531833E3,5.425446E0,9.145559E0,3.1772886E1,4.066734E1,1.6598715E2,9.2194565E1,1.4150533E2,3.0019983E2,7.214408E0,1.56269045E1,9.2111025E0,9.219144E0,1.8965416E1,5.2381387E0,5.2250934E0,5.978159E0,6.8121056E1,3.5457202E3,4.936838E1,2.6477156E1,4.6922306E1,9.197166E0,2.2953471E2,7.95411E0,2.764073E1,5.194951E0,2.0156999E2,8.248941E0,2.9911838E2,1.2327146E3],"tree_param":{"num_deleted":"0","num_feature":"44","num_nodes":"61","size_leaf_vector":"1"}},{"base_weights":[4.3925736E-4,4.1290388E-1,-6.0468342E-2,5.119915E-1,-2.7689102E-1,2.4955766E-3,-3.5436577E-1,7.084008E-1,3.640728E-1,1.570766E-1,-7.1449023E-1,-1.11969806E-1,2.0556125E-1,9.345526E-2,-5.902956E-1,1.180824E0,5.910035E-1,-3.8389304E-1,5.3733456E-1,-1.4739187E-1,1.0604887E0,3.4159324E-1,-1.0089492E0,-7.519426E-2,-7.4300385E-1,1.2571558E0,1.6883817E-1,1.0356891E0,-2.1663819E-1,-7.2696304E-1,2.6073325E-1,1.2806053E-2,7.1337854E-4,3.252432E-3,8.454748E-3,-1.4909273E-2,-8.825287E-4,9.731065E-3,2.8376472E-3,8.669033E-3,-4.201044E-3,3.4491755E-3,1.5932046E-2,1.1819037E-2,-6.8699913E-3,-2.0283603E-3,-1.3397668E-2,-1.534868E-3,4.6673855E-3,1.5278104E-2,-8.663593E-3,1.4473529E-2,8.408184E-3,-2.9363923E-3,2.370556E-3,1.1745701E-2,-4.410243E-3,-3.8573411E-3,1.2928877E-2,-1.851081E-3,-8.216717E-3,1.0309009E-2,-1.6768783E-2],"categories":[],"categories_nodes":[],"categories_segments":[],"categories_sizes":[],"default_left":[0,0,0,0,0,0,0,0,0,0,0,0,0,0,0,0,0,0,0,0,0,0,0,0,0,0,0,0,0,0,0,0,0,0,0,0,0,0,0,0,0,0,0,0,0,0,0,0,0,0,0,0,0,0,0,0,0,0,0,0,0,0,0],"id":19,"left_children":[1,3,5,7,9,11,13,15,17,19,21,23,25,27,29,31,33,35,37,39,41,43,45,47,49,51,53,55,57,59,61,-1,-1,-1,-1,-1,-1,-1,-1,-1,-1,-1,-1,-1,-1,-1,-1,-1,-1,-1,-1,-1,-1,-1,-1,-1,-1,-1,-1,-1,-1,-1,-1],"loss_changes":[1.6562993E2,5.812317E1,1.0630562E2,2.1302017E1,2.0469872E1,1.1001554E2,1.07144844E2,1.6924316E1,5.533048E1,1.5186426E1,1.6999361E1,7.018787E1,6.567746E1,1.02663826E2,7.741594E1,6.7990265E0,1.7071587E1,2.6242237E1,3.7931747E1,1.1911916E1,4.7474966E0,1.1550535E1,1.0964039E1,1.2147496E2,4.798403E1,3.3296814E0,5.2118675E1,1.8357994E1,6.80432E1,2.9221008E1,1.39931E2,0E0,0E0,0E0,0E0,0E0,0E0,0E0,0E0,0E0,0E0,0E0,0E0,0E0,0E0,0E0,0E0,0E0,0E0,0E0,0E0,0E0,0E0,0E0,0E0,0E0,0E0,0E0,0E0,0E0,0E0,0E0,0E0],"parents":[2147483647,0,0,1,1,2,2,3,3,4,4,5,5,6,6,7,7,8,8,9,9,10,10,11,11,12,12,13,13,14,14,15,15,16,16,17,17,18,18,19,19,20,20,21,21,22,22,23,23,24,24,25,25,26,26,27,27,28,28,29,29,30,30],"right_children":[2,4,6,8,10,12,14,16,18,20,22,24,26,28,30,32,34,36,38,40,42,44,46,48,50,52,54,56,58,60,62,-1,-1,-1,-1,-1,-1,-1,-1,-1,-1,-1,-1,-1,-1,-1,-1,-1,-1,-1,-1,-1,-1,-1,-1,-1,-1,-1,-1,-1,-1,-1,-1],"split_conditions":[1.7933E3,4.650332E-2,9.907348E3,3.2601826E3,6.6250446E-4,8.863735E-3,3.28263E1,1.7098E3,1.848265E1,1.7478E3,3.171183E3,3.0359E3,9.929459E-3,1.0188847E4,3.62928E1,3.5239906E1,1.7478E3,1.6457E3,6.559344E1,3.2601826E3,9.615421E-3,5.3095732E-2,1.1348779E1,3.43075E1,9.078353E3,3.5406223E1,1.8417E3,2.9193518E-1,3.26746E1,-1.5195915E-2,1.0739543E4,1.2806053E-2,7.1337854E-4,3.252432E-3,8.454748E-3,-1.4909273E-2,-8.825287E-4,9.731065E-3,2.8376472E-3,8.669033E-3,-4.201044E-3,3.4491755E-3,1.5932046E-2,1.1819037E-2,-6.8699913E-3,-2.0283603E-3,-1.3397668E-2,-1.534868E-3,4.6673855E-3,1.5278104E-2,-8.663593E-3,1.4473529E-2,8.408184E-3,-2.9363923E-3,2.370556E-3,1.1745701E-2,-4.410243E-3,-3.8573411E-3,1.2928877E-2,-1.851081E-3,-8.216717E-3,1.0309009E-2,-1.6768783E-2],"split_indices":[2,31,4,4,42,40,3,2,3,2,4,2,40,4,3,22,2,2,17,4,38,12,23,3,4,21,2,36,3,40,4,0,0,0,0,0,0,0,0,0,0,0,0,0,0,0,0,0,0,0,0,0,0,0,0,0,0,0,0,0,0,0,0],"split_type":[0,0,0,0,0,0,0,0,0,0,0,0,0,0,0,0,0,0,0,0,0,0,0,0,0,0,0,0,0,0,0,0,0,0,0,0,0,0,0,0,0,0,0,0,0,0,0,0,0,0,0,0,0,0,0,0,0,0,0,0,0,0,0],"sum_hessian":[6.590969E3,8.472997E2,5.74367E3,7.411E2,1.061997E2,4.7310845E3,1.01258527E3,3.167389E2,4.2436108E2,5.3642963E1,5.255674E1,3.0258833E3,1.7052012E3,3.4960327E2,6.62982E2,6.1240425E1,2.5549846E2,7.958393E1,3.4477713E2,4.0747173E1,1.2895787E1,1.1424054E1,4.1132687E1,2.8603088E3,1.6557455E2,5.6417164E1,1.6487839E3,8.598718E1,2.636161E2,5.7137085E2,9.1611145E1,5.6045734E1,5.194687E0,1.2609146E2,1.29407E2,1.5921671E1,6.3662262E1,1.25780205E2,2.1899693E2,8.172503E0,3.2574673E1,6.2064457E0,6.689342E0,6.20545E0,5.2186036E0,1.2437933E1,2.8694754E1,2.4998713E3,3.604374E2,7.944325E0,1.5763023E2,3.702602E1,1.9391146E1,2.1151585E2,1.4372681E3,7.87825E1,7.2046804E0,2.3773021E2,2.5885885E1,8.544876E1,4.859221E2,6.5889244E1,2.57219E1],"tree_param":{"num_deleted":"0","num_feature":"44","num_nodes":"63","size_leaf_vector":"1"}},{"base_weights":[6.0372497E-3,3.7596568E-1,-6.2219754E-2,-1.1936778E0,4.0113932E-1,2.530464E-3,-3.3144182E-1,-1.5342551E-3,-1.6646724E-2,4.8367852E-1,-3.3124115E-2,-1.0396068E-1,1.9216503E-1,1.11608736E-1,-5.471612E-1,5.531643E-1,1.5070435E-1,-1.468522E-1,1.4192996E-2,-6.629155E-2,-6.990093E-1,-4.1862535E-1,2.5947353E-1,1.0614245E0,-2.0813963E-1,-6.95372E-1,3.5425586E-1,6.647857E-3,3.0886515E-3,3.775895E-3,-1.8185548E-3,2.703593E-3,-5.299602E-3,-1.4307348E-3,4.590025E-3,5.8186823E-3,-9.3674E-3,8.768618E-3,-5.672562E-3,6.987301E-3,1.722414E-3,-6.8911104E-3,1.1948697E-2,-3.571661E-3,1.2995418E-2,-2.2205955E-3,-7.8096273E-3,1.1253459E-2,-1.8138492E-2],"categories":[],"categories_nodes":[],"categories_segments":[],"categories_sizes":[],"default_left":[0,0,0,0,0,0,0,0,0,0,0,0,0,0,0,0,0,0,0,0,0,0,0,0,0,0,0,0,0,0,0,0,0,0,0,0,0,0,0,0,0,0,0,0,0,0,0,0,0],"id":20,"left_children":[1,3,5,7,9,11,13,-1,-1,15,17,19,21,23,25,27,29,31,-1,33,35,37,39,41,43,45,47,-1,-1,-1,-1,-1,-1,-1,-1,-1,-1,-1,-1,-1,-1,-1,-1,-1,-1,-1,-1,-1,-1],"loss_changes":[1.6650664E2,4.1067245E1,9.704829E1,7.811943E0,3.6280365E1,9.066825E1,1.0322044E2,0E0,0E0,1.9587982E1,2.7053904E1,6.440115E1,6.648637E1,1.0781508E2,9.725099E1,1.8966064E1,1.12482195E1,2.4378702E1,0E0,1.0917185E2,5.263701E1,3.1429914E1,5.5628838E1,2.1705093E1,6.020432E1,2.5101349E1,1.7455118E2,0E0,0E0,0E0,0E0,0E0,0E0,0E0,0E0,0E0,0E0,0E0,0E0,0E0,0E0,0E0,0E0,0E0,0E0,0E0,0E0,0E0,0E0],"parents":[2147483647,0,0,1,1,2,2,3,3,4,4,5,5,6,6,9,9,10,10,11,11,12,12,13,13,14,14,15,15,16,16,17,17,19,19,20,20,21,21,22,22,23,23,24,24,25,25,26,26],"right_children":[2,4,6,8,10,12,14,-1,-1,16,18,20,22,24,26,28,30,32,-1,34,36,38,40,42,44,46,48,-1,-1,-1,-1,-1,-1,-1,-1,-1,-1,-1,-1,-1,-1,-1,-1,-1,-1,-1,-1,-1,-1],"split_conditions":[1.8127E3,1.34115E1,9.890747E3,-1.3385587E-2,4.3222345E-2,8.863735E-3,3.28263E1,-1.5342551E-3,-1.6646724E-2,4.1800003E0,1.8075E3,3.79851E1,1.8454E3,1.0188847E4,3.62928E1,1.2345868E-2,3.9345793E3,1.4375827E1,1.4192996E-2,3.43075E1,9.128951E3,1.348205E1,1.3021596E-2,-1.3151237E-1,3.26746E1,-1.5195915E-2,1.0739543E4,6.647857E-3,3.0886515E-3,3.775895E-3,-1.8185548E-3,2.703593E-3,-5.299602E-3,-1.4307348E-3,4.590025E-3,5.8186823E-3,-9.3674E-3,8.768618E-3,-5.672562E-3,6.987301E-3,1.722414E-3,-6.8911104E-3,1.1948697E-2,-3.571661E-3,1.2995418E-2,-2.2205955E-3,-7.8096273E-3,1.1253459E-2,-1.8138492E-2],"split_indices":[2,3,4,30,31,40,3,0,0,19,2,3,2,4,3,40,4,23,0,3,4,3,40,32,3,40,4,0,0,0,0,0,0,0,0,0,0,0,0,0,0,0,0,0,0,0,0,0,0],"split_type":[0,0,0,0,0,0,0,0,0,0,0,0,0,0,0,0,0,0,0,0,0,0,0,0,0,0,0,0,0,0,0,0,0,0,0,0,0,0,0,0,0,0,0,0,0,0,0,0,0],"sum_hessian":[6.5923413E3,1.0261997E3,5.5661416E3,1.5465534E1,1.0107342E3,4.487782E3,1.0783596E3,5.233165E0,1.0232368E1,8.4921295E2,1.6152122E2,2.8741992E3,1.6135829E3,3.5327536E2,7.250842E2,7.02047E2,1.4716599E2,1.5062578E2,1.0895449E1,2.7041277E3,1.7007147E2,1.5964714E2,1.4539357E3,8.83906E1,2.6488477E2,6.228963E2,1.0218789E2,4.8069434E2,2.2135266E2,8.740173E1,5.9764248E1,7.2244514E1,7.838126E1,2.359909E3,3.4421887E2,2.639725E1,1.4367422E2,1.5926855E1,1.4372028E2,2.3973627E2,1.2141995E3,5.9658966E0,8.2424706E1,2.4175194E2,2.3132822E1,9.594117E1,5.2695514E2,7.573394E1,2.6453947E1],"tree_param":{"num_deleted":"0","num_feature":"44","num_nodes":"49","size_leaf_vector":"1"}},{"base_weights":[1.3429025E-3,4.2051488E-1,-6.2280815E-2,1.0971655E0,3.1552148E-1,6.684544E-1,-7.838577E-2,-4.7721625E-3,1.2093475E0,3.8962924E-1,-5.755576E-1,1.4428138E0,1.2023356E-1,-4.9954712E-2,-4.403356E-1,1.2752726E0,-4.101152E-4,1.0779602E-1,5.2294546E-1,3.840629E-2,-1.2211504E0,6.216903E-3,1.5791113E-2,-6.3254756E-1,7.6954687E-1,-6.836853E-2,8.952887E-1,-6.424907E-1,2.4975118E-1,6.6721016E-3,1.41965635E-2,6.427298E-3,-4.4812546E-3,3.793999E-3,9.280898E-3,6.721587E-3,-6.5843896E-3,-1.5424892E-2,-4.1423985E-3,-1.5337822E-2,2.2551916E-3,1.2253134E-2,-2.4775397E-3,-5.826068E-4,-1.0841471E-2,6.4186295E-3,1.6000144E-2,-8.279506E-3,1.3264893E-3,6.8713813E-3,-6.0110097E-3],"categories":[],"categories_nodes":[],"categories_segments":[],"categories_sizes":[],"default_left":[0,0,0,0,0,0,0,0,0,0,0,0,0,0,0,0,0,0,0,0,0,0,0,0,0,0,0,0,0,0,0,0,0,0,0,0,0,0,0,0,0,0,0,0,0,0,0,0,0,0,0],"id":21,"left_children":[1,3,5,7,9,11,13,-1,15,17,19,21,23,25,27,29,-1,31,33,35,37,-1,-1,39,41,43,45,47,49,-1,-1,-1,-1,-1,-1,-1,-1,-1,-1,-1,-1,-1,-1,-1,-1,-1,-1,-1,-1,-1,-1],"loss_changes":[1.7602756E2,6.1448517E1,6.749264E1,2.114116E1,5.0040268E1,5.2331238E1,5.768689E1,0E0,9.03479E0,2.6133957E1,2.3165377E1,4.7457047E0,3.6415146E1,9.058084E1,5.7118896E1,8.143402E0,0E0,6.722943E1,2.715306E1,1.4073193E1,6.7407074E0,0E0,0E0,2.7094255E1,1.8810505E1,5.2322586E1,1.6733597E1,4.5546387E1,3.510742E1,0E0,0E0,0E0,0E0,0E0,0E0,0E0,0E0,0E0,0E0,0E0,0E0,0E0,0E0,0E0,0E0,0E0,0E0,0E0,0E0,0E0,0E0],"parents":[2147483647,0,0,1,1,2,2,3,3,4,4,5,5,6,6,8,8,9,9,10,10,11,11,12,12,13,13,14,14,15,15,17,17,18,18,19,19,20,20,23,23,24,24,25,25,26,26,27,27,28,28],"right_children":[2,4,6,8,10,12,14,-1,16,18,20,22,24,26,28,30,-1,32,34,36,38,-1,-1,40,42,44,46,48,50,-1,-1,-1,-1,-1,-1,-1,-1,-1,-1,-1,-1,-1,-1,-1,-1,-1,-1,-1,-1,-1,-1],"split_conditions":[1.7933E3,-1.04972655E-2,-3.6847755E-2,-9.93984E-2,5.140774E-2,2.008334E-4,2.9194E3,-4.7721625E-3,6.6150947E0,4.1321367E-3,9.0298796E-4,1.8127E3,1.763271E-3,3.62928E1,1.06613645E-2,-8.713645E-4,-4.101152E-4,1.822907E1,1.85992E1,1.06613645E-2,6.456717E1,6.216903E-3,1.5791113E-2,2.8796037E-4,-2.931438E1,2.3855366E-2,4.2435452E-3,2.2386275E-2,8.301309E-4,6.6721016E-3,1.41965635E-2,6.427298E-3,-4.4812546E-3,3.793999E-3,9.280898E-3,6.721587E-3,-6.5843896E-3,-1.5424892E-2,-4.1423985E-3,-1.5337822E-2,2.2551916E-3,1.2253134E-2,-2.4775397E-3,-5.826068E-4,-1.0841471E-2,6.4186295E-3,1.6000144E-2,-8.279506E-3,1.3264893E-3,6.8713813E-3,-6.0110097E-3],"split_indices":[2,43,43,30,31,42,2,0,34,43,42,2,42,3,43,42,0,3,3,43,9,0,0,41,20,41,41,41,42,0,0,0,0,0,0,0,0,0,0,0,0,0,0,0,0,0,0,0,0,0,0],"split_type":[0,0,0,0,0,0,0,0,0,0,0,0,0,0,0,0,0,0,0,0,0,0,0,0,0,0,0,0,0,0,0,0,0,0,0,0,0,0,0,0,0,0,0,0,0,0,0,0,0,0,0],"sum_hessian":[6.5984043E3,8.6881085E2,5.7295938E3,1.1543266E2,7.533782E2,1.2268019E2,5.6069136E3,7.4615865E0,1.0797107E2,6.960528E2,5.73254E1,5.017559E1,7.25046E1,5.1996226E3,4.0729086E2,1.02544495E2,5.4265814E0,2.2410301E2,4.7194977E2,2.9864521E1,2.7460882E1,7.9346457E0,4.2240948E1,3.3589016E1,3.891559E1,5.101177E3,9.8445816E1,3.150644E2,9.222646E1,2.0755434E1,8.1789055E1,1.1412776E2,1.0997525E2,3.4991043E2,1.2203932E2,1.56588545E1,1.4205666E1,1.8987732E1,8.473151E0,1.599834E1,1.7590675E1,2.673391E1,1.2181679E1,5.051963E3,4.9213894E1,7.381285E1,2.4632963E1,2.5418092E2,6.0883472E1,6.1040535E1,3.1185934E1],"tree_param":{"num_deleted":"0","num_feature":"44","num_nodes":"51","size_leaf_vector":"1"}},{"base_weights":[3.593626E-3,1.6068515E-1,-1.5011734E-1,6.446373E-2,5.067801E-1,-5.2316505E-1,-7.996881E-2,1.8612693E-1,-4.4029948E-1,1.4278898E0,3.7843016E-1,4.1747782E-1,-6.3675535E-1,7.782813E-1,-1.8016218E-1,8.654451E-2,6.0106796E-1,-1.7813103E-1,-1.0334947E0,1.587789E0,-2.3476765E-3,-3.9748237E-1,4.699213E-1,6.117268E-1,-4.6325545E-3,-7.166102E-1,2.15721E-1,-3.2842208E-2,1.000741E0,2.3148878E-2,-3.0167672E-1,1.07410215E-2,5.210213E-4,-6.126943E-3,7.229195E-3,-4.8748683E-3,4.8369607E-3,7.641744E-3,-1.122011E-2,1.6389629E-2,9.393485E-3,6.1433357E-3,-1.4180279E-2,3.886606E-3,1.3254649E-2,5.880586E-4,8.3994195E-3,-8.092599E-3,-1.8293626E-3,1.0008789E-2,-1.0834843E-2,6.0219574E-3,-3.993075E-3,1.2204027E-2,3.9186436E-3,1.664867E-3,-6.8901633E-3,-2.7374148E-3,-1.2698293E-2],"categories":[],"categories_nodes":[],"categories_segments":[],"categories_sizes":[],"default_left":[0,0,0,0,0,0,0,0,0,0,0,0,0,0,0,0,0,0,0,0,0,0,0,0,0,0,0,0,0,0,0,0,0,0,0,0,0,0,0,0,0,0,0,0,0,0,0,0,0,0,0,0,0,0,0,0,0,0,0],"id":22,"left_children":[1,3,5,7,9,11,13,15,17,19,21,23,25,27,29,31,33,35,37,39,-1,41,43,45,-1,47,49,51,53,55,57,-1,-1,-1,-1,-1,-1,-1,-1,-1,-1,-1,-1,-1,-1,-1,-1,-1,-1,-1,-1,-1,-1,-1,-1,-1,-1,-1,-1],"loss_changes":[1.5958778E2,1.088172E2,8.737493E1,1.5721393E2,8.35058E1,5.6740295E1,2.4202869E2,8.5170105E1,7.714527E1,2.3391678E1,4.4577682E1,1.01297455E1,3.228543E1,5.3127518E1,6.2256935E1,5.655819E1,5.9455215E1,7.108503E1,2.5075226E1,1.0857849E0,0E0,6.9537926E1,3.8404762E1,5.9550667E0,0E0,2.1202255E1,4.310714E1,1.5204204E1,3.0410309E1,9.643041E1,4.2308014E1,0E0,0E0,0E0,0E0,0E0,0E0,0E0,0E0,0E0,0E0,0E0,0E0,0E0,0E0,0E0,0E0,0E0,0E0,0E0,0E0,0E0,0E0,0E0,0E0,0E0,0E0,0E0,0E0],"parents":[2147483647,0,0,1,1,2,2,3,3,4,4,5,5,6,6,7,7,8,8,9,9,10,10,11,11,12,12,13,13,14,14,15,15,16,16,17,17,18,18,19,19,21,21,22,22,23,23,25,25,26,26,27,27,28,28,29,29,30,30],"right_children":[2,4,6,8,10,12,14,16,18,20,22,24,26,28,30,32,34,36,38,40,-1,42,44,46,-1,48,50,52,54,56,58,-1,-1,-1,-1,-1,-1,-1,-1,-1,-1,-1,-1,-1,-1,-1,-1,-1,-1,-1,-1,-1,-1,-1,-1,-1,-1,-1,-1],"split_conditions":[7.750359E3,1.98159E1,2.93114E1,5.0085737E3,5.261372E3,2.68165E1,8.863854E3,7.031499E-3,1.89408E1,7.176555E-3,2.3646E1,2.941061E-1,2.453234E-2,3.019136E1,1.0071549E-4,-4.5952693E-2,1.3688E1,1.88316E1,-2.4243987E-4,1.7205815E2,-2.3476765E-3,5.434471E3,7.4936477E-3,-6.601039E-3,-4.6325545E-3,6.527917E-3,1.0645073E-2,-6.843717E-3,4.2435452E-3,1.0473444E4,7.888155E-3,1.07410215E-2,5.210213E-4,-6.126943E-3,7.229195E-3,-4.8748683E-3,4.8369607E-3,7.641744E-3,-1.122011E-2,1.6389629E-2,9.393485E-3,6.1433357E-3,-1.4180279E-2,3.886606E-3,1.3254649E-2,5.880586E-4,8.3994195E-3,-8.092599E-3,-1.8293626E-3,1.0008789E-2,-1.0834843E-2,6.0219574E-3,-3.993075E-3,1.2204027E-2,3.9186436E-3,1.664867E-3,-6.8901633E-3,-2.7374148E-3,-1.2698293E-2],"split_indices":[4,3,3,4,4,3,4,41,3,41,3,36,40,3,42,43,3,3,42,20,0,4,42,43,0,41,41,40,41,4,42,0,0,0,0,0,0,0,0,0,0,0,0,0,0,0,0,0,0,0,0,0,0,0,0,0,0,0,0],"split_type":[0,0,0,0,0,0,0,0,0,0,0,0,0,0,0,0,0,0,0,0,0,0,0,0,0,0,0,0,0,0,0,0,0,0,0,0,0,0,0,0,0,0,0,0,0,0,0,0,0,0,0,0,0,0,0,0,0,0,0],"sum_hessian":[6.6070957E3,3.2675933E3,3.3395027E3,2.5576897E3,7.099035E2,5.2755005E2,2.8119526E3,2.0614492E3,4.9624045E2,8.55836E1,6.243199E2,5.6553596E1,4.7099643E2,2.9324725E2,2.5187056E3,1.6634448E3,3.980045E2,3.450448E2,1.5119563E2,7.8116135E1,7.467469E0,6.5498634E1,5.588213E2,4.658462E1,9.968978E0,4.30801E2,4.019544E1,6.3299515E1,2.2994772E2,9.4252954E2,1.5761759E3,5.5042404E1,1.6084023E3,3.594349E1,3.6206097E2,2.3531544E2,1.09729355E2,6.737202E0,1.4445844E2,7.098646E1,7.1296735E0,3.308986E1,3.240877E1,5.1167587E2,4.714538E1,1.3977509E1,3.2607113E1,3.666342E2,6.416679E1,2.5197361E1,1.4998079E1,2.2926878E1,4.0372635E1,1.68246E2,6.1701733E1,7.852484E2,1.5728111E2,1.5332189E3,4.2956997E1],"tree_param":{"num_deleted":"0","num_feature":"44","num_nodes":"59","size_leaf_vector":"1"}},{"base_weights":[1.0407242E-2,8.592598E-2,-2.9346898E-1,2.1539083E-1,2.8048325E-3,-3.7189826E-1,2.409536E-1,1.2910354E-1,5.6427056E-1,-2.9863855E-1,8.577556E-2,6.737756E-2,-4.5510164E-1,-1.3770317E-1,6.265475E-1,-8.0950344E-1,1.662968E-1,4.8315912E-1,1.2964692E0,-7.2959393E-1,-1.13454334E-1,6.8344676E-1,-3.9900765E-3,3.8031125E-1,-1.198724E0,-4.1433054E-1,-1.3223251E0,4.3240285E-1,-9.7551244E-1,1.2805889E0,4.068178E-2,6.964991E-3,-1.0287486E-2,1.8707743E-3,-1.1334623E-2,-2.5848502E-3,6.1959284E-3,1.52065335E-2,6.451763E-3,-1.765707E-3,-1.1975987E-2,2.7895505E-3,-3.5119974E-3,9.111113E-3,3.0961547E-3,1.766507E-3,-1.3862323E-3,5.270426E-3,-6.785815E-3,-5.64115E-3,-1.3697089E-2,-4.3478585E-3,1.45614715E-2,-8.551955E-3,-1.6244663E-2,2.061502E-3,1.405843E-2,-1.4182261E-2,2.84076E-3,6.1250012E-3,1.6263481E-2,-5.655885E-3,4.136589E-3],"categories":[],"categories_nodes":[],"categories_segments":[],"categories_sizes":[],"default_left":[0,0,0,0,0,0,0,0,0,0,0,0,0,0,0,0,0,0,0,0,0,0,0,0,0,0,0,0,0,0,0,0,0,0,0,0,0,0,0,0,0,0,0,0,0,0,0,0,0,0,0,0,0,0,0,0,0,0,0,0,0,0,0],"id":23,"left_children":[1,3,5,7,9,11,13,15,17,19,21,23,25,27,29,31,33,35,37,39,41,43,45,47,49,51,53,55,57,59,61,-1,-1,-1,-1,-1,-1,-1,-1,-1,-1,-1,-1,-1,-1,-1,-1,-1,-1,-1,-1,-1,-1,-1,-1,-1,-1,-1,-1,-1,-1,-1,-1],"loss_changes":[1.5204951E2,5.710693E1,5.536889E1,6.2390724E1,8.088194E1,4.2079636E1,2.481813E1,5.8252567E1,2.3790619E1,5.5620926E1,1.360517E2,7.3389854E1,3.365689E1,4.1633667E1,3.21753E1,2.1724583E1,4.3486526E1,3.777318E1,4.918892E0,5.4036682E1,4.5754677E1,2.790039E1,5.3667854E1,2.340857E1,3.2119827E0,3.6040527E1,4.6771927E0,1.117097E1,2.005698E1,8.1762085E0,1.0499482E1,0E0,0E0,0E0,0E0,0E0,0E0,0E0,0E0,0E0,0E0,0E0,0E0,0E0,0E0,0E0,0E0,0E0,0E0,0E0,0E0,0E0,0E0,0E0,0E0,0E0,0E0,0E0,0E0,0E0,0E0,0E0,0E0],"parents":[2147483647,0,0,1,1,2,2,3,3,4,4,5,5,6,6,7,7,8,8,9,9,10,10,11,11,12,12,13,13,14,14,15,15,16,16,17,17,18,18,19,19,20,20,21,21,22,22,23,23,24,24,25,25,26,26,27,27,28,28,29,29,30,30],"right_children":[2,4,6,8,10,12,14,16,18,20,22,24,26,28,30,32,34,36,38,40,42,44,46,48,50,52,54,56,58,60,62,-1,-1,-1,-1,-1,-1,-1,-1,-1,-1,-1,-1,-1,-1,-1,-1,-1,-1,-1,-1,-1,-1,-1,-1,-1,-1,-1,-1,-1,-1,-1,-1],"split_conditions":[9.763648E3,4.9765737E3,1.2250735E-2,7.031499E-3,5.7328696E3,-1.8991862E-3,1.0104847E4,-5.682846E-3,7.3718876E-3,-1.2769428E-2,7.54776E3,7.090311E-3,5.747357E-3,9.914647E3,1.49808945E-2,1.9860895E3,6.87099E-3,2.051089E3,2.2522522E-2,-2.479816E-2,2.9772276E-4,5.3636348E7,2.3538673E-2,1.0739543E4,-2.6377743E-1,4.705662E-3,7.288611E-3,9.907348E3,1.48188155E-2,1.4252154E9,5.402389E1,6.964991E-3,-1.0287486E-2,1.8707743E-3,-1.1334623E-2,-2.5848502E-3,6.1959284E-3,1.52065335E-2,6.451763E-3,-1.765707E-3,-1.1975987E-2,2.7895505E-3,-3.5119974E-3,9.111113E-3,3.0961547E-3,1.766507E-3,-1.3862323E-3,5.270426E-3,-6.785815E-3,-5.64115E-3,-1.3697089E-2,-4.3478585E-3,1.45614715E-2,-8.551955E-3,-1.6244663E-2,2.061502E-3,1.405843E-2,-1.4182261E-2,2.84076E-3,6.1250012E-3,1.6263481E-2,-5.655885E-3,4.136589E-3],"split_indices":[4,4,41,41,4,42,4,42,42,40,4,40,42,4,41,4,41,4,37,40,42,0,31,4,12,42,39,4,40,18,9,0,0,0,0,0,0,0,0,0,0,0,0,0,0,0,0,0,0,0,0,0,0,0,0,0,0,0,0,0,0,0,0],"split_type":[0,0,0,0,0,0,0,0,0,0,0,0,0,0,0,0,0,0,0,0,0,0,0,0,0,0,0,0,0,0,0,0,0,0,0,0,0,0,0,0,0,0,0,0,0,0,0,0,0,0,0,0,0,0,0,0,0,0,0,0,0,0,0],"sum_hessian":[6.623629E3,5.305767E3,1.3178619E3,2.0739333E3,3.2318337E3,1.1494746E3,1.6838725E2,1.6638009E3,4.1013242E2,6.9698773E2,2.534846E3,1.8308098E2,9.663937E2,8.528222E1,8.3105034E1,6.2625378E1,1.6011755E3,3.7072424E2,3.9408188E1,2.0860002E2,4.8838773E2,3.301371E2,2.204709E3,1.473589E2,3.5722076E1,9.2441174E2,4.1981934E1,5.1036907E1,3.424531E1,3.8707474E1,4.4397564E1,7.681828E0,5.494355E1,1.5768213E3,2.4354261E1,5.7463272E1,3.1326096E2,2.8323887E1,1.1084301E1,9.6246506E1,1.1235351E2,1.84194E2,3.0419373E2,2.0428783E2,1.2584925E2,9.4135565E2,1.2633533E3,1.2986563E2,1.7493279E1,8.494395E0,2.722768E1,9.151711E2,9.240652E0,1.7993414E1,2.398852E1,4.2394993E1,8.641916E0,2.5246025E1,8.999288E0,1.4145837E1,2.4561636E1,1.6713512E1,2.7684052E1],"tree_param":{"num_deleted":"0","num_feature":"44","num_nodes":"63","size_leaf_vector":"1"}},{"base_weights":[-6.6740126E-3,3.8667145E-1,-6.45386E-2,6.703143E-1,2.1559663E-1,-1.3524003E-3,-3.3505544E-1,1.2425009E0,5.437234E-1,-4.2433113E-1,4.5436105E-1,8.0673563E-1,-1.874985E-2,8.611836E-2,-5.4321754E-1,1.4117424E0,4.970825E-1,2.5984883E-1,7.979066E-1,-9.3652576E-1,1.7745626E-1,8.612839E-1,1.3692026E-1,2.6156586E-1,1.0525342E0,-7.296569E-1,9.25913E-3,1.0544524E0,-2.1866669E-1,-6.995564E-1,3.9840436E-1,6.026052E-3,1.5101443E-2,1.348654E-2,-3.349353E-3,-1.3768874E-3,3.8930704E-3,2.4550662E-3,9.638427E-3,1.0700768E-3,-1.1863964E-2,9.987949E-3,-3.516196E-3,1.079418E-2,2.4339645E-3,2.911505E-3,-2.9640028E-3,-7.033095E-3,7.77042E-3,1.4513486E-2,8.456297E-3,1.0574514E-3,-1.058857E-2,7.987204E-3,-3.0616453E-4,-4.0731947E-3,1.1764371E-2,-6.724111E-3,3.9696735E-3,-7.487923E-3,1.0931722E-4,1.1094503E-2,-1.605115E-2],"categories":[],"categories_nodes":[],"categories_segments":[],"categories_sizes":[],"default_left":[0,0,0,0,0,0,0,0,0,0,0,0,0,0,0,0,0,0,0,0,0,0,0,0,0,0,0,0,0,0,0,0,0,0,0,0,0,0,0,0,0,0,0,0,0,0,0,0,0,0,0,0,0,0,0,0,0,0,0,0,0,0,0],"id":24,"left_children":[1,3,5,7,9,11,13,15,17,19,21,23,25,27,29,31,33,35,37,39,41,43,45,47,49,51,53,55,57,59,61,-1,-1,-1,-1,-1,-1,-1,-1,-1,-1,-1,-1,-1,-1,-1,-1,-1,-1,-1,-1,-1,-1,-1,-1,-1,-1,-1,-1,-1,-1,-1,-1],"loss_changes":[1.5094496E2,4.1124573E1,9.8817566E1,2.2466782E1,8.147633E1,6.591598E1,9.601844E1,6.502022E0,1.879824E1,4.488228E1,4.9990654E1,1.2966103E1,9.1396736E1,1.07346016E2,1.08144424E2,2.751976E0,9.031358E0,6.533657E0,1.2457062E1,2.0603363E1,2.9702152E1,2.2624512E1,1.4729452E1,1.6481297E1,4.365402E0,4.7961487E1,1.3906493E2,1.6003067E1,7.7610535E1,2.200296E1,1.5132016E2,0E0,0E0,0E0,0E0,0E0,0E0,0E0,0E0,0E0,0E0,0E0,0E0,0E0,0E0,0E0,0E0,0E0,0E0,0E0,0E0,0E0,0E0,0E0,0E0,0E0,0E0,0E0,0E0,0E0,0E0,0E0,0E0],"parents":[2147483647,0,0,1,1,2,2,3,3,4,4,5,5,6,6,7,7,8,8,9,9,10,10,11,11,12,12,13,13,14,14,15,15,16,16,17,17,18,18,19,19,20,20,21,21,22,22,23,23,24,24,25,25,26,26,27,27,28,28,29,29,30,30],"right_children":[2,4,6,8,10,12,14,16,18,20,22,24,26,28,30,32,34,36,38,40,42,44,46,48,50,52,54,56,58,60,62,-1,-1,-1,-1,-1,-1,-1,-1,-1,-1,-1,-1,-1,-1,-1,-1,-1,-1,-1,-1,-1,-1,-1,-1,-1,-1,-1,-1,-1,-1,-1,-1],"split_conditions":[1.7933E3,3.199483E3,9.890747E3,1.7098E3,1.848265E1,1.9975894E3,3.28263E1,1.1017183E2,1.7478E3,1.7004E3,7.1052605E1,-3.3654014E-3,1.376228E1,1.0188847E4,3.62928E1,-4.2075615E0,7.1644216E0,1.4566551E-1,6.211101E6,3.2601826E3,3.4268818E3,2.9995117E-1,1.766E3,2.2006483E1,1.7880962E1,2.0075894E3,2.3808872E3,-2.5874972E-1,3.22888E1,6.924722E1,1.0739543E4,6.026052E-3,1.5101443E-2,1.348654E-2,-3.349353E-3,-1.3768874E-3,3.8930704E-3,2.4550662E-3,9.638427E-3,1.0700768E-3,-1.1863964E-2,9.987949E-3,-3.516196E-3,1.079418E-2,2.4339645E-3,2.911505E-3,-2.9640028E-3,-7.033095E-3,7.77042E-3,1.4513486E-2,8.456297E-3,1.0574514E-3,-1.058857E-2,7.987204E-3,-3.0616453E-4,-4.0731947E-3,1.1764371E-2,-6.724111E-3,3.9696735E-3,-7.487923E-3,1.0931722E-4,1.1094503E-2,-1.605115E-2],"split_indices":[2,4,4,2,3,4,3,20,2,2,17,41,3,4,3,19,6,36,0,4,4,36,2,17,21,4,4,33,3,9,4,0,0,0,0,0,0,0,0,0,0,0,0,0,0,0,0,0,0,0,0,0,0,0,0,0,0,0,0,0,0,0,0],"split_type":[0,0,0,0,0,0,0,0,0,0,0,0,0,0,0,0,0,0,0,0,0,0,0,0,0,0,0,0,0,0,0,0,0,0,0,0,0,0,0,0,0,0,0,0,0,0,0,0,0,0,0,0,0,0,0,0,0,0,0,0,0,0,0],"sum_hessian":[6.629707E3,8.494856E2,5.7802217E3,3.1849728E2,5.309883E2,4.6865596E3,1.093662E3,5.61022E1,2.6239508E2,1.440727E2,3.8691562E2,9.781498E1,4.5887446E3,3.6193866E2,7.317233E2,4.4992992E1,1.1109205E1,1.2491306E2,1.3748201E2,7.752943E1,6.654326E1,1.688088E2,2.1810681E2,3.1038097E1,6.677688E1,1.7298909E2,4.4157554E3,8.6059364E1,2.758793E2,6.2775354E2,1.0396978E2,5.65089E0,3.9342102E1,5.1832237E0,5.925981E0,3.0669682E1,9.4243385E1,3.233121E1,1.051508E2,1.5088234E1,6.2441193E1,2.5723E1,4.082026E1,1.2421127E2,4.459753E1,1.6109642E2,5.7010387E1,1.0680953E1,2.0357145E1,2.0755493E1,4.602139E1,4.9091E1,1.2389809E2,2.1140019E2,4.2043555E3,6.4483337E0,7.961103E1,1.5876877E2,1.1711052E2,5.870199E2,4.073364E1,7.7065575E1,2.6904205E1],"tree_param":{"num_deleted":"0","num_feature":"44","num_nodes":"63","size_leaf_vector":"1"}},{"base_weights":[2.79294E-3,3.8866574E-1,-5.393816E-2,1.1113093E0,2.8837603E-1,6.4415974E-3,-3.2114494E-1,1.3379663E0,4.1520506E-1,3.8403475E-1,-3.407304E-1,-1.07174814E-1,2.035985E-1,-6.218272E-1,2.0228134E-1,1.4010074E0,4.945676E-3,-5.4594628E-3,9.727041E-1,1.19950965E-1,5.1733947E-1,-8.156893E-1,2.6748538E-1,-7.252857E-1,-5.5368707E-2,-2.1951333E-1,2.685241E-1,3.2009807E-1,-8.292773E-1,1.2716696E0,-8.011484E-3,8.020689E-3,1.4869295E-2,1.2110595E-2,3.4845797E-3,-1.5754303E-2,2.7545686E-3,3.5921617E-3,9.494371E-3,-1.0361622E-2,4.467638E-3,-3.5277862E-4,1.0865344E-2,4.6107906E-4,-9.734652E-3,-1.3467001E-3,4.490288E-3,5.813549E-3,-5.124527E-3,7.89342E-3,1.9675912E-3,9.04526E-3,-1.6646395E-2,-1.5207498E-3,-9.395846E-3,1.3747465E-2,1.448187E-3,-8.11956E-4,1.1343242E-2],"categories":[],"categories_nodes":[],"categories_segments":[],"categories_sizes":[],"default_left":[0,0,0,0,0,0,0,0,0,0,0,0,0,0,0,0,0,0,0,0,0,0,0,0,0,0,0,0,0,0,0,0,0,0,0,0,0,0,0,0,0,0,0,0,0,0,0,0,0,0,0,0,0,0,0,0,0,0,0],"id":25,"left_children":[1,3,5,7,9,11,13,15,17,19,21,23,25,27,29,31,-1,-1,33,35,37,39,41,43,45,47,49,51,53,55,57,-1,-1,-1,-1,-1,-1,-1,-1,-1,-1,-1,-1,-1,-1,-1,-1,-1,-1,-1,-1,-1,-1,-1,-1,-1,-1,-1,-1],"loss_changes":[1.441757E2,6.085997E1,9.2641884E1,1.5620995E1,4.4822956E1,1.0495775E2,1.6669534E2,3.3954926E0,1.4802528E1,2.2647728E1,2.8686687E1,9.514792E1,4.7116257E1,1.316644E2,8.701901E1,2.4612274E0,0E0,0E0,2.1396046E0,5.782907E1,2.8929024E1,1.5933769E1,1.0940792E1,4.403762E1,1.09810646E2,5.389053E1,5.536962E1,1.4312477E2,4.1044006E1,7.186699E0,2.720528E1,0E0,0E0,0E0,0E0,0E0,0E0,0E0,0E0,0E0,0E0,0E0,0E0,0E0,0E0,0E0,0E0,0E0,0E0,0E0,0E0,0E0,0E0,0E0,0E0,0E0,0E0,0E0,0E0],"parents":[2147483647,0,0,1,1,2,2,3,3,4,4,5,5,6,6,7,7,8,8,9,9,10,10,11,11,12,12,13,13,14,14,15,15,18,18,19,19,20,20,21,21,22,22,23,23,24,24,25,25,26,26,27,27,28,28,29,29,30,30],"right_children":[2,4,6,8,10,12,14,16,18,20,22,24,26,28,30,32,-1,-1,34,36,38,40,42,44,46,48,50,52,54,56,58,-1,-1,-1,-1,-1,-1,-1,-1,-1,-1,-1,-1,-1,-1,-1,-1,-1,-1,-1,-1,-1,-1,-1,-1,-1,-1,-1,-1],"split_conditions":[1.7933E3,-1.0645343E-2,9.890747E3,2.037536E-1,4.5553803E-2,8.863735E-3,8.192E1,3.2686028E0,-1.3267172E-2,4.1321367E-3,6.493792E1,7.183E1,1.8454E3,7.214E1,1.0188847E4,-1.8166509E-2,4.945676E-3,-5.4594628E-3,7.3620477E-3,1.6457E3,1.85992E1,3.4418793E0,9.457E1,6.425E1,3.42684E1,-3.3654014E-3,1.2345868E-2,1.0739543E4,-1.369905E-2,2.1348515E-1,8.66E1,8.020689E-3,1.4869295E-2,1.2110595E-2,3.4845797E-3,-1.5754303E-2,2.7545686E-3,3.5921617E-3,9.494371E-3,-1.0361622E-2,4.467638E-3,-3.5277862E-4,1.0865344E-2,4.6107906E-4,-9.734652E-3,-1.3467001E-3,4.490288E-3,5.813549E-3,-5.124527E-3,7.89342E-3,1.9675912E-3,9.04526E-3,-1.6646395E-2,-1.5207498E-3,-9.395846E-3,1.3747465E-2,1.448187E-3,-8.11956E-4,1.1343242E-2],"split_indices":[2,43,4,32,31,40,1,34,41,43,9,1,2,1,4,41,0,0,30,2,3,24,1,1,3,41,40,4,43,32,1,0,0,0,0,0,0,0,0,0,0,0,0,0,0,0,0,0,0,0,0,0,0,0,0,0,0,0,0],"split_type":[0,0,0,0,0,0,0,0,0,0,0,0,0,0,0,0,0,0,0,0,0,0,0,0,0,0,0,0,0,0,0,0,0,0,0,0,0,0,0,0,0,0,0,0,0,0,0,0,0,0,0,0,0,0,0,0,0,0,0],"sum_hessian":[6.584117E3,8.4317444E2,5.7409424E3,1.0152792E2,7.416465E2,4.6835854E3,1.0573572E3,7.589412E1,2.5633804E1,6.4409784E2,9.754868E1,2.971591E3,1.7119944E3,6.7145294E2,3.859042E2,7.000066E1,5.8934574E0,9.417818E0,1.6215984E1,2.1670111E2,4.273967E2,5.458323E1,4.296545E1,2.2879413E2,2.7427969E3,2.2743683E2,1.4845576E3,1.2109214E2,5.5036084E2,6.2587082E1,3.2331714E2,1.0078824E1,5.9921837E1,1.1054875E1,5.161109E0,1.7439407E1,1.992617E2,3.142356E2,1.1316112E2,4.662071E1,7.9625225E0,3.2068275E1,1.0897178E1,5.5890144E1,1.7290398E2,2.370794E3,3.7200293E2,6.064758E1,1.6678925E2,1.7857704E2,1.3059805E3,9.396683E1,2.7125313E1,7.742286E1,4.7293796E2,5.7140278E1,5.446804E0,3.0472382E2,1.8593313E1],"tree_param":{"num_deleted":"0","num_feature":"44","num_nodes":"59","size_leaf_vector":"1"}},{"base_weights":[-2.9805605E-3,3.300403E-1,-6.4268425E-2,1.262267E0,2.8972322E-1,-1.3112111E-1,1.7700359E-1,1.3480197E0,5.760819E-3,-2.0867614E-1,3.579938E-1,-8.872048E-2,-6.541393E-1,-4.688754E-1,2.2848362E-1,8.2013095E-3,1.498133E0,4.6851584E-1,-4.3083733E-1,6.964569E-1,2.592226E-1,-1.1459217E-1,1.0976756E0,-7.990784E-1,2.436859E-1,1.3709083E-2,-6.7844E-1,4.489352E-1,6.795543E-2,6.954735E-3,1.6543584E-2,9.726791E-3,-8.180474E-4,2.5763744E-3,-7.0829517E-3,4.102579E-3,8.719508E-3,-1.9165125E-3,4.6588443E-3,-3.9920816E-3,-5.860634E-4,6.0488926E-3,1.3781425E-2,-2.664575E-3,-1.116779E-2,1.0124493E-2,-5.741694E-3,-1.126078E-2,2.4505143E-4,9.532515E-3,3.078078E-3,1.2439636E-2,1.5639741E-4],"categories":[],"categories_nodes":[],"categories_segments":[],"categories_sizes":[],"default_left":[0,0,0,0,0,0,0,0,0,0,0,0,0,0,0,0,0,0,0,0,0,0,0,0,0,0,0,0,0,0,0,0,0,0,0,0,0,0,0,0,0,0,0,0,0,0,0,0,0,0,0,0,0],"id":26,"left_children":[1,3,5,7,9,11,13,15,-1,17,19,21,23,25,27,-1,29,31,33,35,37,39,41,43,45,-1,47,49,51,-1,-1,-1,-1,-1,-1,-1,-1,-1,-1,-1,-1,-1,-1,-1,-1,-1,-1,-1,-1,-1,-1,-1,-1],"loss_changes":[1.3429521E2,3.8072586E1,8.965709E1,1.7006226E0,3.347509E1,9.6452194E1,4.0210613E1,1.6776505E0,0E0,1.8088858E1,2.8693954E1,1.2372338E2,4.2642487E1,3.5385246E1,3.9525517E1,0E0,2.2785225E0,8.361073E0,1.7383104E1,9.412338E0,6.2537296E1,6.278589E1,1.10568695E1,4.7266632E1,2.9569763E1,0E0,2.548272E1,3.3214493E1,3.984558E1,0E0,0E0,0E0,0E0,0E0,0E0,0E0,0E0,0E0,0E0,0E0,0E0,0E0,0E0,0E0,0E0,0E0,0E0,0E0,0E0,0E0,0E0,0E0,0E0],"parents":[2147483647,0,0,1,1,2,2,3,3,4,4,5,5,6,6,7,7,9,9,10,10,11,11,12,12,13,13,14,14,16,16,17,17,18,18,19,19,20,20,21,21,22,22,23,23,24,24,26,26,27,27,28,28],"right_children":[2,4,6,8,10,12,14,16,-1,18,20,22,24,26,28,-1,30,32,34,36,38,40,42,44,46,-1,48,50,52,-1,-1,-1,-1,-1,-1,-1,-1,-1,-1,-1,-1,-1,-1,-1,-1,-1,-1,-1,-1,-1,-1,-1,-1],"split_conditions":[1.8127E3,-5.2569345E-2,1.579417E-2,9.5705536E1,1.72339E1,2.9194E3,1.8299E3,-1.0909043E-1,5.760819E-3,8.755E1,1.795186E1,3.62928E1,3.5547302E1,-7.6020053E-3,2.68165E1,8.2013095E-3,1.8067261E-3,3.5186487E-3,-9.251726E-3,1.78674E1,1.848265E1,1.9061E3,1.8012749E1,-1.5113607E-2,3.80009E1,1.3709083E-2,7.95659E1,4.3346092E1,6.425E1,6.954735E-3,1.6543584E-2,9.726791E-3,-8.180474E-4,2.5763744E-3,-7.0829517E-3,4.102579E-3,8.719508E-3,-1.9165125E-3,4.6588443E-3,-3.9920816E-3,-5.860634E-4,6.0488926E-3,1.3781425E-2,-2.664575E-3,-1.116779E-2,1.0124493E-2,-5.741694E-3,-1.126078E-2,2.4505143E-4,9.532515E-3,