{"learner":{"attributes":{"best_iteration":"10","best_score":"0.6827212418552214","scikit_learn":"{\"_estimator_type\": \"classifier\"}"},"feature_names":["Volume","Macro_petrol","Macro_altin","Macro_dolar","Macro_bist100","SMA_9","SMA_21","SMA_50","SMA_200","RSI_14","MACD","MACD_Signal","MACD_Hist","BB_Upper","BB_Lower","BB_Middle","STOCH_K","STOCH_D","OBV","MOM_10","CCI_10","ADX","PLUS_DI","MINUS_DI","ATR_14","EMA_9","EMA_21","DC_Upper_20","DC_Lower_20","DC_Mid_20","Log_Return","Volatility_10","Dist_SMA_50","Dist_SMA_200","RSI_Slope","Volume_Change","BB_Width","Body_Size","Upper_Shadow","Lower_Shadow","Macro_petrol_LogRet","Macro_altin_LogRet","Macro_dolar_LogRet","Macro_bist100_LogRet"],"feature_types":["int","float","float","float","float","float","float","float","float","float","float","float","float","float","float","float","float","float","float","float","float","float","float","float","float","float","float","float","float","float","float","float","float","float","float","float","float","float","float","float","float","float","float","float"],"gradient_booster":{"model":{"cats":{"enc":[],"feature_segments":[],"sorted_idx":[]},"gbtree_model_param":{"num_parallel_tree":"1","num_trees":"61"},"iteration_indptr":[0,1,2,3,4,5,6,7,8,9,10,11,12,13,14,15,16,17,18,19,20,21,22,23,24,25,26,27,28,29,30,31,32,33,34,35,36,37,38,39,40,41,42,43,44,45,46,47,48,49,50,51,52,53,54,55,56,57,58,59,60,61],"tree_info":[0,0,0,0,0,0,0,0,0,0,0,0,0,0,0,0,0,0,0,0,0,0,0,0,0,0,0,0,0,0,0,0,0,0,0,0,0,0,0,0,0,0,0,0,0,0,0,0,0,0,0,0,0,0,0,0,0,0,0,0,0],"trees":[{"base_weights":[2.9235552E-3,1.3770065E0,-1.7820932E-1,1.4915222E0,3.0338037E-1,7.627743E-2,-7.563991E-1,1.2696748E0,1.6999136E0,-4.5859662E-1,1.1471357E0,1.19699E0,-8.6215384E-2,-1.2450533E0,-5.293085E-1,1.7790327E0,7.359809E-1,9.6281093E-1,1.8477292E0,5.6263506E-1,-1.0785149E0,1.6280451E0,2.8754824E-1,-5.392911E-1,1.5515193E0,-4.701297E-1,6.734806E-2,-4.1317528E-1,-1.3533295E0,3.2310903E-1,-8.221027E-1,1.9381754E-2,6.9215265E-3,3.389245E-4,1.0134272E-2,1.345918E-2,-1.4310277E-2,1.9249778E-2,8.827099E-3,1.4400074E-2,-1.4333794E-3,1.2763354E-3,-1.5760226E-2,9.264291E-3,1.9193323E-2,1.4576125E-2,-1.28513705E-2,-7.672414E-3,9.889444E-3,1.9156141E-2,3.783979E-3,3.4169608E-3,-6.8775094E-3,-2.1989497E-4,1.0726865E-2,-1.0525554E-2,5.145144E-4,-1.6880417E-2,-1.18255485E-2,-1.8300366E-3,7.921273E-3,-2.8063075E-3,-8.946545E-3],"categories":[],"categories_nodes":[],"categories_segments":[],"categories_sizes":[],"default_left":[0,0,0,0,0,0,0,0,0,0,0,0,0,0,0,0,0,0,0,0,0,0,0,0,0,0,0,0,0,0,0,0,0,0,0,0,0,0,0,0,0,0,0,0,0,0,0,0,0,0,0,0,0,0,0,0,0,0,0,0,0,0,0],"id":0,"left_children":[1,3,5,7,9,11,13,15,17,19,21,23,25,27,29,31,33,35,37,39,41,43,45,47,49,51,53,55,57,59,61,-1,-1,-1,-1,-1,-1,-1,-1,-1,-1,-1,-1,-1,-1,-1,-1,-1,-1,-1,-1,-1,-1,-1,-1,-1,-1,-1,-1,-1,-1,-1,-1],"loss_changes":[1.8322356E3,1.04960815E2,9.570973E2,3.3647583E1,5.4462265E1,8.227324E2,2.1994019E2,1.0174225E2,4.1411743E1,2.8966782E1,1.6106655E1,3.5299426E2,2.3267928E2,5.618579E1,3.3943594E2,3.2086548E1,3.635807E1,6.4566986E1,2.283435E1,1.109452E1,1.7134087E1,3.4326477E0,3.0577497E1,3.4810726E1,2.0230652E2,1.9944734E2,2.532631E2,2.203598E1,2.9841919E1,8.278929E1,3.9496887E1,0E0,0E0,0E0,0E0,0E0,0E0,0E0,0E0,0E0,0E0,0E0,0E0,0E0,0E0,0E0,0E0,0E0,0E0,0E0,0E0,0E0,0E0,0E0,0E0,0E0,0E0,0E0,0E0,0E0,0E0,0E0,0E0],"parents":[2147483647,0,0,1,1,2,2,3,3,4,4,5,5,6,6,7,7,8,8,9,9,10,10,11,11,12,12,13,13,14,14,15,15,16,16,17,17,18,18,19,19,20,20,21,21,22,22,23,23,24,24,25,25,26,26,27,27,28,28,29,29,30,30],"right_children":[2,4,6,8,10,12,14,16,18,20,22,24,26,28,30,32,34,36,38,40,42,44,46,48,50,52,54,56,58,60,62,-1,-1,-1,-1,-1,-1,-1,-1,-1,-1,-1,-1,-1,-1,-1,-1,-1,-1,-1,-1,-1,-1,-1,-1,-1,-1,-1,-1,-1,-1,-1,-1],"split_conditions":[1.7805E3,4.3019146E1,3.26482E1,1.84429E1,1.84429E1,7.72E1,3.41646E1,1.80767E1,8.557E1,1.81209E1,1.8260684E0,1.91207E1,1.874E3,2.3314E3,3.446925E1,3.4207083E-2,3.0026367E-1,1.2518305E0,1.19827805E2,1.4751111E1,4.5044987E9,4.29831E1,6.688178E9,1.2449158E-1,2.61298E1,1.8079E3,6.851112E-3,-1.6348626E-1,3.32451E1,2.6592E3,-2.0074723E0,1.9381754E-2,6.9215265E-3,3.389245E-4,1.0134272E-2,1.345918E-2,-1.4310277E-2,1.9249778E-2,8.827099E-3,1.4400074E-2,-1.4333794E-3,1.2763354E-3,-1.5760226E-2,9.264291E-3,1.9193323E-2,1.4576125E-2,-1.28513705E-2,-7.672414E-3,9.889444E-3,1.9156141E-2,3.783979E-3,3.4169608E-3,-6.8775094E-3,-2.1989497E-4,1.0726865E-2,-1.0525554E-2,5.145144E-4,-1.6880417E-2,-1.18255485E-2,-1.8300366E-3,7.921273E-3,-2.8063075E-3,-8.946545E-3],"split_indices":[2,22,3,3,3,1,3,3,1,3,33,3,2,2,3,31,33,33,13,5,18,21,18,12,3,2,42,11,3,2,11,0,0,0,0,0,0,0,0,0,0,0,0,0,0,0,0,0,0,0,0,0,0,0,0,0,0,0,0,0,0,0,0],"split_type":[0,0,0,0,0,0,0,0,0,0,0,0,0,0,0,0,0,0,0,0,0,0,0,0,0,0,0,0,0,0,0,0,0,0,0,0,0,0,0,0,0,0,0,0,0,0,0,0,0,0,0,0,0,0,0,0,0,0,0,0,0,0,0],"sum_hessian":[7.3595947E3,8.563883E2,6.503206E3,7.7349603E2,8.289225E1,4.5162666E3,1.9869396E3,3.7808762E2,3.954084E2,4.37968E1,3.9095448E1,5.7109045E2,3.9451763E3,6.2899133E2,1.3579482E3,1.9226053E2,1.858271E2,6.730356E1,3.2810483E2,1.657845E1,2.721835E1,2.4496515E1,1.4598933E1,9.674886E1,4.743416E2,1.1265923E3,2.818584E3,7.299467E1,5.5599664E2,3.4715768E2,1.0107905E3,1.670217E2,2.5238834E1,5.2952065E1,1.3287503E2,5.8395733E1,8.907824E0,3.02866E2,2.5238834E1,6.9283075E0,9.650143E0,8.165505E0,1.9052845E1,8.412945E0,1.608357E1,8.412945E0,6.185989E0,8.462433E1,1.2124537E1,3.615092E2,1.12832436E2,2.3803685E2,8.885554E2,2.5894548E3,2.2912903E2,3.0187624E1,4.280704E1,1.8483734E2,3.7115933E2,1.6726913E2,1.7988855E2,1.2000818E2,8.9078235E2],"tree_param":{"num_deleted":"0","num_feature":"44","num_nodes":"63","size_leaf_vector":"1"}},{"base_weights":[6.1325715E-3,5.2651703E-1,-5.2558136E-1,2.889114E-1,1.2574936E0,-1.271929E-1,-7.807159E-1,6.358888E-1,-8.882565E-1,1.7233007E0,3.3575812E-1,-9.115838E-1,4.74071E-1,-8.6748165E-1,4.880952E-1,-6.499656E-1,8.095086E-1,-2.8701395E-1,-1.0503331E0,1.7548676E0,-5.338257E-1,8.707865E-2,1.6954535E0,-2.2466668E-1,-1.2276338E0,1.6599213E0,2.4017854E-1,-7.9704535E-1,-1.569489E0,6.333453E-1,-1.2941589E0,-7.762579E-3,1.38112055E-2,9.039921E-3,-6.6636926E-3,-9.3384174E-4,-1.2263431E-2,-7.6314574E-3,-1.4310702E-2,1.8645063E-2,1.19315265E-2,9.737649E-3,-1.5135793E-2,-1.2241276E-4,8.17649E-3,1.7864734E-2,-6.8263137E-3,1.7543105E-2,-3.4151922E-3,-7.3102405E-3,-1.4826228E-2,1.7950973E-2,-7.0536253E-3,-4.8101554E-3,5.764957E-3,-1.0834001E-2,-6.178251E-3,-1.6036956E-2,7.2478587E-3,-1.461704E-2,7.5969514E-3,-5.3225347E-4,-1.5168481E-2],"categories":[],"categories_nodes":[],"categories_segments":[],"categories_sizes":[],"default_left":[0,0,0,0,0,0,0,0,0,0,0,0,0,0,0,0,0,0,0,0,0,0,0,0,0,0,0,0,0,0,0,0,0,0,0,0,0,0,0,0,0,0,0,0,0,0,0,0,0,0,0,0,0,0,0,0,0,0,0,0,0,0,0],"id":1,"left_children":[1,3,5,7,9,11,13,15,17,19,21,23,25,27,29,31,33,35,37,39,41,43,45,47,49,51,53,55,57,59,61,-1,-1,-1,-1,-1,-1,-1,-1,-1,-1,-1,-1,-1,-1,-1,-1,-1,-1,-1,-1,-1,-1,-1,-1,-1,-1,-1,-1,-1,-1,-1,-1],"loss_changes":[2.048873E3,6.4960754E2,3.7217017E2,1.1546553E3,3.9344775E2,6.753487E2,2.4619653E2,4.8785187E2,6.242148E1,4.4356567E1,1.0444506E2,1.3460864E2,2.2446977E2,1.020907E2,3.797661E1,6.782391E1,2.6884692E2,2.4993446E1,5.4302612E1,3.480237E1,1.5021354E1,1.9061096E1,1.1560074E1,4.6156284E1,5.27713E1,4.3916412E1,1.6481029E2,9.691223E1,1.6037598E1,3.641974E1,2.9990463E0,0E0,0E0,0E0,0E0,0E0,0E0,0E0,0E0,0E0,0E0,0E0,0E0,0E0,0E0,0E0,0E0,0E0,0E0,0E0,0E0,0E0,0E0,0E0,0E0,0E0,0E0,0E0,0E0,0E0,0E0,0E0,0E0],"parents":[2147483647,0,0,1,1,2,2,3,3,4,4,5,5,6,6,7,7,8,8,9,9,10,10,11,11,12,12,13,13,14,14,15,15,16,16,17,17,18,18,19,19,20,20,21,21,22,22,23,23,24,24,25,25,26,26,27,27,28,28,29,29,30,30],"right_children":[2,4,6,8,10,12,14,16,18,20,22,24,26,28,30,32,34,36,38,40,42,44,46,48,50,52,54,56,58,60,62,-1,-1,-1,-1,-1,-1,-1,-1,-1,-1,-1,-1,-1,-1,-1,-1,-1,-1,-1,-1,-1,-1,-1,-1,-1,-1,-1,-1,-1,-1,-1,-1],"split_conditions":[7.737359E3,1.947354E1,9.232852E3,4.9840737E3,7.4249604E3,2.903869E1,8.666E1,1.376228E1,5.3811584E8,6.675473E10,2.91255E1,2.720738E1,8.442755E3,1.0798042E4,1.0098946E4,6.9146866E1,1.900881E1,1.3700341E1,1.88752E1,8.159E1,7.214985E0,2.4789574E2,3.3392723E1,6.2836E0,7.917858E3,4.6179798E-1,3.194499E1,-4.057482E-2,8.066669E1,2.6569054E8,4.5871437E-3,-7.762579E-3,1.38112055E-2,9.039921E-3,-6.6636926E-3,-9.3384174E-4,-1.2263431E-2,-7.6314574E-3,-1.4310702E-2,1.8645063E-2,1.19315265E-2,9.737649E-3,-1.5135793E-2,-1.2241276E-4,8.17649E-3,1.7864734E-2,-6.8263137E-3,1.7543105E-2,-3.4151922E-3,-7.3102405E-3,-1.4826228E-2,1.7950973E-2,-7.0536253E-3,-4.8101554E-3,5.764957E-3,-1.0834001E-2,-6.178251E-3,-1.6036956E-2,7.2478587E-3,-1.461704E-2,7.5969514E-3,-5.3225347E-4,-1.5168481E-2],"split_indices":[4,3,4,4,4,3,1,3,18,18,3,3,4,4,4,9,3,24,3,1,25,15,22,7,4,33,3,33,9,18,37,0,0,0,0,0,0,0,0,0,0,0,0,0,0,0,0,0,0,0,0,0,0,0,0,0,0,0,0,0,0,0,0],"split_type":[0,0,0,0,0,0,0,0,0,0,0,0,0,0,0,0,0,0,0,0,0,0,0,0,0,0,0,0,0,0,0,0,0,0,0,0,0,0,0,0,0,0,0,0,0,0,0,0,0,0,0,0,0,0,0,0,0,0,0,0,0,0,0],"sum_hessian":[7.402789E3,3.7412578E3,3.6615312E3,2.8245322E3,9.167255E2,1.4300421E3,2.2314893E3,2.181872E3,6.4266016E2,6.083971E2,3.0832843E2,6.203005E2,8.097416E2,2.0889556E3,1.4253377E2,2.592303E2,1.9226417E3,1.370453E2,5.056149E2,6.002252E2,8.171879E0,2.6155563E2,4.677279E1,1.9600517E2,4.2429532E2,1.3239468E2,6.7734686E2,1.900412E3,1.8854347E2,1.3238898E2,1.0144796E1,2.4463667E2,1.4593619E1,1.8073269E3,1.1531489E2,1.1453492E2,2.251038E1,2.8992828E2,2.156866E2,5.0026184E2,9.9963356E1,3.2212741E0,4.950605E0,2.3111865E2,3.0436985E1,4.5288185E1,1.4846044E0,1.0146934E1,1.8585825E2,1.452592E2,2.7903613E2,1.2546541E2,6.929284E0,2.1527777E2,4.620691E2,7.2960986E2,1.1708021E3,1.8607025E2,2.473224E0,6.928955E0,1.2546002E2,1.7320384E0,8.412758E0],"tree_param":{"num_deleted":"0","num_feature":"44","num_nodes":"63","size_leaf_vector":"1"}},{"base_weights":[-6.207872E-3,5.072513E-1,-5.35039E-1,1.3328345E0,2.605661E-1,-1.193072E-1,-7.982569E-1,1.4511522E0,3.8049442E-1,-2.1497138E-1,1.2255118E0,-9.1354525E-1,4.7488925E-1,-8.749413E-1,3.7633598E-1,1.2041713E0,1.7024779E0,1.3786596E0,-2.2933277E-1,-6.925035E-1,3.800721E-1,1.6573529E0,3.5200974E-1,-2.6976326E-1,-1.2186567E0,1.6558782E0,2.4364327E-1,-8.1284475E-1,-1.5318469E0,-4.39675E-1,7.7469367E-1,1.801957E-2,6.1697313E-3,1.7602189E-2,1.7987607E-3,-1.0542772E-3,1.698186E-2,-1.351368E-2,6.7868084E-3,1.269847E-2,-7.4535566E-3,1.3631976E-2,-9.470488E-4,1.688643E-2,-8.012166E-3,1.1336E-3,1.6945587E-2,-3.780321E-3,1.6424472E-2,-8.609473E-3,-1.5951322E-2,1.786691E-2,-8.637393E-3,-4.379994E-3,5.3801746E-3,-1.0941501E-2,-6.463291E-3,-1.572851E-2,8.234076E-3,1.4497631E-4,-1.1156853E-2,-1.3763549E-2,8.6762905E-3],"categories":[],"categories_nodes":[],"categories_segments":[],"categories_sizes":[],"default_left":[0,0,0,0,0,0,0,0,0,0,0,0,0,0,0,0,0,0,0,0,0,0,0,0,0,0,0,0,0,0,0,0,0,0,0,0,0,0,0,0,0,0,0,0,0,0,0,0,0,0,0,0,0,0,0,0,0,0,0,0,0,0,0],"id":2,"left_children":[1,3,5,7,9,11,13,15,17,19,21,23,25,27,29,31,33,35,37,39,41,43,45,47,49,51,53,55,57,59,61,-1,-1,-1,-1,-1,-1,-1,-1,-1,-1,-1,-1,-1,-1,-1,-1,-1,-1,-1,-1,-1,-1,-1,-1,-1,-1,-1,-1,-1,-1,-1,-1],"loss_changes":[2.0009988E3,7.611297E2,3.971593E2,9.634534E1,1.3218187E3,6.651887E2,2.0053491E2,4.5407837E1,5.8987873E1,5.4871094E2,3.5811572E2,1.1814685E2,2.1982866E2,8.3878174E1,4.4847595E1,1.3544434E2,3.278662E1,1.7581062E1,6.2749508E1,1.1203961E2,4.0153464E2,5.0284546E1,1.010083E2,4.1039227E1,5.3697083E1,4.5008698E1,1.3578905E2,8.869934E1,1.8591156E1,1.4001774E1,1.9658829E1,0E0,0E0,0E0,0E0,0E0,0E0,0E0,0E0,0E0,0E0,0E0,0E0,0E0,0E0,0E0,0E0,0E0,0E0,0E0,0E0,0E0,0E0,0E0,0E0,0E0,0E0,0E0,0E0,0E0,0E0,0E0,0E0],"parents":[2147483647,0,0,1,1,2,2,3,3,4,4,5,5,6,6,7,7,8,8,9,9,10,10,11,11,12,12,13,13,14,14,15,15,16,16,17,17,18,18,19,19,20,20,21,21,22,22,23,23,24,24,25,25,26,26,27,27,28,28,29,29,30,30],"right_children":[2,4,6,8,10,12,14,16,18,20,22,24,26,28,30,32,34,36,38,40,42,44,46,48,50,52,54,56,58,60,62,-1,-1,-1,-1,-1,-1,-1,-1,-1,-1,-1,-1,-1,-1,-1,-1,-1,-1,-1,-1,-1,-1,-1,-1,-1,-1,-1,-1,-1,-1,-1,-1],"split_conditions":[7.737359E3,1.7805E3,9.232852E3,3.5557276E-1,1.94231E1,2.903869E1,8.666E1,1.84429E1,1.9479558E9,9.33E1,7.4249604E3,2.720738E1,8.442755E3,1.0798042E4,5.187379E1,3.019984E3,1.1701198E0,5.347824E1,1.84429E1,-1.8609169E-1,2.3113877E3,6.675473E10,2.91255E1,2.1340424E1,7.9966577E3,4.6179798E-1,3.194499E1,-5.026364E-2,7.972473E1,9.739648E3,2.5572038E8,1.801957E-2,6.1697313E-3,1.7602189E-2,1.7987607E-3,-1.0542772E-3,1.698186E-2,-1.351368E-2,6.7868084E-3,1.269847E-2,-7.4535566E-3,1.3631976E-2,-9.470488E-4,1.688643E-2,-8.012166E-3,1.1336E-3,1.6945587E-2,-3.780321E-3,1.6424472E-2,-8.609473E-3,-1.5951322E-2,1.786691E-2,-8.637393E-3,-4.379994E-3,5.3801746E-3,-1.0941501E-2,-6.463291E-3,-1.572851E-2,8.234076E-3,1.4497631E-4,-1.1156853E-2,-1.3763549E-2,8.6762905E-3],"split_indices":[4,2,4,32,3,3,1,3,18,1,4,3,4,4,17,4,33,21,3,32,4,18,3,11,4,33,3,33,9,4,18,0,0,0,0,0,0,0,0,0,0,0,0,0,0,0,0,0,0,0,0,0,0,0,0,0,0,0,0,0,0,0,0],"split_type":[0,0,0,0,0,0,0,0,0,0,0,0,0,0,0,0,0,0,0,0,0,0,0,0,0,0,0,0,0,0,0,0,0,0,0,0,0,0,0,0,0,0,0,0,0,0,0,0,0,0,0,0,0,0,0,0,0,0,0,0,0,0,0],"sum_hessian":[7.3672603E3,3.737978E3,3.6292822E3,8.5894336E2,2.8790347E3,1.4075776E3,2.2217046E3,7.635561E2,9.538722E1,1.929118E3,9.4991656E2,6.0215894E2,8.054187E2,2.085787E3,1.3591748E2,3.8802774E2,3.7552838E2,3.569724E1,5.968998E1,1.0701451E3,8.5897284E2,6.350592E2,3.1485736E2,1.9422668E2,4.0793228E2,1.3087425E2,6.7454443E2,1.9076925E3,1.7809457E2,4.4551926E1,9.136556E1,1.9125526E2,1.9677248E2,3.6165732E2,1.3871067E1,6.442795E0,2.9254444E1,2.6480133E1,3.3209846E1,2.746247E1,1.0426827E3,2.791216E2,5.7985126E2,6.2738763E2,7.6715927E0,2.6825684E2,4.660054E1,1.8457822E2,9.648464E0,2.1086513E2,1.9706715E2,1.2469145E2,6.1828027E0,2.0330064E2,4.7124377E2,7.072758E2,1.2004167E3,1.7537358E2,2.7210019E0,2.723371E1,1.7318214E1,3.2119994E0,8.8153564E1],"tree_param":{"num_deleted":"0","num_feature":"44","num_nodes":"63","size_leaf_vector":"1"}},{"base_weights":[-5.09578E-4,5.047918E-1,-5.324065E-1,1.3222955E0,2.6303303E-1,-1.2997507E-1,-7.688499E-1,1.417994E0,1.00463554E-1,-1.9873467E-1,1.1745843E0,-9.7763157E-1,5.2400064E-1,-8.4838194E-1,3.7318477E-1,1.1846906E0,1.6362431E0,1.570116E0,-5.5323315E-1,-6.9477403E-1,4.2085633E-1,1.6364659E0,2.9795387E-1,-1.7384236E-1,-1.2027239E0,1.6330175E0,2.890817E-1,-7.8276265E-1,-1.5447161E0,-1.5486058E-2,5.256824E-1,1.797008E-2,6.8851626E-3,9.879376E-3,1.782277E-2,7.448063E-3,2.004782E-2,9.591315E-3,-8.675391E-3,1.3883719E-2,-7.4770045E-3,1.30066285E-2,-9.256052E-4,1.6645988E-2,-8.255388E-3,6.5484736E-4,1.670463E-2,-3.5994453E-3,1.0142362E-2,-6.900254E-3,-1.4400246E-2,1.8483499E-2,3.6978647E-3,9.928969E-4,1.1106966E-2,-8.660181E-3,-3.3106722E-3,1.04604745E-2,-1.5755795E-2,6.7908284E-3,-1.2808729E-2],"categories":[],"categories_nodes":[],"categories_segments":[],"categories_sizes":[],"default_left":[0,0,0,0,0,0,0,0,0,0,0,0,0,0,0,0,0,0,0,0,0,0,0,0,0,0,0,0,0,0,0,0,0,0,0,0,0,0,0,0,0,0,0,0,0,0,0,0,0,0,0,0,0,0,0,0,0,0,0,0,0],"id":3,"left_children":[1,3,5,7,9,11,13,15,17,19,21,23,25,27,29,31,33,35,37,39,41,43,45,47,49,51,53,55,57,-1,59,-1,-1,-1,-1,-1,-1,-1,-1,-1,-1,-1,-1,-1,-1,-1,-1,-1,-1,-1,-1,-1,-1,-1,-1,-1,-1,-1,-1,-1,-1],"loss_changes":[1.9798118E3,7.4624493E2,3.4137097E2,1.0063916E2,1.2279225E3,7.374332E2,2.0561841E2,3.8757202E1,6.2047737E1,5.955522E2,3.9665564E2,1.0460083E2,1.9519987E2,9.536194E1,4.414624E1,1.17226074E2,3.7085938E1,5.6332703E0,2.2135048E1,1.1967352E2,3.893917E2,4.5852417E1,1.08272064E2,2.864501E1,5.4045837E1,3.4969147E1,9.672394E1,7.2424194E1,1.611966E1,0E0,3.903932E1,0E0,0E0,0E0,0E0,0E0,0E0,0E0,0E0,0E0,0E0,0E0,0E0,0E0,0E0,0E0,0E0,0E0,0E0,0E0,0E0,0E0,0E0,0E0,0E0,0E0,0E0,0E0,0E0,0E0,0E0],"parents":[2147483647,0,0,1,1,2,2,3,3,4,4,5,5,6,6,7,7,8,8,9,9,10,10,11,11,12,12,13,13,14,14,15,15,16,16,17,17,18,18,19,19,20,20,21,21,22,22,23,23,24,24,25,25,26,26,27,27,28,28,30,30],"right_children":[2,4,6,8,10,12,14,16,18,20,22,24,26,28,30,32,34,36,38,40,42,44,46,48,50,52,54,56,58,-1,60,-1,-1,-1,-1,-1,-1,-1,-1,-1,-1,-1,-1,-1,-1,-1,-1,-1,-1,-1,-1,-1,-1,-1,-1,-1,-1,-1,-1,-1,-1],"split_conditions":[7.764459E3,1.7805E3,9.157451E3,4.4961834E1,1.94231E1,2.903869E1,8.666E1,1.84429E1,1.9479558E9,9.33E1,7.4249604E3,2.69943E1,8.442755E3,1.0798042E4,2.6569054E8,2.8295852E3,8.631E1,5.8713432E1,1.6717E3,-1.8609169E-1,2.3451875E3,6.675473E10,2.91255E1,7.9537E0,7.917858E3,3.2501682E1,8.543E1,3.5470993E1,5.8249207E0,-1.5486058E-2,1.0098946E4,1.797008E-2,6.8851626E-3,9.879376E-3,1.782277E-2,7.448063E-3,2.004782E-2,9.591315E-3,-8.675391E-3,1.3883719E-2,-7.4770045E-3,1.30066285E-2,-9.256052E-4,1.6645988E-2,-8.255388E-3,6.5484736E-4,1.670463E-2,-3.5994453E-3,1.0142362E-2,-6.900254E-3,-1.4400246E-2,1.8483499E-2,3.6978647E-3,9.928969E-4,1.1106966E-2,-8.660181E-3,-3.3106722E-3,1.04604745E-2,-1.5755795E-2,6.7908284E-3,-1.2808729E-2],"split_indices":[4,2,4,22,3,3,1,3,18,1,4,3,4,4,18,4,1,21,2,32,4,18,3,10,4,22,1,21,23,0,4,0,0,0,0,0,0,0,0,0,0,0,0,0,0,0,0,0,0,0,0,0,0,0,0,0,0,0,0,0,0],"split_type":[0,0,0,0,0,0,0,0,0,0,0,0,0,0,0,0,0,0,0,0,0,0,0,0,0,0,0,0,0,0,0,0,0,0,0,0,0,0,0,0,0,0,0,0,0,0,0,0,0,0,0,0,0,0,0,0,0,0,0,0,0],"sum_hessian":[7.364242E3,3.776563E3,3.587679E3,8.6091656E2,2.9156465E3,1.3283501E3,2.2593289E3,7.982352E2,6.2681328E1,1.9358022E3,9.7984424E2,5.782941E2,7.50056E2,2.1124722E3,1.4685675E2,3.8891818E2,4.0931705E2,1.8865553E1,4.3815777E1,1.0750249E3,8.6077734E2,6.411607E2,3.3868353E2,1.2690334E2,4.5139078E2,1.3006892E2,6.1998706E2,1.9324874E3,1.7998457E2,1.012357E1,1.3673318E2,1.7291098E2,2.160072E2,7.6677704E1,3.3263934E2,7.444338E0,1.1421216E1,7.186154E0,3.6629623E1,2.6011177E1,1.0490138E3,3.1664005E2,5.4413727E2,6.3423724E2,6.9234395E0,2.9052368E2,4.8159824E1,1.1031975E2,1.6583595E1,1.4405708E2,3.073337E2,1.10730446E2,1.9338482E1,5.045561E2,1.1543098E2,1.6309558E3,3.0153174E2,1.7316568E0,1.7825291E2,1.26606705E2,1.0126483E1],"tree_param":{"num_deleted":"0","num_feature":"44","num_nodes":"61","size_leaf_vector":"1"}},{"base_weights":[1.5586496E-2,3.5813457E-1,-7.5862867E-1,1.3241688E0,1.5989476E-1,-8.422628E-1,4.1067043E-1,1.4098153E0,1.8591323E-1,1.0490011E0,-4.338395E-2,-7.7863127E-1,-1.4961783E0,-9.1903865E-1,6.0624987E-1,1.1707528E0,1.6399515E0,-5.791271E-1,9.425221E-1,-4.0405473E-1,1.2558409E0,-1.8719476E-1,6.0695785E-1,-1.0394375E0,-6.229689E-1,-1.5350529E0,8.172641E-1,1.5237745E-2,-1.3156481E0,7.907015E-1,-6.6704524E-1,1.7461438E-2,5.944844E-3,1.0154619E-2,1.7851306E-2,6.3766274E-3,-1.2347786E-2,1.7315809E-2,3.019412E-3,-8.319814E-3,4.531266E-3,1.837902E-2,4.9037132E-3,-1.61736E-4,-1.056316E-2,1.5319131E-2,1.2150537E-3,-1.22349085E-2,-6.7023234E-3,-1.1327655E-2,-5.451492E-3,-8.998465E-3,-1.6039899E-2,-1.1396726E-3,1.3269995E-2,-1.4433551E-2,-2.0620725E-3,8.98798E-3,-1.4713543E-2,-9.842025E-3,6.4595044E-3],"categories":[],"categories_nodes":[],"categories_segments":[],"categories_sizes":[],"default_left":[0,0,0,0,0,0,0,0,0,0,0,0,0,0,0,0,0,0,0,0,0,0,0,0,0,0,0,0,0,0,0,0,0,0,0,0,0,0,0,0,0,0,0,0,0,0,0,0,0,0,0,0,0,0,0,0,0,0,0,0,0],"id":4,"left_children":[1,3,5,7,9,11,13,15,17,19,21,23,25,27,29,31,33,35,37,39,41,43,45,47,49,51,53,-1,55,57,59,-1,-1,-1,-1,-1,-1,-1,-1,-1,-1,-1,-1,-1,-1,-1,-1,-1,-1,-1,-1,-1,-1,-1,-1,-1,-1,-1,-1,-1,-1],"loss_changes":[1.9521351E3,9.770434E2,2.2114514E2,8.4429565E1,7.655085E2,8.6524414E1,3.9926346E1,4.2522705E1,3.640188E1,2.373899E2,3.225995E2,7.740698E1,1.7964355E1,2.119604E1,3.166404E1,1.314978E2,3.5276367E1,2.585419E1,1.5411535E1,3.668016E1,3.0661487E2,4.198028E2,2.8029037E2,4.7910828E1,4.7247498E1,6.573517E0,1.9185362E0,0E0,2.192915E0,2.9749657E1,7.8471303E0,0E0,0E0,0E0,0E0,0E0,0E0,0E0,0E0,0E0,0E0,0E0,0E0,0E0,0E0,0E0,0E0,0E0,0E0,0E0,0E0,0E0,0E0,0E0,0E0,0E0,0E0,0E0,0E0,0E0,0E0],"parents":[2147483647,0,0,1,1,2,2,3,3,4,4,5,5,6,6,7,7,8,8,9,9,10,10,11,11,12,12,13,13,14,14,15,15,16,16,17,17,18,18,19,19,20,20,21,21,22,22,23,23,24,24,25,25,26,26,28,28,29,29,30,30],"right_children":[2,4,6,8,10,12,14,16,18,20,22,24,26,28,30,32,34,36,38,40,42,44,46,48,50,52,54,-1,56,58,60,-1,-1,-1,-1,-1,-1,-1,-1,-1,-1,-1,-1,-1,-1,-1,-1,-1,-1,-1,-1,-1,-1,-1,-1,-1,-1,-1,-1,-1,-1],"split_conditions":[9.157451E3,1.7805E3,8.666E1,4.4961834E1,7.72E1,1.0798042E4,1.5248405E1,1.84429E1,1.8315E1,1.91207E1,2.89766E1,-4.5670576E-2,8.066669E1,5.061111E0,2.0272033E-2,1.80767E1,8.631E1,1.81209E1,4.0718784E3,8.626551E-1,7.6286597E3,2.720738E1,8.442755E3,3.58997E1,7.177E1,3.22326E1,8.169303E1,1.5237745E-2,7.043784E1,1.2745025E1,3.2501682E1,1.7461438E-2,5.944844E-3,1.0154619E-2,1.7851306E-2,6.3766274E-3,-1.2347786E-2,1.7315809E-2,3.019412E-3,-8.319814E-3,4.531266E-3,1.837902E-2,4.9037132E-3,-1.61736E-4,-1.056316E-2,1.5319131E-2,1.2150537E-3,-1.22349085E-2,-6.7023234E-3,-1.1327655E-2,-5.451492E-3,-8.998465E-3,-1.6039899E-2,-1.1396726E-3,1.3269995E-2,-1.4433551E-2,-2.0620725E-3,8.98798E-3,-1.4713543E-2,-9.842025E-3,6.4595044E-3],"split_indices":[4,2,1,22,1,4,21,3,3,3,3,33,9,5,43,3,1,3,4,10,4,3,4,3,1,3,9,0,20,10,22,0,0,0,0,0,0,0,0,0,0,0,0,0,0,0,0,0,0,0,0,0,0,0,0,0,0,0,0,0,0],"split_type":[0,0,0,0,0,0,0,0,0,0,0,0,0,0,0,0,0,0,0,0,0,0,0,0,0,0,0,0,0,0,0,0,0,0,0,0,0,0,0,0,0,0,0,0,0,0,0,0,0,0,0,0,0,0,0,0,0,0,0,0,0],"sum_hessian":[7.3588037E3,5.101989E3,2.256815E3,8.677435E2,4.234245E3,2.106432E3,1.5038283E2,8.0679846E2,6.094505E1,7.87164E2,3.447081E3,1.9216316E3,1.8480037E2,1.8808462E1,1.3157437E2,3.987103E2,4.080882E2,3.0420315E1,3.0524734E1,9.796976E1,6.891942E2,2.8234424E3,6.2363885E2,7.161208E2,1.2055109E3,1.8207724E2,2.7231305E0,2.2301888E0,1.6578272E1,1.1525705E2,1.6317318E1,1.9849121E2,2.0021909E2,7.848387E1,3.296043E2,1.0661544E1,1.9758772E1,1.2914135E1,1.76106E1,6.536653E1,3.260323E1,3.9070334E2,2.9849088E2,2.3600605E3,4.6338184E2,2.1391016E2,4.097287E2,4.7634375E2,2.3977702E2,1.57854E2,1.0476569E3,1.9201529E1,1.628757E2,1.2379496E0,1.4851807E0,1.4597041E1,1.9812312E0,1.1057565E2,4.681398E0,1.3344368E1,2.9729497E0],"tree_param":{"num_deleted":"0","num_feature":"44","num_nodes":"61","size_leaf_vector":"1"}},{"base_weights":[-1.0025989E-2,4.8573798E-1,-5.2488834E-1,2.537355E-1,1.1727256E0,-1.403511E-1,-7.723011E-1,6.3792545E-1,-7.3370856E-1,1.5936612E0,3.1528988E-1,-9.111065E-1,4.4612023E-1,-8.448625E-1,3.5404417E-1,1.3173431E-1,1.2341353E0,1.044909E0,-8.7546366E-1,1.8206449E0,1.2776883E0,8.856096E-2,1.5755115E0,-2.897679E-1,-1.1968377E0,1.6196555E0,2.1072532E-1,-7.808505E-1,-1.5018973E0,-2.3978375E-1,8.5140085E-1,-7.1152993E-3,4.1631362E-3,1.3332013E-2,1.1388453E-3,3.0656334E-3,1.7411724E-2,-2.4918562E-3,-1.0417002E-2,1.2018104E-2,1.886441E-2,1.3167128E-2,-1.2000059E-2,-6.654526E-5,9.099474E-3,-2.1116934E-3,1.731708E-2,-4.6718E-3,1.1754956E-2,-6.9449204E-3,-1.4499045E-2,-1.9927446E-3,1.7625282E-2,-5.452522E-3,4.8470525E-3,-1.0664377E-2,-6.0849837E-3,-1.5371606E-2,1.1413082E-2,2.7310906E-3,-1.0902967E-2,1.1110868E-2,-2.6474649E-3],"categories":[],"categories_nodes":[],"categories_segments":[],"categories_sizes":[],"default_left":[0,0,0,0,0,0,0,0,0,0,0,0,0,0,0,0,0,0,0,0,0,0,0,0,0,0,0,0,0,0,0,0,0,0,0,0,0,0,0,0,0,0,0,0,0,0,0,0,0,0,0,0,0,0,0,0,0,0,0,0,0,0,0],"id":5,"left_children":[1,3,5,7,9,11,13,15,17,19,21,23,25,27,29,31,33,35,37,39,41,43,45,47,49,51,53,55,57,59,61,-1,-1,-1,-1,-1,-1,-1,-1,-1,-1,-1,-1,-1,-1,-1,-1,-1,-1,-1,-1,-1,-1,-1,-1,-1,-1,-1,-1,-1,-1,-1,-1],"loss_changes":[1.8844323E3,5.99159E2,3.4444653E2,1.0675793E3,3.4209875E2,6.4187384E2,1.8038782E2,6.1113684E2,1.9967822E2,4.3318726E1,8.952341E1,1.0857736E2,2.2246638E2,8.590503E1,3.9799797E1,2.6345053E2,1.0305286E2,2.9616463E1,7.581329E1,1.2717163E1,2.7629822E1,2.0888987E1,1.3702362E1,5.1132706E1,5.237982E1,3.533185E1,1.3964854E2,9.2315674E1,1.8785522E1,2.7294205E1,2.1504967E1,0E0,0E0,0E0,0E0,0E0,0E0,0E0,0E0,0E0,0E0,0E0,0E0,0E0,0E0,0E0,0E0,0E0,0E0,0E0,0E0,0E0,0E0,0E0,0E0,0E0,0E0,0E0,0E0,0E0,0E0,0E0,0E0],"parents":[2147483647,0,0,1,1,2,2,3,3,4,4,5,5,6,6,7,7,8,8,9,9,10,10,11,11,12,12,13,13,14,14,15,15,16,16,17,17,18,18,19,19,20,20,21,21,22,22,23,23,24,24,25,25,26,26,27,27,28,28,29,29,30,30],"right_children":[2,4,6,8,10,12,14,16,18,20,22,24,26,28,30,32,34,36,38,40,42,44,46,48,50,52,54,56,58,60,62,-1,-1,-1,-1,-1,-1,-1,-1,-1,-1,-1,-1,-1,-1,-1,-1,-1,-1,-1,-1,-1,-1,-1,-1,-1,-1,-1,-1,-1,-1,-1,-1],"split_conditions":[7.737359E3,1.94231E1,9.232852E3,1.863561E1,7.4249604E3,2.903869E1,8.666E1,1.7461E1,4.7895747E3,7.749E1,2.91255E1,2.720738E1,8.442755E3,1.0798042E4,6.5382355E1,9.655E1,5.3129666E-2,8.273E1,5.3811584E8,1.3422712E1,6.675473E10,2.4639958E2,-2.2323556E-1,2.2335298E2,7.917858E3,2.93879E1,3.168812E1,-4.5670576E-2,3.4305748E-1,9.739648E3,5.2228665E0,-7.1152993E-3,4.1631362E-3,1.3332013E-2,1.1388453E-3,3.0656334E-3,1.7411724E-2,-2.4918562E-3,-1.0417002E-2,1.2018104E-2,1.886441E-2,1.3167128E-2,-1.2000059E-2,-6.654526E-5,9.099474E-3,-2.1116934E-3,1.731708E-2,-4.6718E-3,1.1754956E-2,-6.9449204E-3,-1.4499045E-2,-1.9927446E-3,1.7625282E-2,-5.452522E-3,4.8470525E-3,-1.0664377E-2,-6.0849837E-3,-1.5371606E-2,1.1413082E-2,2.7310906E-3,-1.0902967E-2,1.1110868E-2,-2.6474649E-3],"split_indices":[4,3,4,3,4,3,1,3,4,1,3,3,4,4,17,1,31,1,18,23,18,26,33,14,4,3,3,33,32,4,10,0,0,0,0,0,0,0,0,0,0,0,0,0,0,0,0,0,0,0,0,0,0,0,0,0,0,0,0,0,0,0,0],"split_type":[0,0,0,0,0,0,0,0,0,0,0,0,0,0,0,0,0,0,0,0,0,0,0,0,0,0,0,0,0,0,0,0,0,0,0,0,0,0,0,0,0,0,0,0,0,0,0,0,0,0,0,0,0,0,0,0,0,0,0,0,0,0,0],"sum_hessian":[7.380688E3,3.7601113E3,3.6205767E3,2.8118806E3,9.482305E2,1.418094E3,2.2024824E3,2.0245375E3,7.873432E2,6.354261E2,3.1280447E2,6.125335E2,8.0556055E2,2.0694165E3,1.3306606E2,1.0955879E3,9.2894965E2,5.7648582E1,7.296946E2,3.6701413E2,2.6841196E2,2.660154E2,4.678908E1,1.9358536E2,4.1894815E2,1.3360533E2,6.719552E2,1.8876952E3,1.8172133E2,6.088692E1,7.217914E1,2.7606195E2,8.1952594E2,8.533004E2,7.564921E1,2.8677795E1,2.8970787E1,1.5358371E2,5.761109E2,3.7123234E1,3.298909E2,2.647112E2,3.7007275E0,2.392709E2,2.6744492E1,3.7332907E0,4.305579E1,1.7328535E2,2.0299992E1,1.4160403E2,2.7734412E2,9.70136E0,1.2390398E2,1.7848402E2,4.9347116E2,7.0850916E2,1.179186E3,1.7974182E2,1.979508E0,3.8405674E1,2.2481245E1,5.8559143E1,1.3619998E1],"tree_param":{"num_deleted":"0","num_feature":"44","num_nodes":"63","size_leaf_vector":"1"}},{"base_weights":[4.131611E-3,5.1972795E-1,-4.8915538E-1,2.7287844E-1,1.3808215E0,-1.0334366E-1,-7.565072E-1,1.274593E0,-1.8635812E-1,1.6022171E0,5.709529E-1,-7.6060545E-1,4.6997014E-1,-2.7309054E-1,-9.0625983E-1,1.3696238E0,3.42583E-1,1.4405972E-1,-8.7823474E-1,1.6306412E0,-8.2404125E-1,1.5785554E-1,1.4317567E0,-1.7509541E-1,-1.0567414E0,1.3226175E0,2.0616037E-1,-6.746921E-1,2.2993621E-1,-6.5936923E-1,-1.284753E0,1.128296E-2,1.6076412E-2,1.5309387E-2,-2.1299869E-3,-5.873885E-3,3.2778396E-3,-2.851617E-3,-1.04337E-2,1.7630346E-2,1.2791816E-2,1.208428E-2,-1.382683E-2,9.924641E-3,-1.1849193E-3,-6.2380116E-3,1.5904348E-2,-2.7790745E-3,1.7062059E-2,-5.813116E-3,-1.4142316E-2,1.4498602E-2,-1.31839365E-2,-7.820022E-3,5.0593177E-3,-1.592229E-2,-4.697854E-3,6.6608856E-3,-5.009581E-3,-1.119463E-2,-4.679206E-3,-4.2041764E-3,-1.3976123E-2],"categories":[],"categories_nodes":[],"categories_segments":[],"categories_sizes":[],"default_left":[0,0,0,0,0,0,0,0,0,0,0,0,0,0,0,0,0,0,0,0,0,0,0,0,0,0,0,0,0,0,0,0,0,0,0,0,0,0,0,0,0,0,0,0,0,0,0,0,0,0,0,0,0,0,0,0,0,0,0,0,0,0,0],"id":6,"left_children":[1,3,5,7,9,11,13,15,17,19,21,23,25,27,29,31,33,35,37,39,41,43,45,47,49,51,53,55,57,59,61,-1,-1,-1,-1,-1,-1,-1,-1,-1,-1,-1,-1,-1,-1,-1,-1,-1,-1,-1,-1,-1,-1,-1,-1,-1,-1,-1,-1,-1,-1,-1,-1],"loss_changes":[1.8649857E3,7.617143E2,3.8646143E2,1.282662E3,1.4226721E2,5.787933E2,1.599862E2,7.715552E1,4.3729614E2,4.4554443E1,6.128868E1,1.23884705E2,1.8428928E2,1.0619881E2,1.5702698E2,4.3851074E1,5.474756E1,1.742324E2,6.024939E1,2.6577393E1,1.0663027E1,2.7337385E1,1.9248947E1,4.719385E1,7.991058E1,6.700232E1,1.8636786E2,5.417784E1,7.4859024E1,8.972275E1,6.437158E1,0E0,0E0,0E0,0E0,0E0,0E0,0E0,0E0,0E0,0E0,0E0,0E0,0E0,0E0,0E0,0E0,0E0,0E0,0E0,0E0,0E0,0E0,0E0,0E0,0E0,0E0,0E0,0E0,0E0,0E0,0E0,0E0],"parents":[2147483647,0,0,1,1,2,2,3,3,4,4,5,5,6,6,7,7,8,8,9,9,10,10,11,11,12,12,13,13,14,14,15,15,16,16,17,17,18,18,19,19,20,20,21,21,22,22,23,23,24,24,25,25,26,26,27,27,28,28,29,29,30,30],"right_children":[2,4,6,8,10,12,14,16,18,20,22,24,26,28,30,32,34,36,38,40,42,44,46,48,50,52,54,56,58,60,62,-1,-1,-1,-1,-1,-1,-1,-1,-1,-1,-1,-1,-1,-1,-1,-1,-1,-1,-1,-1,-1,-1,-1,-1,-1,-1,-1,-1,-1,-1,-1,-1],"split_conditions":[7.6628594E3,1.94231E1,9.232852E3,1.7805E3,7.4249604E3,2.903869E1,3.26482E1,3.8676587E-1,4.9840737E3,6.675473E10,2.85258E1,2.720738E1,8.646054E3,3.22888E1,9.971947E3,1.84429E1,1.6929E3,1.376228E1,5.544116E8,6.571265E3,2.07864E1,2.70228E1,-2.1472761E-1,2.1340424E1,7.917858E3,4.6179798E-1,2.1503E3,-7.346551E-2,1.0208646E4,3.42306E1,2.3314E3,1.128296E-2,1.6076412E-2,1.5309387E-2,-2.1299869E-3,-5.873885E-3,3.2778396E-3,-2.851617E-3,-1.04337E-2,1.7630346E-2,1.2791816E-2,1.208428E-2,-1.382683E-2,9.924641E-3,-1.1849193E-3,-6.2380116E-3,1.5904348E-2,-2.7790745E-3,1.7062059E-2,-5.813116E-3,-1.4142316E-2,1.4498602E-2,-1.31839365E-2,-7.820022E-3,5.0593177E-3,-1.592229E-2,-4.697854E-3,6.6608856E-3,-5.009581E-3,-1.119463E-2,-4.679206E-3,-4.2041764E-3,-1.3976123E-2],"split_indices":[4,3,4,2,4,3,3,32,4,18,3,3,4,3,4,3,2,3,18,4,3,3,33,11,4,33,2,33,4,3,2,0,0,0,0,0,0,0,0,0,0,0,0,0,0,0,0,0,0,0,0,0,0,0,0,0,0,0,0,0,0,0,0],"split_type":[0,0,0,0,0,0,0,0,0,0,0,0,0,0,0,0,0,0,0,0,0,0,0,0,0,0,0,0,0,0,0,0,0,0,0,0,0,0,0,0,0,0,0,0,0,0,0,0,0,0,0,0,0,0,0,0,0,0,0,0,0,0,0],"sum_hessian":[7.330736E3,3.5842896E3,3.746446E3,2.7867341E3,7.975556E2,1.5340566E3,2.2123894E3,8.7542615E2,1.9113079E3,6.255651E2,1.7199048E2,7.145506E2,8.1950604E2,5.239262E2,1.6884633E3,7.939979E2,8.1428215E1,1.294086E3,6.1722174E2,6.186455E2,6.9196544E0,1.17017494E2,5.4972984E1,2.4054472E2,4.7400586E2,1.9269427E2,6.2681177E2,2.9114413E2,2.3278204E2,1.02354694E3,6.649163E2,3.971077E2,3.9689023E2,2.5382029E1,5.604619E1,2.593515E2,1.0347346E3,1.3502274E2,4.8219904E2,4.4645245E2,1.7219302E2,1.2410978E0,5.678557E0,2.846321E1,8.855429E1,3.7294548E0,5.124353E1,2.2888838E2,1.165634E1,2.0457108E2,2.6943478E2,1.8426738E2,8.426895E0,1.4551834E2,4.812934E2,5.1913567E1,2.3923058E2,1.4584154E2,8.694051E1,2.993338E2,7.2421313E2,7.73391E1,5.875772E2],"tree_param":{"num_deleted":"0","num_feature":"44","num_nodes":"63","size_leaf_vector":"1"}},{"base_weights":[8.5249153E-4,1.2868679E0,-1.7158194E-1,1.4002701E0,4.8003972E-1,6.957955E-2,-6.765929E-1,1.4498954E0,6.044994E-1,2.6343745E-1,1.7979939E0,9.0237534E-1,-1.22725055E-1,-7.105298E-1,5.1912105E-1,1.7047323E0,1.3076609E0,1.2000219E0,1.7051507E-3,1.2928406E0,-4.1623935E-2,1.91055E-2,2.9736548E-3,1.2123159E0,3.3400813E-1,-2.6950678E-1,3.595681E-1,-1.0725753E0,-5.392717E-1,-1.2919887E0,8.681688E-1,1.2295073E-3,1.7654583E-2,-1.31463E-2,1.3232221E-2,1.4079772E-2,-1.1103142E-2,-6.7481217E-3,7.7855E-3,1.6450118E-2,-1.02154E-2,2.9001567E-3,-1.1024238E-2,-9.002707E-3,1.2741469E-2,-2.2813047E-3,8.187686E-3,-7.055486E-3,-1.1479385E-3,-1.9750393E-4,7.8539755E-3,-1.3412129E-2,-8.7601645E-3,-9.275726E-3,-3.838487E-3,-8.540298E-4,-1.4542504E-2,1.42550515E-2,-2.7393394E-3],"categories":[],"categories_nodes":[],"categories_segments":[],"categories_sizes":[],"default_left":[0,0,0,0,0,0,0,0,0,0,0,0,0,0,0,0,0,0,0,0,0,0,0,0,0,0,0,0,0,0,0,0,0,0,0,0,0,0,0,0,0,0,0,0,0,0,0,0,0,0,0,0,0,0,0,0,0,0,0],"id":7,"left_children":[1,3,5,7,9,11,13,15,17,19,21,23,25,27,29,31,33,35,37,39,41,-1,-1,43,45,47,49,51,53,55,57,-1,-1,-1,-1,-1,-1,-1,-1,-1,-1,-1,-1,-1,-1,-1,-1,-1,-1,-1,-1,-1,-1,-1,-1,-1,-1,-1,-1],"loss_changes":[1.6333639E3,7.900757E1,7.910472E2,2.9255249E1,3.0596832E1,7.042315E2,8.5552124E1,2.3778076E1,1.6692007E1,2.9776272E1,1.9976959E0,1.4491077E2,2.5301573E2,1.26013306E2,3.8111786E1,2.4154602E1,2.0705627E1,1.2801861E1,1.3197699E1,1.9341087E1,2.6346188E1,0E0,0E0,7.082568E1,7.9887436E1,1.8474037E2,1.3473502E2,3.3391663E1,8.341489E1,1.8055878E0,3.199876E1,0E0,0E0,0E0,0E0,0E0,0E0,0E0,0E0,0E0,0E0,0E0,0E0,0E0,0E0,0E0,0E0,0E0,0E0,0E0,0E0,0E0,0E0,0E0,0E0,0E0,0E0,0E0,0E0],"parents":[2147483647,0,0,1,1,2,2,3,3,4,4,5,5,6,6,7,7,8,8,9,9,10,10,11,11,12,12,13,13,14,14,15,15,16,16,17,17,18,18,19,19,20,20,23,23,24,24,25,25,26,26,27,27,28,28,29,29,30,30],"right_children":[2,4,6,8,10,12,14,16,18,20,22,24,26,28,30,32,34,36,38,40,42,-1,-1,44,46,48,50,52,54,56,58,-1,-1,-1,-1,-1,-1,-1,-1,-1,-1,-1,-1,-1,-1,-1,-1,-1,-1,-1,-1,-1,-1,-1,-1,-1,-1,-1,-1],"split_conditions":[1.7805E3,4.1503075E1,2.3466E3,5.3129666E-2,4.4350426E1,7.857E1,8.666E1,1.3191363E1,8.479531E0,1.6929E3,7.915502E7,2.632641E-1,9.599E1,2.5922E3,2.3658E3,8.31E1,1.24472E1,1.65071E0,2.0355906E1,1.9020727E1,6.906684E-1,1.91055E-2,2.9736548E-3,-1.5667781E-2,2.5157697E-2,1.874E3,1.8933E3,2.0812016E1,7.231E1,4.5871437E-3,3.5326663E-2,1.2295073E-3,1.7654583E-2,-1.31463E-2,1.3232221E-2,1.4079772E-2,-1.1103142E-2,-6.7481217E-3,7.7855E-3,1.6450118E-2,-1.02154E-2,2.9001567E-3,-1.1024238E-2,-9.002707E-3,1.2741469E-2,-2.2813047E-3,8.187686E-3,-7.055486E-3,-1.1479385E-3,-1.9750393E-4,7.8539755E-3,-1.3412129E-2,-8.7601645E-3,-9.275726E-3,-3.838487E-3,-8.540298E-4,-1.4542504E-2,1.42550515E-2,-2.7393394E-3],"split_indices":[2,22,2,31,14,1,1,29,14,2,0,33,1,2,2,1,26,35,29,23,36,0,0,41,12,2,2,21,1,37,31,0,0,0,0,0,0,0,0,0,0,0,0,0,0,0,0,0,0,0,0,0,0,0,0,0,0,0,0],"split_type":[0,0,0,0,0,0,0,0,0,0,0,0,0,0,0,0,0,0,0,0,0,0,0,0,0,0,0,0,0,0,0,0,0,0,0,0,0,0,0,0,0,0,0,0,0,0,0,0,0,0,0,0,0,0,0,0,0,0,0],"sum_hessian":[7.363683E3,8.6985376E2,6.4938296E3,7.620147E2,1.07839066E2,4.39562E3,2.0982095E3,7.1651025E2,4.5504448E1,9.3648125E1,1.4190937E1,8.239075E2,3.5717124E3,2.040696E3,5.7513508E1,2.5272519E2,4.6378506E2,2.2391903E1,2.3112545E1,2.066795E1,7.298018E1,1.29466915E1,1.2442459E0,5.324308E2,2.9147668E2,2.7386648E3,8.3304767E2,6.53632E2,1.3870641E3,8.8567705E0,4.8656734E1,9.455481E0,2.4326971E2,2.2434864E0,4.615416E2,2.0901148E1,1.4907556E0,1.2424222E1,1.0688323E1,1.818936E1,2.4785893E0,5.6151917E1,1.6828259E1,1.47544365E1,5.1767633E2,1.3521172E2,1.5626498E2,7.1629724E2,2.0223677E3,4.4108948E2,3.919582E2,2.7371768E2,3.7991434E2,3.95071E2,9.9199304E2,1.2308016E0,7.6259694E0,3.2532845E1,1.6123892E1],"tree_param":{"num_deleted":"0","num_feature":"44","num_nodes":"59","size_leaf_vector":"1"}},{"base_weights":[3.397484E-3,4.9268475E-1,-4.6623248E-1,2.5379887E-1,1.3660164E0,-1.1500934E-1,-7.3476404E-1,1.2510899E0,-1.8818302E-1,1.6752933E0,5.401599E-1,-7.6762176E-1,3.9225045E-1,-8.163221E-1,4.2605537E-1,1.3731666E0,4.07197E-1,-6.534033E-1,4.032404E-1,1.6980125E0,-3.169081E-1,1.0485346E0,-1.8946126E-1,-1.7475723E-1,-1.0664889E0,1.3016845E0,1.437789E-1,-7.507942E-1,-1.4658122E0,-1.4737558E-2,5.538788E-1,1.12948585E-2,1.5795244E-2,1.3096895E-2,-1.8748618E-3,8.7763666E-4,-7.972598E-3,1.3100458E-2,-5.699775E-4,-1.0514442E-2,1.7060772E-2,1.2886443E-2,-9.640036E-3,1.1175094E-2,-1.3464333E-2,-1.1136721E-2,9.149837E-5,-2.8443069E-3,1.7743919E-2,-5.84641E-3,-1.4064425E-2,1.4288597E-2,-1.2370328E-2,-8.142395E-3,4.379849E-3,-8.229221E-3,1.1150962E-5,-1.5047722E-2,5.3058797E-3,1.6731543E-3,1.3258125E-2],"categories":[],"categories_nodes":[],"categories_segments":[],"categories_sizes":[],"default_left":[0,0,0,0,0,0,0,0,0,0,0,0,0,0,0,0,0,0,0,0,0,0,0,0,0,0,0,0,0,0,0,0,0,0,0,0,0,0,0,0,0,0,0,0,0,0,0,0,0,0,0,0,0,0,0,0,0,0,0,0,0],"id":8,"left_children":[1,3,5,7,9,11,13,15,17,19,21,23,25,27,29,31,33,35,37,39,41,43,45,47,49,51,53,55,57,-1,59,-1,-1,-1,-1,-1,-1,-1,-1,-1,-1,-1,-1,-1,-1,-1,-1,-1,-1,-1,-1,-1,-1,-1,-1,-1,-1,-1,-1,-1,-1],"loss_changes":[1.6911737E3,7.5164417E2,3.541006E2,1.2483289E3,1.9677734E2,5.3935144E2,2.0181702E2,8.903235E1,5.4033215E2,2.6002075E1,7.896243E1,1.2605554E2,2.0699396E2,8.353674E1,3.4900177E1,3.6399292E1,5.9994057E1,1.1725119E2,3.6100992E2,1.4131714E1,8.708509E0,2.220343E1,1.617172E1,5.1806206E1,7.673828E1,6.524921E1,2.0364062E2,9.808087E1,1.4892242E1,0E0,3.9236942E1,0E0,0E0,0E0,0E0,0E0,0E0,0E0,0E0,0E0,0E0,0E0,0E0,0E0,0E0,0E0,0E0,0E0,0E0,0E0,0E0,0E0,0E0,0E0,0E0,0E0,0E0,0E0,0E0,0E0,0E0],"parents":[2147483647,0,0,1,1,2,2,3,3,4,4,5,5,6,6,7,7,8,8,9,9,10,10,11,11,12,12,13,13,14,14,15,15,16,16,17,17,18,18,19,19,20,20,21,21,22,22,23,23,24,24,25,25,26,26,27,27,28,28,30,30],"right_children":[2,4,6,8,10,12,14,16,18,20,22,24,26,28,30,32,34,36,38,40,42,44,46,48,50,52,54,56,58,-1,60,-1,-1,-1,-1,-1,-1,-1,-1,-1,-1,-1,-1,-1,-1,-1,-1,-1,-1,-1,-1,-1,-1,-1,-1,-1,-1,-1,-1,-1,-1],"split_conditions":[7.6628594E3,1.947354E1,9.31205E3,1.7805E3,8.159E1,2.903869E1,8.666E1,4.1503075E1,9.33E1,6.675473E10,2.70228E1,2.720738E1,8.646054E3,1.0798042E4,2.5572038E8,1.8315E1,1.9479558E9,1.9399328E1,2.3113877E3,-3.95687E-1,2.07864E1,3.826456E10,1.7440449E1,2.1340424E1,7.917858E3,4.6179798E-1,2.1503E3,3.6897403E-1,7.972473E1,-1.4737558E-2,3.1716288E1,1.12948585E-2,1.5795244E-2,1.3096895E-2,-1.8748618E-3,8.7763666E-4,-7.972598E-3,1.3100458E-2,-5.699775E-4,-1.0514442E-2,1.7060772E-2,1.2886443E-2,-9.640036E-3,1.1175094E-2,-1.3464333E-2,-1.1136721E-2,9.149837E-5,-2.8443069E-3,1.7743919E-2,-5.84641E-3,-1.4064425E-2,1.4288597E-2,-1.2370328E-2,-8.142395E-3,4.379849E-3,-8.229221E-3,1.1150962E-5,-1.5047722E-2,5.3058797E-3,1.6731543E-3,1.3258125E-2],"split_indices":[4,3,4,2,1,3,1,22,1,18,3,3,4,4,18,3,18,22,4,33,3,18,21,11,4,33,2,33,9,0,22,0,0,0,0,0,0,0,0,0,0,0,0,0,0,0,0,0,0,0,0,0,0,0,0,0,0,0,0,0,0],"split_type":[0,0,0,0,0,0,0,0,0,0,0,0,0,0,0,0,0,0,0,0,0,0,0,0,0,0,0,0,0,0,0,0,0,0,0,0,0,0,0,0,0,0,0,0,0,0,0,0,0,0,0,0,0,0,0,0,0,0,0,0,0],"sum_hessian":[7.3578433E3,3.6034817E3,3.7543616E3,2.8305269E3,7.7295465E2,1.6273341E3,2.1270273E3,8.6865564E2,1.9618712E3,5.616081E2,2.1134656E2,7.1147565E2,9.158585E2,1.9876721E3,1.3935516E2,7.5832935E2,1.1032631E2,1.0980377E3,8.638335E2,5.5542175E2,6.186372E0,1.2430091E2,8.704565E1,2.3898476E2,4.7249088E2,1.956218E2,7.202367E2,1.8074702E3,1.8020193E2,8.121246E0,1.3123392E2,3.5068784E2,4.0764148E2,4.3344406E1,6.69819E1,1.7854439E2,9.1949335E2,2.902024E2,5.736311E2,1.2460214E0,5.541757E2,1.4922994E0,4.6940727E0,1.2133973E2,2.9611804E0,1.4582162E1,7.2463486E1,2.2706262E2,1.1922136E1,1.9657985E2,2.7591104E2,1.8670607E2,8.915731E0,1.6880196E2,5.5143475E2,1.6491764E3,1.5829387E2,1.7699414E2,3.2077994E0,8.8254974E1,4.2978935E1],"tree_param":{"num_deleted":"0","num_feature":"44","num_nodes":"61","size_leaf_vector":"1"}},{"base_weights":[-8.785092E-3,3.226872E-1,-7.532862E-1,1.2610793E0,1.390619E-1,-8.309624E-1,3.9349002E-1,9.868224E-1,1.5476336E0,9.4944674E-1,-4.5945175E-2,-7.675569E-1,-1.4967116E0,5.406232E-1,-1.4269716E-2,1.605852E0,4.3364856E-1,1.646458E0,8.3771104E-1,-5.696021E-1,1.168711E0,-1.7123348E-1,5.4666924E-1,-1.0113406E0,-6.233451E-1,-1.5216047E0,9.297383E-3,-2.7999708E-1,8.9995486E-1,1.759843E-2,6.7253998E-3,5.79013E-3,-1.4533877E-2,1.7095102E-2,8.989205E-3,1.6488146E-2,-9.228682E-3,2.8476443E-3,-1.0471439E-2,1.7220305E-2,4.531697E-3,-6.265463E-5,-1.0274788E-2,1.4014087E-2,4.8434557E-4,-1.19814705E-2,-6.237101E-3,-1.175076E-2,-5.414205E-3,-1.0047959E-2,-1.5759006E-2,-6.8045096E-3,9.448769E-3,-1.3207417E-2,1.0444032E-2],"categories":[],"categories_nodes":[],"categories_segments":[],"categories_sizes":[],"default_left":[0,0,0,0,0,0,0,0,0,0,0,0,0,0,0,0,0,0,0,0,0,0,0,0,0,0,0,0,0,0,0,0,0,0,0,0,0,0,0,0,0,0,0,0,0,0,0,0,0,0,0,0,0,0,0],"id":9,"left_children":[1,3,5,7,9,11,13,15,17,19,21,23,25,27,-1,29,31,33,35,37,39,41,43,45,47,49,-1,51,53,-1,-1,-1,-1,-1,-1,-1,-1,-1,-1,-1,-1,-1,-1,-1,-1,-1,-1,-1,-1,-1,-1,-1,-1,-1,-1],"loss_changes":[1.8145498E3,8.764997E2,2.0210266E2,6.3899414E1,6.3816125E2,8.841675E1,3.944252E1,1.4591296E2,2.7060425E1,2.641656E2,2.574415E2,6.755017E1,1.2495636E1,3.985507E1,0E0,2.7801453E1,6.3237843E1,1.518634E1,7.516364E1,4.128579E1,2.730622E2,4.04251E2,2.576364E2,5.133258E1,5.455905E1,3.5227356E0,0E0,2.1078693E1,3.1417519E1,0E0,0E0,0E0,0E0,0E0,0E0,0E0,0E0,0E0,0E0,0E0,0E0,0E0,0E0,0E0,0E0,0E0,0E0,0E0,0E0,0E0,0E0,0E0,0E0,0E0,0E0],"parents":[2147483647,0,0,1,1,2,2,3,3,4,4,5,5,6,6,7,7,8,8,9,9,10,10,11,11,12,12,13,13,15,15,16,16,17,17,18,18,19,19,20,20,21,21,22,22,23,23,24,24,25,25,27,27,28,28],"right_children":[2,4,6,8,10,12,14,16,18,20,22,24,26,28,-1,30,32,34,36,38,40,42,44,46,48,50,-1,52,54,-1,-1,-1,-1,-1,-1,-1,-1,-1,-1,-1,-1,-1,-1,-1,-1,-1,-1,-1,-1,-1,-1,-1,-1,-1,-1],"split_conditions":[9.157451E3,1.7736E3,8.666E1,1.84429E1,7.72E1,1.0798042E4,1.0098946E4,3.019984E3,1.1701198E0,1.91207E1,2.89766E1,-5.026364E-2,3.5557276E-1,-2.0563487E-2,-1.4269716E-2,3.4207083E-2,4.7482863E-1,1.22875084E2,4.484376E3,4.9840737E3,7.6286597E3,2.720738E1,8.496655E3,3.58997E1,7.177E1,3.22326E1,9.297383E-3,7.448508E9,2.6569054E8,1.759843E-2,6.7253998E-3,5.79013E-3,-1.4533877E-2,1.7095102E-2,8.989205E-3,1.6488146E-2,-9.228682E-3,2.8476443E-3,-1.0471439E-2,1.7220305E-2,4.531697E-3,-6.265463E-5,-1.0274788E-2,1.4014087E-2,4.8434557E-4,-1.19814705E-2,-6.237101E-3,-1.175076E-2,-5.414205E-3,-1.0047959E-2,-1.5759006E-2,-6.8045096E-3,9.448769E-3,-1.3207417E-2,1.0444032E-2],"split_indices":[4,2,1,3,1,4,4,4,33,3,3,33,32,33,0,31,32,27,4,4,4,3,4,3,1,3,0,18,18,0,0,0,0,0,0,0,0,0,0,0,0,0,0,0,0,0,0,0,0,0,0,0,0,0,0],"split_type":[0,0,0,0,0,0,0,0,0,0,0,0,0,0,0,0,0,0,0,0,0,0,0,0,0,0,0,0,0,0,0,0,0,0,0,0,0,0,0,0,0,0,0,0,0,0,0,0,0,0,0,0,0,0,0],"sum_hessian":[7.3508755E3,5.0867026E3,2.264173E3,8.3151105E2,4.2551914E3,2.1207974E3,1.4337566E2,4.271427E2,4.0436832E2,7.9011707E2,3.4650745E3,1.9383436E3,1.824537E2,1.3330473E2,1.0070914E1,2.0067465E2,2.2646806E2,3.5379874E2,5.056959E1,9.946084E1,6.906562E2,2.860937E3,6.041374E2,7.1821686E2,1.2201267E3,1.8097003E2,1.4836684E0,4.066263E1,9.264211E1,1.7149364E2,2.9181019E1,2.1091385E2,1.5554208E1,3.2509152E2,2.8707212E1,3.4663506E1,1.5906088E1,3.5805386E1,6.3655453E1,3.8868445E2,3.0197174E2,2.3996226E3,4.613145E2,2.2180693E2,3.8233047E2,4.8324225E2,2.3497461E2,1.560236E2,1.0641031E3,1.9059618E1,1.6191042E2,3.097899E1,9.683637E0,5.1606574E0,8.748145E1],"tree_param":{"num_deleted":"0","num_feature":"44","num_nodes":"55","size_leaf_vector":"1"}},{"base_weights":[-6.60281E-3,4.7205824E-1,-5.007385E-1,2.5090727E-1,1.1467745E0,-1.1837955E-1,-7.4095803E-1,5.6986886E-1,-8.4262156E-1,1.5790228E0,3.6129096E-1,-8.4125215E-1,4.2250365E-1,-8.1780845E-1,4.2866468E-1,-5.947006E-1,7.2786725E-1,-1.6112044E-1,-9.793357E-1,1.6543075E0,4.3678296E-1,8.858286E-1,-1.6884086E-1,-2.5256228E-1,-1.110311E0,1.384724E0,1.6598785E-1,-7.5389516E-1,-1.4713618E0,-6.269875E-1,6.8863094E-1,-7.1797036E-3,1.498464E-2,8.234634E-3,-6.286562E-3,3.1915118E-3,-9.177823E-3,1.0624729E-2,-1.0182973E-2,1.6756237E-2,-2.7368201E-3,5.1153003E-4,1.55289015E-2,-4.4716657E-3,1.020642E-2,-9.612209E-3,1.6354301E-4,-3.8469513E-3,1.3425808E-2,-6.0084313E-3,-1.3653864E-2,1.4865064E-2,-9.324386E-3,-6.5274783E-3,4.846022E-3,-1.0088999E-2,-5.9968424E-3,-1.5103069E-2,8.273889E-3,1.2252841E-3,-1.1797527E-2,-1.4580433E-2,8.018057E-3],"categories":[],"categories_nodes":[],"categories_segments":[],"categories_sizes":[],"default_left":[0,0,0,0,0,0,0,0,0,0,0,0,0,0,0,0,0,0,0,0,0,0,0,0,0,0,0,0,0,0,0,0,0,0,0,0,0,0,0,0,0,0,0,0,0,0,0,0,0,0,0,0,0,0,0,0,0,0,0,0,0,0,0],"id":10,"left_children":[1,3,5,7,9,11,13,15,17,19,21,23,25,27,29,31,33,35,37,39,41,43,45,47,49,51,53,55,57,59,61,-1,-1,-1,-1,-1,-1,-1,-1,-1,-1,-1,-1,-1,-1,-1,-1,-1,-1,-1,-1,-1,-1,-1,-1,-1,-1,-1,-1,-1,-1,-1,-1],"loss_changes":[1.7368826E3,5.5629675E2,3.3179218E2,9.8079395E2,3.1196863E2,5.4592645E2,1.9980017E2,4.0091064E2,5.9012756E1,5.0312256E1,9.1370865E1,9.436575E1,1.9693768E2,8.587634E1,3.8155968E1,6.830743E1,2.4910394E2,3.928992E1,4.314615E1,2.3326172E1,1.6299988E1,3.0117416E1,2.4080906E1,4.0295696E1,5.243579E1,4.1007355E1,1.6513347E2,7.407214E1,1.7763336E1,1.1614996E1,2.8082024E1,0E0,0E0,0E0,0E0,0E0,0E0,0E0,0E0,0E0,0E0,0E0,0E0,0E0,0E0,0E0,0E0,0E0,0E0,0E0,0E0,0E0,0E0,0E0,0E0,0E0,0E0,0E0,0E0,0E0,0E0,0E0,0E0],"parents":[2147483647,0,0,1,1,2,2,3,3,4,4,5,5,6,6,7,7,8,8,9,9,10,10,11,11,12,12,13,13,14,14,15,15,16,16,17,17,18,18,19,19,20,20,21,21,22,22,23,23,24,24,25,25,26,26,27,27,28,28,29,29,30,30],"right_children":[2,4,6,8,10,12,14,16,18,20,22,24,26,28,30,32,34,36,38,40,42,44,46,48,50,52,54,56,58,60,62,-1,-1,-1,-1,-1,-1,-1,-1,-1,-1,-1,-1,-1,-1,-1,-1,-1,-1,-1,-1,-1,-1,-1,-1,-1,-1,-1,-1,-1,-1,-1,-1],"split_conditions":[7.737359E3,1.947354E1,9.232852E3,4.9840737E3,8.11E1,2.903869E1,8.666E1,1.376228E1,1.86568E1,7.6628594E3,2.70228E1,2.720738E1,8.646054E3,1.0798042E4,-2.0689705E1,6.937643E1,1.885039E1,5.5488374E9,-1.9594175E-1,6.675473E10,2.91255E1,4.6040494E-2,1.7348003E1,1.6368177E1,7.917858E3,4.6179798E-1,3.194499E1,-5.026364E-2,8.066669E1,9.715849E3,2.6569054E8,-7.1797036E-3,1.498464E-2,8.234634E-3,-6.286562E-3,3.1915118E-3,-9.177823E-3,1.0624729E-2,-1.0182973E-2,1.6756237E-2,-2.7368201E-3,5.1153003E-4,1.55289015E-2,-4.4716657E-3,1.020642E-2,-9.612209E-3,1.6354301E-4,-3.8469513E-3,1.3425808E-2,-6.0084313E-3,-1.3653864E-2,1.4865064E-2,-9.324386E-3,-6.5274783E-3,4.846022E-3,-1.0088999E-2,-5.9968424E-3,-1.5103069E-2,8.273889E-3,1.2252841E-3,-1.1797527E-2,-1.4580433E-2,8.018057E-3],"split_indices":[4,3,4,4,1,3,1,3,3,4,3,3,4,4,20,9,3,18,32,18,3,32,21,11,4,33,3,33,9,4,18,0,0,0,0,0,0,0,0,0,0,0,0,0,0,0,0,0,0,0,0,0,0,0,0,0,0,0,0,0,0,0,0],"split_type":[0,0,0,0,0,0,0,0,0,0,0,0,0,0,0,0,0,0,0,0,0,0,0,0,0,0,0,0,0,0,0,0,0,0,0,0,0,0,0,0,0,0,0,0,0,0,0,0,0,0,0,0,0,0,0,0,0,0,0,0,0,0,0],"sum_hessian":[7.3413823E3,3.7291052E3,3.6122773E3,2.8095833E3,9.195219E2,1.3943594E3,2.217918E3,2.1755078E3,6.3407544E2,5.9247516E2,3.2704675E2,5.965434E2,7.97816E2,2.081456E3,1.3646187E2,2.595633E2,1.9159445E3,1.0631059E2,5.2776483E2,5.5541925E2,3.7055885E1,1.6405348E2,1.6299329E2,1.8773203E2,4.0881137E2,1.669961E2,6.308199E2,1.8979978E3,1.8345837E2,2.6685896E1,1.0977597E2,2.4574782E2,1.3815487E1,1.7901808E3,1.2576367E2,6.538644E1,4.0924152E1,9.390287E0,5.183746E2,5.4947504E2,5.9442215E0,2.8317606E1,8.738279E0,1.485497E1,1.4919852E2,3.0084171E1,1.329091E2,1.7407172E2,1.3660308E1,1.3751175E2,2.7129962E2,1.6031276E2,6.6833324E0,1.764225E2,4.5439737E2,7.131626E2,1.1848352E3,1.8073929E2,2.7190857E0,1.1657446E1,1.5028451E1,4.9025407E0,1.0487343E2],"tree_param":{"num_deleted":"0","num_feature":"44","num_nodes":"63","size_leaf_vector":"1"}},{"base_weights":[-8.5051455E-5,1.2234395E0,-1.6629626E-1,1.3265696E0,2.991573E-1,5.3547133E-2,-6.700326E-1,1.1077915E0,1.5436481E0,1.1703314E0,-2.5188148E-1,1.0600308E0,-9.206559E-2,-1.1430649E0,-4.541832E-1,1.5933764E0,6.124667E-1,1.5983375E0,1.546408E-1,-7.334106E-1,1.514341E0,-1.5068763E0,5.893756E-1,-4.9827906E-1,1.3795947E0,-4.6910676E-1,5.5885095E-2,-3.557575E-1,-1.2533845E0,3.648246E-1,-7.380816E-1,1.7511375E-2,5.339163E-3,1.3055737E-2,2.9914316E-3,7.6479847E-3,1.6415698E-2,9.935406E-3,-7.0552677E-3,2.8679532E-3,-1.0623559E-2,1.9402453E-3,1.6970059E-2,-2.1269596E-3,-1.6216105E-2,1.4016859E-2,-5.698788E-3,-9.893468E-3,1.1442826E-3,1.7339734E-2,2.3743096E-3,2.6135307E-3,-6.666842E-3,1.2186114E-2,-1.05127074E-4,-9.651967E-3,9.917523E-4,-1.5655223E-2,-1.09714735E-2,1.787146E-5,8.691779E-3,-9.825369E-3,-5.443452E-3],"categories":[],"categories_nodes":[],"categories_segments":[],"categories_sizes":[],"default_left":[0,0,0,0,0,0,0,0,0,0,0,0,0,0,0,0,0,0,0,0,0,0,0,0,0,0,0,0,0,0,0,0,0,0,0,0,0,0,0,0,0,0,0,0,0,0,0,0,0,0,0,0,0,0,0,0,0,0,0,0,0,0,0],"id":11,"left_children":[1,3,5,7,9,11,13,15,17,19,21,23,25,27,29,31,33,35,37,39,41,43,45,47,49,51,53,55,57,59,61,-1,-1,-1,-1,-1,-1,-1,-1,-1,-1,-1,-1,-1,-1,-1,-1,-1,-1,-1,-1,-1,-1,-1,-1,-1,-1,-1,-1,-1,-1,-1,-1],"loss_changes":[1.4861526E3,8.291528E1,7.1254034E2,3.5618286E1,4.3030552E1,6.5667145E2,1.9907861E2,9.4031555E1,2.9529541E1,2.3815807E1,5.932945E1,2.8269495E2,2.184014E2,5.269751E1,3.127677E2,3.2299347E1,4.242727E1,1.2331238E1,1.2214823E1,2.311428E0,6.8311615E0,2.9953804E0,3.2682465E1,2.9330046E1,1.899054E2,1.5940886E2,2.1713434E2,2.1331945E1,2.4434814E1,6.346529E1,4.674774E1,0E0,0E0,0E0,0E0,0E0,0E0,0E0,0E0,0E0,0E0,0E0,0E0,0E0,0E0,0E0,0E0,0E0,0E0,0E0,0E0,0E0,0E0,0E0,0E0,0E0,0E0,0E0,0E0,0E0,0E0,0E0,0E0],"parents":[2147483647,0,0,1,1,2,2,3,3,4,4,5,5,6,6,7,7,8,8,9,9,10,10,11,11,12,12,13,13,14,14,15,15,16,16,17,17,18,18,19,19,20,20,21,21,22,22,23,23,24,24,25,25,26,26,27,27,28,28,29,29,30,30],"right_children":[2,4,6,8,10,12,14,16,18,20,22,24,26,28,30,32,34,36,38,40,42,44,46,48,50,52,54,56,58,60,62,-1,-1,-1,-1,-1,-1,-1,-1,-1,-1,-1,-1,-1,-1,-1,-1,-1,-1,-1,-1,-1,-1,-1,-1,-1,-1,-1,-1,-1,-1,-1,-1],"split_conditions":[1.7805E3,3.7034178E-1,3.26482E1,1.84429E1,1.9863415E9,7.72E1,3.41646E1,1.80767E1,1.1701198E0,5.347824E1,1.827322E1,1.91207E1,1.874E3,2.3314E3,3.446925E1,3.3878308E-2,8.98839E0,8.273E1,1.7127E3,7.17697E-3,8.616E1,4.6652374E1,1.7281E3,3.9440166E1,2.61298E1,1.8079E3,1.45906E1,-1.9235991E-1,3.32451E1,2.6875E3,-5.026364E-2,1.7511375E-2,5.339163E-3,1.3055737E-2,2.9914316E-3,7.6479847E-3,1.6415698E-2,9.935406E-3,-7.0552677E-3,2.8679532E-3,-1.0623559E-2,1.9402453E-3,1.6970059E-2,-2.1269596E-3,-1.6216105E-2,1.4016859E-2,-5.698788E-3,-9.893468E-3,1.1442826E-3,1.7339734E-2,2.3743096E-3,2.6135307E-3,-6.666842E-3,1.2186114E-2,-1.05127074E-4,-9.651967E-3,9.917523E-4,-1.5655223E-2,-1.09714735E-2,1.787146E-5,8.691779E-3,-9.825369E-3,-5.443452E-3],"split_indices":[2,32,3,3,18,1,3,3,33,21,3,3,2,2,3,31,8,1,2,39,1,21,2,17,3,2,3,11,3,2,33,0,0,0,0,0,0,0,0,0,0,0,0,0,0,0,0,0,0,0,0,0,0,0,0,0,0,0,0,0,0,0,0],"split_type":[0,0,0,0,0,0,0,0,0,0,0,0,0,0,0,0,0,0,0,0,0,0,0,0,0,0,0,0,0,0,0,0,0,0,0,0,0,0,0,0,0,0,0,0,0,0,0,0,0,0,0,0,0,0,0,0,0,0,0,0,0,0,0],"sum_hessian":[7.305863E3,8.730142E2,6.4328486E3,7.849908E2,8.8023445E1,4.4789946E3,1.9538538E3,3.940047E2,3.9098608E2,3.3669388E1,5.4354053E1,5.653035E2,3.9136912E3,6.108611E2,1.3429927E3,1.9783907E2,1.9616562E2,3.7602997E2,1.495613E1,4.979728E0,2.8689661E1,2.1495562E1,3.2858494E1,9.610436E1,4.691992E2,1.1023259E3,2.8113652E3,7.559486E1,5.352662E2,3.4562552E2,9.973672E2,1.7162938E2,2.6209694E1,6.008468E1,1.3608095E2,1.9463133E1,3.5656683E2,7.493172E0,7.4629574E0,1.245382E0,3.7343464E0,3.7374268E0,2.4952234E1,1.982878E0,1.9512684E1,1.9197401E1,1.3661091E1,5.3006462E1,4.30979E1,3.5769812E2,1.1150105E2,2.3461447E2,8.677115E2,1.5093373E2,2.6604316E3,3.183127E1,4.376359E1,1.755413E2,3.5972488E2,2.0155107E2,1.4407445E2,4.3916272E2,5.5820447E2],"tree_param":{"num_deleted":"0","num_feature":"44","num_nodes":"63","size_leaf_vector":"1"}},{"base_weights":[-5.2455105E-3,3.102639E-1,-7.159324E-1,1.210604E0,1.24163754E-1,-7.9563946E-1,3.9981773E-1,1.2933426E0,1.2376542E-1,9.377035E-1,-6.264871E-2,-7.326514E-1,-1.4643662E0,-7.518906E-1,6.1457324E-1,1.0769372E0,1.5040959E0,1.344434E0,-5.0861347E-1,-4.537583E-1,1.1507697E0,-1.9388829E-1,5.4088277E-1,-9.886446E-1,-5.780826E-1,-1.5039916E0,8.2469887E-1,1.619765E-2,-1.1607533E0,9.720285E-1,-1.18877545E-1,1.6219443E-2,5.413695E-3,6.166848E-3,1.6267145E-2,5.087485E-3,1.8414803E-2,3.8491446E-3,-1.1088069E-2,-7.526438E-3,5.671763E-3,1.6857326E-2,4.4820444E-3,-4.3844786E-3,3.3005928E-3,1.447889E-2,7.49653E-4,-1.1771651E-2,-6.064262E-3,-1.0811952E-2,-4.7943452E-3,-7.914006E-3,-1.535907E-2,-1.0059044E-3,1.3247867E-2,-3.423993E-4,-1.4578684E-2,1.3492782E-2,2.325455E-4,-8.646631E-3,4.5566736E-3],"categories":[],"categories_nodes":[],"categories_segments":[],"categories_sizes":[],"default_left":[0,0,0,0,0,0,0,0,0,0,0,0,0,0,0,0,0,0,0,0,0,0,0,0,0,0,0,0,0,0,0,0,0,0,0,0,0,0,0,0,0,0,0,0,0,0,0,0,0,0,0,0,0,0,0,0,0,0,0,0,0],"id":12,"left_children":[1,3,5,7,9,11,13,15,17,19,21,23,25,27,29,31,33,35,37,39,41,43,45,47,49,51,53,-1,55,57,59,-1,-1,-1,-1,-1,-1,-1,-1,-1,-1,-1,-1,-1,-1,-1,-1,-1,-1,-1,-1,-1,-1,-1,-1,-1,-1,-1,-1,-1,-1],"loss_changes":[1.648839E3,8.5312616E2,2.0138147E2,7.827197E1,6.416176E2,8.782214E1,3.7910366E1,3.5341064E1,4.916685E1,2.34258E2,2.7209998E2,7.582593E1,1.7628082E1,2.5390118E1,3.371643E1,1.1685791E2,4.3397095E1,8.080341E0,2.3004261E1,3.259121E1,2.5631543E2,3.6166278E2,2.5919904E2,5.1561768E1,5.935031E1,2.8315125E0,1.8546829E0,0E0,7.0667267E0,3.0848969E1,1.8769897E1,0E0,0E0,0E0,0E0,0E0,0E0,0E0,0E0,0E0,0E0,0E0,0E0,0E0,0E0,0E0,0E0,0E0,0E0,0E0,0E0,0E0,0E0,0E0,0E0,0E0,0E0,0E0,0E0,0E0,0E0],"parents":[2147483647,0,0,1,1,2,2,3,3,4,4,5,5,6,6,7,7,8,8,9,9,10,10,11,11,12,12,13,13,14,14,15,15,16,16,17,17,18,18,19,19,20,20,21,21,22,22,23,23,24,24,25,25,26,26,28,28,29,29,30,30],"right_children":[2,4,6,8,10,12,14,16,18,20,22,24,26,28,30,32,34,36,38,40,42,44,46,48,50,52,54,-1,56,58,60,-1,-1,-1,-1,-1,-1,-1,-1,-1,-1,-1,-1,-1,-1,-1,-1,-1,-1,-1,-1,-1,-1,-1,-1,-1,-1,-1,-1,-1,-1],"split_conditions":[9.157451E3,1.7805E3,8.666E1,4.4961834E1,7.72E1,1.0798042E4,1.583362E1,1.84429E1,1.9863415E9,1.91207E1,2.89766E1,-4.5670576E-2,8.066669E1,5.061111E0,9.739648E3,1.80767E1,8.365E1,5.8713432E1,5.0748447E1,1.585149E0,7.6286597E3,9.41E1,8.442755E3,3.58997E1,7.209E1,-3.0775046E-1,8.169303E1,1.619765E-2,2.0104755E1,3.5326663E-2,7.531352E1,1.6219443E-2,5.413695E-3,6.166848E-3,1.6267145E-2,5.087485E-3,1.8414803E-2,3.8491446E-3,-1.1088069E-2,-7.526438E-3,5.671763E-3,1.6857326E-2,4.4820444E-3,-4.3844786E-3,3.3005928E-3,1.447889E-2,7.49653E-4,-1.1771651E-2,-6.064262E-3,-1.0811952E-2,-4.7943452E-3,-7.914006E-3,-1.535907E-2,-1.0059044E-3,1.3247867E-2,-3.423993E-4,-1.4578684E-2,1.3492782E-2,2.325455E-4,-8.646631E-3,4.5566736E-3],"split_indices":[4,2,1,22,1,4,21,3,18,3,3,33,9,5,4,3,1,21,21,10,4,1,4,3,1,33,9,0,23,31,17,0,0,0,0,0,0,0,0,0,0,0,0,0,0,0,0,0,0,0,0,0,0,0,0,0,0,0,0,0,0],"split_type":[0,0,0,0,0,0,0,0,0,0,0,0,0,0,0,0,0,0,0,0,0,0,0,0,0,0,0,0,0,0,0,0,0,0,0,0,0,0,0,0,0,0,0,0,0,0,0,0,0,0,0,0,0,0,0,0,0,0,0,0,0],"sum_hessian":[7.3514E3,5.091564E3,2.259836E3,8.712088E2,4.220355E3,2.1094292E3,1.5040666E2,8.094008E2,6.1807983E1,7.873867E2,3.4329683E3,1.9297588E3,1.7967049E2,2.324505E1,1.2716161E2,4.0235995E2,4.070409E2,2.0708593E1,4.1099392E1,1.0440754E2,6.829792E2,2.8203535E3,6.1261487E2,7.2448584E2,1.205273E3,1.769503E2,2.7201746E0,2.9825847E0,2.0262466E1,8.527609E1,4.188552E1,1.9841718E2,2.0394278E2,5.014716E1,3.5689374E2,8.478019E0,1.2230576E1,1.6658302E1,2.4441088E1,8.096676E1,2.3440779E1,3.8694415E2,2.9603503E2,1.9229526E3,8.9740076E2,2.0718265E2,4.0543222E2,4.8378842E2,2.4069742E2,1.959505E2,1.00932245E3,8.691328E0,1.6825897E2,1.2346373E0,1.4855372E0,4.461587E0,1.5800879E1,6.071327E1,2.4562822E1,1.8006851E1,2.3878668E1],"tree_param":{"num_deleted":"0","num_feature":"44","num_nodes":"61","size_leaf_vector":"1"}},{"base_weights":[9.026237E-4,3.17321E-1,-7.188905E-1,6.895581E-1,5.3375226E-2,-8.0232596E-1,4.308636E-1,2.4309309E-1,1.2591372E0,5.357024E-1,-2.929986E-1,-7.122462E-1,-1.2161433E0,-1.4679824E-2,5.578012E-1,-6.827867E-1,5.167213E-1,9.295951E-1,1.514585E0,2.6599464E-1,1.3553573E0,-5.6668574E-1,1.1622159E-2,-9.8018247E-1,-5.473582E-1,-1.2888087E0,-1.994848E-2,6.9130903E-1,-1.2795237E0,-8.117651E-3,1.1450763E-2,1.4932906E-2,1.3503156E-3,1.0120274E-2,-1.1814998E-2,1.580619E-2,6.4172843E-3,-3.7936335E-3,5.032185E-3,1.4956887E-2,-2.470701E-4,-7.428434E-3,3.3054496E-3,6.298227E-4,-1.1782425E-2,-7.924618E-3,-1.3264999E-2,-7.216792E-3,-3.4226952E-3,-1.39512615E-2,-8.7994775E-3,9.091642E-3,-5.885003E-3,-2.187913E-3,9.664993E-3,1.7253998E-3,-1.54797565E-2],"categories":[],"categories_nodes":[],"categories_segments":[],"categories_sizes":[],"default_left":[0,0,0,0,0,0,0,0,0,0,0,0,0,0,0,0,0,0,0,0,0,0,0,0,0,0,0,0,0,0,0,0,0,0,0,0,0,0,0,0,0,0,0,0,0,0,0,0,0,0,0,0,0,0,0,0,0],"id":13,"left_children":[1,3,5,7,9,11,13,15,17,19,21,23,25,-1,27,29,31,33,35,37,39,41,43,45,47,49,51,53,55,-1,-1,-1,-1,-1,-1,-1,-1,-1,-1,-1,-1,-1,-1,-1,-1,-1,-1,-1,-1,-1,-1,-1,-1,-1,-1,-1,-1],"loss_changes":[1.6703173E3,5.004851E2,2.1517749E2,5.371531E2,4.9831952E2,7.697803E1,3.7496758E1,3.0083252E2,7.675134E1,2.752394E2,1.4475163E2,7.533673E1,3.230078E1,0E0,3.6049904E1,6.4815994E1,3.412542E2,7.220105E1,2.9040771E1,1.439873E2,5.9766052E1,1.4479138E2,5.034623E1,4.1400208E1,3.7842346E1,1.4012085E1,1.2322347E1,3.384601E1,4.189392E0,0E0,0E0,0E0,0E0,0E0,0E0,0E0,0E0,0E0,0E0,0E0,0E0,0E0,0E0,0E0,0E0,0E0,0E0,0E0,0E0,0E0,0E0,0E0,0E0,0E0,0E0,0E0,0E0],"parents":[2147483647,0,0,1,1,2,2,3,3,4,4,5,5,6,6,7,7,8,8,9,9,10,10,11,11,12,12,14,14,15,15,16,16,17,17,18,18,19,19,20,20,21,21,22,22,23,23,24,24,25,25,26,26,27,27,28,28],"right_children":[2,4,6,8,10,12,14,16,18,20,22,24,26,-1,28,30,32,34,36,38,40,42,44,46,48,50,52,54,56,-1,-1,-1,-1,-1,-1,-1,-1,-1,-1,-1,-1,-1,-1,-1,-1,-1,-1,-1,-1,-1,-1,-1,-1,-1,-1,-1,-1],"split_conditions":[9.157451E3,4.7895747E3,8.666E1,2.656286E3,8.058E1,1.0507044E4,2.5572038E8,9.655E1,3.553381E3,2.04041E-3,2.6586222E1,-5.026364E-2,2.1517088E-1,-1.4679824E-2,1.0098946E4,6.6975845E1,2.3113877E3,5.225889E-1,4.250734E1,5.237272E3,7.9869575E3,8.646054E3,3.076854E-2,9.915747E3,6.1973187E9,8.514E1,8.904141E9,-6.460509E-2,4.5871437E-3,-8.117651E-3,1.1450763E-2,1.4932906E-2,1.3503156E-3,1.0120274E-2,-1.1814998E-2,1.580619E-2,6.4172843E-3,-3.7936335E-3,5.032185E-3,1.4956887E-2,-2.470701E-4,-7.428434E-3,3.3054496E-3,6.298227E-4,-1.1782425E-2,-7.924618E-3,-1.3264999E-2,-7.216792E-3,-3.4226952E-3,-1.39512615E-2,-8.7994775E-3,9.091642E-3,-5.885003E-3,-2.187913E-3,9.664993E-3,1.7253998E-3,-1.54797565E-2],"split_indices":[4,4,1,4,1,4,18,1,4,42,21,33,32,0,4,9,4,32,22,4,4,4,40,4,18,1,18,33,37,0,0,0,0,0,0,0,0,0,0,0,0,0,0,0,0,0,0,0,0,0,0,0,0,0,0,0,0],"split_type":[0,0,0,0,0,0,0,0,0,0,0,0,0,0,0,0,0,0,0,0,0,0,0,0,0,0,0,0,0,0,0,0,0,0,0,0,0,0,0,0,0,0,0,0,0,0,0,0,0,0,0,0,0,0,0,0,0],"sum_hessian":[7.331807E3,5.0933486E3,2.2384583E3,2.1125093E3,2.9808396E3,2.0872896E3,1.5116849E2,1.1850409E3,9.274685E2,1.2456791E3,1.7351604E3,1.7163875E3,3.7090222E2,8.810377E0,1.4235811E2,2.699869E2,9.1505396E2,4.0702383E2,5.2044464E2,9.3826666E2,3.0741245E2,9.135339E2,8.216265E2,6.5198816E2,1.0643993E3,3.495883E2,2.1313925E1,1.33296E2,9.062115E0,2.5271092E2,1.7275991E1,2.5632452E2,6.5872943E2,3.92229E2,1.4794825E1,4.8308688E2,3.7357773E1,2.5203001E2,6.8623663E2,2.7896246E2,2.8449984E1,7.6375433E2,1.4977957E2,7.885366E2,3.308986E1,4.2493906E2,2.2704909E2,5.7399603E2,4.9040326E2,2.7552927E2,7.405901E1,7.8638835E0,1.3450042E1,3.0995064E1,1.02300934E2,1.469707E0,7.5924077E0],"tree_param":{"num_deleted":"0","num_feature":"44","num_nodes":"57","size_leaf_vector":"1"}},{"base_weights":[1.253482E-3,4.79816E-1,-4.6070117E-1,2.534357E-1,1.2961931E0,-9.962902E-2,-7.1329546E-1,1.1777427E0,-1.6252959E-1,1.5932043E0,5.4370916E-1,-7.373452E-1,4.4210005E-1,-7.9229313E-1,4.3072718E-1,1.2799803E0,2.881649E-1,-6.0170126E-1,3.7984726E-1,-1.2320582E-2,1.6042356E0,1.0144206E0,-1.0759605E-1,-1.9728884E-1,-1.0016198E0,1.2546744E0,1.921898E-1,-7.106102E-1,-1.2922696E0,8.5609955E-1,-2.903726E-1,1.5738057E-2,1.1142093E-2,1.3326496E-2,-1.3306255E-3,1.3917375E-2,-6.591469E-3,1.3132262E-2,-9.352944E-4,1.7524628E-2,1.4138593E-2,-1.2383351E-2,1.0907854E-2,-1.07702715E-2,6.0636306E-4,-3.545173E-3,1.0701648E-2,-5.4565105E-3,-1.3434057E-2,1.35528315E-2,-1.1414234E-2,-7.4488386E-3,4.827963E-3,-9.736682E-3,-5.4922304E-3,-8.523059E-3,-1.4970723E-2,-4.1352473E-3,1.0636545E-2,-1.0243152E-2,2.7623926E-3],"categories":[],"categories_nodes":[],"categories_segments":[],"categories_sizes":[],"default_left":[0,0,0,0,0,0,0,0,0,0,0,0,0,0,0,0,0,0,0,0,0,0,0,0,0,0,0,0,0,0,0,0,0,0,0,0,0,0,0,0,0,0,0,0,0,0,0,0,0,0,0,0,0,0,0,0,0,0,0,0,0],"id":14,"left_children":[1,3,5,7,9,11,13,15,17,19,21,23,25,27,29,31,33,35,37,-1,39,41,43,45,47,49,51,53,55,57,59,-1,-1,-1,-1,-1,-1,-1,-1,-1,-1,-1,-1,-1,-1,-1,-1,-1,-1,-1,-1,-1,-1,-1,-1,-1,-1,-1,-1,-1,-1],"loss_changes":[1.6245203E3,6.667072E2,3.4094647E2,1.0870962E3,1.7420312E2,5.3241943E2,1.9915088E2,7.943738E1,4.6482144E2,1.94646E1,6.853744E1,1.0082239E2,1.6899812E2,8.313318E1,4.4031975E1,3.6567017E1,4.0541218E1,1.2438187E2,3.8598254E2,0E0,1.3307251E1,2.3656143E1,1.54841385E1,4.6971886E1,7.32926E1,4.8759125E1,1.7425073E2,7.466388E1,2.465625E1,2.416497E1,2.2617596E1,0E0,0E0,0E0,0E0,0E0,0E0,0E0,0E0,0E0,0E0,0E0,0E0,0E0,0E0,0E0,0E0,0E0,0E0,0E0,0E0,0E0,0E0,0E0,0E0,0E0,0E0,0E0,0E0,0E0,0E0],"parents":[2147483647,0,0,1,1,2,2,3,3,4,4,5,5,6,6,7,7,8,8,9,9,10,10,11,11,12,12,13,13,14,14,15,15,16,16,17,17,18,18,20,20,21,21,22,22,23,23,24,24,25,25,26,26,27,27,28,28,29,29,30,30],"right_children":[2,4,6,8,10,12,14,16,18,20,22,24,26,28,30,32,34,36,38,-1,40,42,44,46,48,50,52,54,56,58,60,-1,-1,-1,-1,-1,-1,-1,-1,-1,-1,-1,-1,-1,-1,-1,-1,-1,-1,-1,-1,-1,-1,-1,-1,-1,-1,-1,-1,-1,-1],"split_conditions":[7.6628594E3,1.947354E1,9.232852E3,1.7805E3,8.159E1,2.903869E1,8.666E1,3.7034178E-1,9.33E1,-3.95687E-1,2.70228E1,2.720738E1,8.646054E3,1.0680844E4,9.739648E3,1.3191363E1,1.6929E3,-1.8609169E-1,2.3113877E3,-1.2320582E-2,3.373809E7,4.6040494E-2,1.6816084E1,2.2335298E2,7.917858E3,4.7621915E-1,2.1503E3,-5.026364E-2,3.28385E1,1.5966925E1,6.5382355E1,1.5738057E-2,1.1142093E-2,1.3326496E-2,-1.3306255E-3,1.3917375E-2,-6.591469E-3,1.3132262E-2,-9.352944E-4,1.7524628E-2,1.4138593E-2,-1.2383351E-2,1.0907854E-2,-1.07702715E-2,6.0636306E-4,-3.545173E-3,1.0701648E-2,-5.4565105E-3,-1.3434057E-2,1.35528315E-2,-1.1414234E-2,-7.4488386E-3,4.827963E-3,-9.736682E-3,-5.4922304E-3,-8.523059E-3,-1.4970723E-2,-4.1352473E-3,1.0636545E-2,-1.0243152E-2,2.7623926E-3],"split_indices":[4,3,4,2,1,3,1,32,1,33,3,3,4,4,4,29,2,32,4,0,0,32,21,14,4,33,2,33,3,21,17,0,0,0,0,0,0,0,0,0,0,0,0,0,0,0,0,0,0,0,0,0,0,0,0,0,0,0,0,0,0],"split_type":[0,0,0,0,0,0,0,0,0,0,0,0,0,0,0,0,0,0,0,0,0,0,0,0,0,0,0,0,0,0,0,0,0,0,0,0,0,0,0,0,0,0,0,0,0,0,0,0,0,0,0,0,0,0,0,0,0,0,0,0,0],"sum_hessian":[7.346304E3,3.6082717E3,3.7380325E3,2.82595E3,7.823217E2,1.5392043E3,2.1988281E3,8.7649005E2,1.94946E3,5.601206E2,2.2220113E2,7.068035E2,8.3240076E2,2.0570886E3,1.4173969E2,7.8574677E2,9.074328E1,1.0771577E3,8.723022E2,1.7480052E0,5.583726E2,1.2865907E2,9.3542046E1,2.3280438E2,4.7399915E2,1.9484584E2,6.3755493E2,1.7702911E3,2.8679736E2,8.903265E1,5.270703E1,2.8034586E2,5.054009E2,2.5456663E1,6.528662E1,2.9520775E1,1.047637E3,2.9293478E2,5.7936743E2,3.0932584E2,2.4904677E2,3.7194483E0,1.2493963E2,1.3033734E1,8.0508316E1,2.077528E2,2.5051586E1,2.0419019E2,2.6980896E2,1.874111E2,7.4347386E0,1.5054681E2,4.8700812E2,6.712056E2,1.0990856E3,9.273745E1,1.9405992E2,1.2370334E1,7.6662315E1,2.2610914E1,3.0096117E1],"tree_param":{"num_deleted":"0","num_feature":"44","num_nodes":"61","size_leaf_vector":"1"}},{"base_weights":[9.124838E-3,3.1753558E-1,-6.831546E-1,1.1879921E0,1.3857502E-1,-7.596429E-1,3.805157E-1,1.2651709E0,2.4379738E-1,9.094796E-1,-3.927362E-2,-6.975208E-1,-1.4282441E0,-1.4851313E0,5.187115E-1,1.0472193E0,1.4673973E0,-6.830524E-1,9.326357E-1,-4.8078164E-1,1.106055E0,-4.499594E-1,1.5649627E-1,-7.5846416E-1,-1.0566596E-1,-1.4573972E0,6.076026E-3,-1.559361E-2,-4.9559386E-3,-4.0450117E-1,8.022982E-1,1.6122498E-2,5.6586275E-3,1.5277506E-2,7.0807124E-3,1.4002405E-2,-1.0232956E-2,1.700802E-2,-2.6940908E-3,2.9282086E-3,-8.927932E-3,1.6419636E-2,3.9571747E-3,-1.3755759E-3,-1.1280907E-2,1.4021209E-2,-1.20679855E-4,-9.442268E-3,-6.310353E-3,-1.0072945E-2,1.5582178E-3,-8.882824E-3,-1.5014981E-2,7.39531E-3,-8.875037E-3,9.718754E-3,-1.3058906E-2],"categories":[],"categories_nodes":[],"categories_segments":[],"categories_sizes":[],"default_left":[0,0,0,0,0,0,0,0,0,0,0,0,0,0,0,0,0,0,0,0,0,0,0,0,0,0,0,0,0,0,0,0,0,0,0,0,0,0,0,0,0,0,0,0,0,0,0,0,0,0,0,0,0,0,0,0,0],"id":15,"left_children":[1,3,5,7,9,11,13,15,17,19,21,23,25,27,29,31,33,35,37,39,41,43,45,47,49,51,-1,-1,-1,53,55,-1,-1,-1,-1,-1,-1,-1,-1,-1,-1,-1,-1,-1,-1,-1,-1,-1,-1,-1,-1,-1,-1,-1,-1,-1,-1],"loss_changes":[1.567248E3,7.908986E2,1.8434888E2,6.278882E1,5.776976E2,8.667993E1,4.007228E1,3.37323E1,4.320036E1,2.1638977E2,2.7539624E2,6.96568E1,1.1479889E1,1.8405914E-2,3.7675774E1,1.047843E2,1.782605E1,2.1988926E1,3.6161736E1,3.16701E1,2.6289368E2,2.34088E2,4.8708948E2,4.0894165E1,4.2985615E1,3.0904846E0,0E0,0E0,0E0,1.9548594E1,4.040664E1,0E0,0E0,0E0,0E0,0E0,0E0,0E0,0E0,0E0,0E0,0E0,0E0,0E0,0E0,0E0,0E0,0E0,0E0,0E0,0E0,0E0,0E0,0E0,0E0,0E0,0E0],"parents":[2147483647,0,0,1,1,2,2,3,3,4,4,5,5,6,6,7,7,8,8,9,9,10,10,11,11,12,12,13,13,14,14,15,15,16,16,17,17,18,18,19,19,20,20,21,21,22,22,23,23,24,24,25,25,29,29,30,30],"right_children":[2,4,6,8,10,12,14,16,18,20,22,24,26,28,30,32,34,36,38,40,42,44,46,48,50,52,-1,-1,-1,54,56,-1,-1,-1,-1,-1,-1,-1,-1,-1,-1,-1,-1,-1,-1,-1,-1,-1,-1,-1,-1,-1,-1,-1,-1,-1,-1],"split_conditions":[9.157451E3,1.7805E3,8.666E1,5.3129666E-2,7.72E1,1.0798042E4,2.6569054E8,1.84429E1,1.8315E1,1.91207E1,1.874E3,3.6183035E-1,8.066669E1,2.768952E1,-6.460509E-2,2.8295852E3,1.22875084E2,8.0532915E8,1.7379E3,4.9840737E3,7.6286597E3,5.092273E3,2.3113877E3,-4.5670576E-2,9.524549E3,-2.720269E-1,6.076026E-3,-1.559361E-2,-4.9559386E-3,1.6754477E1,1.0098946E4,1.6122498E-2,5.6586275E-3,1.5277506E-2,7.0807124E-3,1.4002405E-2,-1.0232956E-2,1.700802E-2,-2.6940908E-3,2.9282086E-3,-8.927932E-3,1.6419636E-2,3.9571747E-3,-1.3755759E-3,-1.1280907E-2,1.4021209E-2,-1.20679855E-4,-9.442268E-3,-6.310353E-3,-1.0072945E-2,1.5582178E-3,-8.882824E-3,-1.5014981E-2,7.39531E-3,-8.875037E-3,9.718754E-3,-1.3058906E-2],"split_indices":[4,2,1,31,1,4,18,3,3,3,2,33,9,23,33,4,27,18,2,4,4,4,4,33,4,33,0,0,0,27,4,0,0,0,0,0,0,0,0,0,0,0,0,0,0,0,0,0,0,0,0,0,0,0,0,0,0],"split_type":[0,0,0,0,0,0,0,0,0,0,0,0,0,0,0,0,0,0,0,0,0,0,0,0,0,0,0,0,0,0,0,0,0,0,0,0,0,0,0,0,0,0,0,0,0,0,0,0,0,0,0,0,0,0,0,0,0],"sum_hessian":[7.338503E3,5.077165E3,2.2613376E3,8.6486426E2,4.212301E3,2.1099011E3,1.514367E2,7.991976E2,6.566668E1,7.888461E2,3.4234546E3,1.9323983E3,1.7750264E2,9.771715E0,1.41665E2,3.876173E2,4.115803E2,2.8000153E1,3.766653E1,9.754221E1,6.913039E2,1.1047059E3,2.3187488E3,1.75174E3,1.8065839E2,1.7527682E2,2.22581E0,8.554179E0,1.2175362E0,3.3189774E1,1.0847522E2,1.7723004E2,2.1038725E2,3.8033798E2,3.1242285E1,3.4935992E0,2.4506554E1,2.2727566E1,1.4938964E1,3.3997326E1,6.3544884E1,3.9328308E2,2.9802084E2,7.571189E2,3.4758698E2,2.75511E2,2.0432378E3,7.1012604E2,1.041614E3,3.9973774E1,1.4068462E2,1.4125937E1,1.611509E2,9.695071E0,2.3494705E1,1.0089823E2,7.5769906E0],"tree_param":{"num_deleted":"0","num_feature":"44","num_nodes":"57","size_leaf_vector":"1"}},{"base_weights":[-8.384943E-4,4.6580693E-1,-4.466866E-1,2.4302903E-1,1.2712501E0,-9.9969216E-2,-6.916838E-1,1.0836672E0,-2.3038372E-1,1.5656266E0,5.257119E-1,-7.4595565E-1,4.4348758E-1,-7.6105E-1,3.4422082E-1,-8.8553953E-1,1.1506436E0,4.5651484E-1,-5.9060204E-1,1.5871704E0,-5.9890884E-1,9.701211E-1,-8.711193E-2,-2.1705619E-1,-1.0059084E0,1.0413302E0,7.993136E-2,-7.00162E-1,-1.3972952E0,-5.876373E-1,6.1585504E-1,-1.049189E-2,4.3756473E-3,1.2150909E-2,-1.6786762E-3,-5.27847E-3,1.1254183E-2,1.4612504E-2,-6.359484E-3,-3.5909154E-3,1.5975643E-2,6.2529985E-3,-1.2154702E-2,-1.3123015E-2,1.0627568E-2,-2.2152837E-3,9.865094E-3,-3.2577976E-3,1.6038252E-2,-5.1868693E-3,-1.3596067E-2,1.6546996E-2,7.996338E-3,-7.926119E-3,3.352212E-3,-7.5546107E-3,4.1800722E-5,-1.4274312E-2,1.3177127E-2,-9.0151625E-3,3.898299E-3,7.209132E-3,-1.4212665E-2],"categories":[],"categories_nodes":[],"categories_segments":[],"categories_sizes":[],"default_left":[0,0,0,0,0,0,0,0,0,0,0,0,0,0,0,0,0,0,0,0,0,0,0,0,0,0,0,0,0,0,0,0,0,0,0,0,0,0,0,0,0,0,0,0,0,0,0,0,0,0,0,0,0,0,0,0,0,0,0,0,0,0,0],"id":16,"left_children":[1,3,5,7,9,11,13,15,17,19,21,23,25,27,29,31,33,35,37,39,41,43,45,47,49,51,53,55,57,59,61,-1,-1,-1,-1,-1,-1,-1,-1,-1,-1,-1,-1,-1,-1,-1,-1,-1,-1,-1,-1,-1,-1,-1,-1,-1,-1,-1,-1,-1,-1,-1,-1],"loss_changes":[1.5279777E3,6.4357465E2,3.1896478E2,1.1194006E3,1.6975647E2,5.466718E2,1.5838586E2,1.3466504E2,4.4561203E2,2.6911377E1,6.041536E1,9.75936E1,1.8375491E2,7.893201E1,3.5493935E1,7.7984467E0,8.351428E1,4.0865015E2,1.1082538E2,1.1730225E1,5.449172E0,2.8561485E1,1.3789023E1,4.718675E1,8.1445404E1,4.608188E1,1.1766742E2,7.340723E1,1.653949E1,1.0119572E1,2.4128815E1,0E0,0E0,0E0,0E0,0E0,0E0,0E0,0E0,0E0,0E0,0E0,0E0,0E0,0E0,0E0,0E0,0E0,0E0,0E0,0E0,0E0,0E0,0E0,0E0,0E0,0E0,0E0,0E0,0E0,0E0,0E0,0E0],"parents":[2147483647,0,0,1,1,2,2,3,3,4,4,5,5,6,6,7,7,8,8,9,9,10,10,11,11,12,12,13,13,14,14,15,15,16,16,17,17,18,18,19,19,20,20,21,21,22,22,23,23,24,24,25,25,26,26,27,27,28,28,29,29,30,30],"right_children":[2,4,6,8,10,12,14,16,18,20,22,24,26,28,30,32,34,36,38,40,42,44,46,48,50,52,54,56,58,60,62,-1,-1,-1,-1,-1,-1,-1,-1,-1,-1,-1,-1,-1,-1,-1,-1,-1,-1,-1,-1,-1,-1,-1,-1,-1,-1,-1,-1,-1,-1,-1,-1],"split_conditions":[7.6628594E3,1.947354E1,9.232852E3,1.7959E3,8.159E1,2.903869E1,8.666E1,1.376228E1,2.418287E3,6.675473E10,2.70228E1,2.720738E1,8.828653E3,1.0798042E4,4.0404064E1,2.5129005E1,5.0010737E3,9.792E1,-1.9594175E-1,-3.0492076E-1,2.0305693E-1,4.6040494E-2,2.4758095E2,2.1340424E1,7.917858E3,2.0252E3,2.1503E3,1.7063087E-1,3.3083886E-1,2.3717E3,9.932398E0,-1.049189E-2,4.3756473E-3,1.2150909E-2,-1.6786762E-3,-5.27847E-3,1.1254183E-2,1.4612504E-2,-6.359484E-3,-3.5909154E-3,1.5975643E-2,6.2529985E-3,-1.2154702E-2,-1.3123015E-2,1.0627568E-2,-2.2152837E-3,9.865094E-3,-3.2577976E-3,1.6038252E-2,-5.1868693E-3,-1.3596067E-2,1.6546996E-2,7.996338E-3,-7.926119E-3,3.352212E-3,-7.5546107E-3,4.1800722E-5,-1.4274312E-2,1.3177127E-2,-9.0151625E-3,3.898299E-3,7.209132E-3,-1.4212665E-2],"split_indices":[4,3,4,2,1,3,1,3,4,18,3,3,4,4,17,23,4,1,32,32,10,32,6,11,4,2,2,32,32,2,11,0,0,0,0,0,0,0,0,0,0,0,0,0,0,0,0,0,0,0,0,0,0,0,0,0,0,0,0,0,0,0,0],"split_type":[0,0,0,0,0,0,0,0,0,0,0,0,0,0,0,0,0,0,0,0,0,0,0,0,0,0,0,0,0,0,0,0,0,0,0,0,0,0,0,0,0,0,0,0,0,0,0,0,0,0,0,0,0,0,0,0,0,0,0,0,0,0,0],"sum_hessian":[7.342176E3,3.5873955E3,3.7547803E3,2.8111577E3,7.762377E2,1.5552357E3,2.1995444E3,1.01231067E3,1.7988472E3,5.557136E2,2.2052402E2,7.1041724E2,8.4481854E2,2.061751E3,1.3779346E2,3.289608E1,9.794146E2,6.187288E2,1.1801183E3,5.505012E2,5.2124267E0,1.2748852E2,9.303549E1,2.3471051E2,4.7570673E2,3.18766E2,5.2605255E2,1.8835936E3,1.7815742E2,3.08381E1,1.0695535E2,2.9459393E1,3.4366896E0,9.3384766E2,4.5566917E1,2.5042014E2,3.6830872E2,2.4841808E1,1.1552765E3,2.7461257E0,5.4775507E2,1.741142E0,3.4712846E0,4.458971E0,1.2302955E2,8.338893E1,9.646559E0,2.2226057E2,1.2449938E1,2.0112392E2,2.745828E2,8.845119E1,2.3031479E2,1.18597824E2,4.0745474E2,1.7464075E3,1.3718611E2,1.7667067E2,1.4867625E0,2.3401302E1,7.4367976E0,1.023244E2,4.6309495E0],"tree_param":{"num_deleted":"0","num_feature":"44","num_nodes":"63","size_leaf_vector":"1"}},{"base_weights":[5.2730846E-3,1.0844455E0,-1.6743092E-1,-9.3716556E-1,1.1562924E0,4.3576118E-2,-6.424644E-1,1.2429012E-2,-1.0534056E0,1.2573816E0,1.7936924E-1,8.372341E-1,-1.3742398E-1,-1.0895461E0,-4.3803546E-1,3.1918082E-2,-1.2946122E0,1.6566418E0,1.120777E0,1.1984872E0,-7.109747E-1,-7.744046E-1,1.1243322E0,-5.6703216E-1,2.7023239E-2,-2.715275E-1,-1.2087535E0,2.8242478E-1,-7.189155E-1,1.4615606E-2,-6.9192788E-3,3.850891E-4,-1.4114432E-2,1.7624317E-2,6.961992E-3,4.7036745E-3,1.41566945E-2,-1.5145116E-3,1.5402858E-2,1.7726482E-3,-1.2035425E-2,-9.263802E-3,8.827661E-3,1.597883E-2,4.2946516E-3,-4.146467E-3,-1.3074711E-2,1.16367815E-2,-4.2478667E-4,-8.918066E-3,1.3917058E-3,-1.5120634E-2,-1.0579519E-2,5.036104E-4,8.744044E-3,-5.764045E-3,-1.0132318E-2],"categories":[],"categories_nodes":[],"categories_segments":[],"categories_sizes":[],"default_left":[0,0,0,0,0,0,0,0,0,0,0,0,0,0,0,0,0,0,0,0,0,0,0,0,0,0,0,0,0,0,0,0,0,0,0,0,0,0,0,0,0,0,0,0,0,0,0,0,0,0,0,0,0,0,0,0,0],"id":17,"left_children":[1,3,5,7,9,11,13,-1,15,17,19,21,23,25,27,29,31,33,35,37,39,41,43,45,47,49,51,53,55,-1,-1,-1,-1,-1,-1,-1,-1,-1,-1,-1,-1,-1,-1,-1,-1,-1,-1,-1,-1,-1,-1,-1,-1,-1,-1,-1,-1],"loss_changes":[1.3592587E3,1.47219E2,6.3020306E2,1.0199472E1,9.576941E1,6.2560474E2,1.7626117E2,0E0,8.902157E0,4.6178345E1,8.46182E1,3.7507452E2,2.505647E2,5.8774536E1,2.6907455E2,8.3902445E0,4.371269E0,2.1372498E1,1.25787476E2,2.0266815E1,2.2045315E1,3.1764519E1,2.2532996E2,1.1023407E2,2.0273683E2,2.009122E1,2.2583496E1,5.125426E1,3.952414E1,0E0,0E0,0E0,0E0,0E0,0E0,0E0,0E0,0E0,0E0,0E0,0E0,0E0,0E0,0E0,0E0,0E0,0E0,0E0,0E0,0E0,0E0,0E0,0E0,0E0,0E0,0E0,0E0],"parents":[2147483647,0,0,1,1,2,2,3,3,4,4,5,5,6,6,8,8,9,9,10,10,11,11,12,12,13,13,14,14,15,15,16,16,17,17,18,18,19,19,20,20,21,21,22,22,23,23,24,24,25,25,26,26,27,27,28,28],"right_children":[2,4,6,8,10,12,14,-1,16,18,20,22,24,26,28,30,32,34,36,38,40,42,44,46,48,50,52,54,56,-1,-1,-1,-1,-1,-1,-1,-1,-1,-1,-1,-1,-1,-1,-1,-1,-1,-1,-1,-1,-1,-1,-1,-1,-1,-1,-1,-1],"split_conditions":[1.7959E3,1.376228E1,3.26482E1,6.2396507E0,1.1701198E0,7.857E1,3.41646E1,1.2429012E-2,-1.6291569E-1,1.7944E1,1.7127E3,1.94231E1,1.874E3,2.3314E3,3.4572E1,2.6106028E1,-4.441748E-2,3.5148468E-2,1.8315E1,3.6627815E0,1.9479558E9,5.2228665E0,2.666509E1,1.88834E1,1.45906E1,-1.9235991E-1,3.32451E1,2.7144E3,3.64877E1,1.4615606E-2,-6.9192788E-3,3.850891E-4,-1.4114432E-2,1.7624317E-2,6.961992E-3,4.7036745E-3,1.41566945E-2,-1.5145116E-3,1.5402858E-2,1.7726482E-3,-1.2035425E-2,-9.263802E-3,8.827661E-3,1.597883E-2,4.2946516E-3,-4.146467E-3,-1.3074711E-2,1.16367815E-2,-4.2478667E-4,-8.918066E-3,1.3917058E-3,-1.5120634E-2,-1.0579519E-2,5.036104E-4,8.744044E-3,-5.764045E-3,-1.0132318E-2],"split_indices":[2,3,3,23,33,1,3,0,12,3,2,3,2,2,3,7,11,31,3,14,18,10,3,3,3,11,3,2,3,0,0,0,0,0,0,0,0,0,0,0,0,0,0,0,0,0,0,0,0,0,0,0,0,0,0,0,0],"split_type":[0,0,0,0,0,0,0,0,0,0,0,0,0,0,0,0,0,0,0,0,0,0,0,0,0,0,0,0,0,0,0,0,0,0,0,0,0,0,0,0,0,0,0,0,0,0,0,0,0,0,0,0,0,0,0,0,0],"sum_hessian":[7.291071E3,1.0051195E3,6.285951E3,3.4082085E1,9.710374E2,4.353196E3,1.9327554E3,1.23461E0,3.2847477E1,8.797195E2,9.131793E1,8.077424E2,3.5454534E3,6.050953E2,1.32766E3,6.1305156E0,2.671696E1,2.2142462E2,6.5829486E2,4.2418354E1,4.8899582E1,1.2187787E2,6.858645E2,9.8077954E2,2.5646738E3,7.738001E1,5.277153E2,3.7241257E2,9.552475E2,1.7180655E0,4.41245E0,2.206758E0,2.4510202E1,1.9870306E2,2.2721556E1,2.0616843E2,4.5212643E2,8.682723E0,3.373563E1,1.7672024E1,3.1227558E1,1.1204358E2,9.834295E0,4.0711597E2,2.7874854E2,8.1467584E2,1.6610368E2,1.4687605E2,2.4177979E3,3.0358301E1,4.7021713E1,1.7224632E2,3.5546893E2,2.6831476E2,1.040978E2,6.455998E2,3.0964774E2],"tree_param":{"num_deleted":"0","num_feature":"44","num_nodes":"57","size_leaf_vector":"1"}},{"base_weights":[-8.9834654E-4,1.127949E0,-1.5583885E-1,1.2353132E0,2.3165785E-1,5.767809E-2,-6.01345E-1,1.5246496E0,1.1024255E0,1.1617656E0,-3.201724E-1,8.078593E-1,-1.17396295E-1,-6.3621294E-1,4.0376952E-1,3.0453525E-2,1.5811272E0,-5.3091496E-1,1.1300062E0,-5.929629E-1,1.463354E0,1.208728E0,-7.3792905E-1,3.7815702E-1,1.477454E0,-2.512106E-1,3.191459E-1,-9.938547E-1,-5.0308865E-1,-6.7817396E-1,8.4910107E-1,1.16250515E-2,-8.359234E-3,-1.933357E-3,1.6220463E-2,1.0647677E-2,-1.1519206E-2,1.1632588E-2,8.359799E-5,6.995591E-3,-1.0813381E-2,7.34357E-3,1.6953846E-2,1.5131908E-2,-9.995667E-3,4.5512835E-3,-1.1289239E-2,-5.9775804E-4,6.1486405E-3,1.686588E-2,1.2143995E-2,-6.507946E-3,-1.0839455E-3,-3.5408713E-4,7.233665E-3,-1.1209259E-2,-2.4635135E-3,-3.9522112E-3,-9.411862E-3,-1.3603207E-2,2.6816428E-3,1.3073605E-2,-1.2076506E-3],"categories":[],"categories_nodes":[],"categories_segments":[],"categories_sizes":[],"default_left":[0,0,0,0,0,0,0,0,0,0,0,0,0,0,0,0,0,0,0,0,0,0,0,0,0,0,0,0,0,0,0,0,0,0,0,0,0,0,0,0,0,0,0,0,0,0,0,0,0,0,0,0,0,0,0,0,0,0,0,0,0,0,0],"id":18,"left_children":[1,3,5,7,9,11,13,15,17,19,21,23,25,27,29,31,33,35,37,39,41,43,45,47,49,51,53,55,57,59,61,-1,-1,-1,-1,-1,-1,-1,-1,-1,-1,-1,-1,-1,-1,-1,-1,-1,-1,-1,-1,-1,-1,-1,-1,-1,-1,-1,-1,-1,-1,-1,-1],"loss_changes":[1.2838711E3,8.496521E1,6.140072E2,2.8729248E1,4.964516E1,5.732808E2,7.354852E1,2.073822E1,2.517865E1,1.9899906E1,3.9876453E1,2.3707825E2,2.0683093E2,9.5747986E1,3.465382E1,1.07705765E1,1.7545654E1,1.0878597E1,2.0013855E1,4.535183E0,3.9948196E0,1.0574133E1,2.31655E1,5.232557E1,1.56935425E1,1.5455208E2,1.19096725E2,5.171338E1,6.934155E1,1.4036694E1,2.262402E1,0E0,0E0,0E0,0E0,0E0,0E0,0E0,0E0,0E0,0E0,0E0,0E0,0E0,0E0,0E0,0E0,0E0,0E0,0E0,0E0,0E0,0E0,0E0,0E0,0E0,0E0,0E0,0E0,0E0,0E0,0E0,0E0],"parents":[2147483647,0,0,1,1,2,2,3,3,4,4,5,5,6,6,7,7,8,8,9,9,10,10,11,11,12,12,13,13,14,14,15,15,16,16,17,17,18,18,19,19,20,20,21,21,22,22,23,23,24,24,25,25,26,26,27,27,28,28,29,29,30,30],"right_children":[2,4,6,8,10,12,14,16,18,20,22,24,26,28,30,32,34,36,38,40,42,44,46,48,50,52,54,56,58,60,62,-1,-1,-1,-1,-1,-1,-1,-1,-1,-1,-1,-1,-1,-1,-1,-1,-1,-1,-1,-1,-1,-1,-1,-1,-1,-1,-1,-1,-1,-1,-1,-1],"split_conditions":[1.7805E3,3.7034178E-1,2.3403E3,8.98839E0,1.9863415E9,7.857E1,8.666E1,8.326E1,9.4434E0,5.347824E1,1.6717E3,1.5000796E-3,9.599E1,2.516E3,2.3658E3,8.750216E9,-8.241193E-2,1.6150725E9,5.5259407E-2,3.4602027E-2,3.4953095E-2,1.7977543E1,5.1392933E1,1.8658474E1,3.625016E9,1.874E3,1.8933E3,1.835464E0,2.9391E3,6.5382355E1,3.5326663E-2,1.16250515E-2,-8.359234E-3,-1.933357E-3,1.6220463E-2,1.0647677E-2,-1.1519206E-2,1.1632588E-2,8.359799E-5,6.995591E-3,-1.0813381E-2,7.34357E-3,1.6953846E-2,1.5131908E-2,-9.995667E-3,4.5512835E-3,-1.1289239E-2,-5.9775804E-4,6.1486405E-3,1.686588E-2,1.2143995E-2,-6.507946E-3,-1.0839455E-3,-3.5408713E-4,7.233665E-3,-1.1209259E-2,-2.4635135E-3,-3.9522112E-3,-9.411862E-3,-1.3603207E-2,2.6816428E-3,1.3073605E-2,-1.2076506E-3],"split_indices":[2,32,2,8,18,1,1,1,8,21,2,42,1,2,2,18,30,18,31,31,31,23,21,21,18,2,2,10,2,17,31,0,0,0,0,0,0,0,0,0,0,0,0,0,0,0,0,0,0,0,0,0,0,0,0,0,0,0,0,0,0,0,0],"split_type":[0,0,0,0,0,0,0,0,0,0,0,0,0,0,0,0,0,0,0,0,0,0,0,0,0,0,0,0,0,0,0,0,0,0,0,0,0,0,0,0,0,0,0,0,0,0,0,0,0,0,0,0,0,0,0,0,0,0,0,0,0,0,0],"sum_hessian":[7.338421E3,8.84917E2,6.453504E3,7.899168E2,9.500017E1,4.363221E3,2.0902827E3,2.4531636E2,5.4460046E2,3.4963696E1,6.003647E1,8.2491315E2,3.538308E3,2.0205557E3,6.97271E1,8.9908E0,2.3632555E2,8.740436E0,5.3586E2,4.9862323E0,2.9977465E1,1.2477629E1,4.7558838E1,5.034174E2,3.2149576E2,2.7084922E3,8.298159E2,5.463382E2,1.4742174E3,2.0178967E1,4.954813E1,3.7495925E0,5.241207E0,5.2428937E0,2.3108266E2,2.248443E0,6.4919925E0,5.2039514E2,1.5464846E1,1.2487907E0,3.7374413E0,8.243344E0,2.1734121E1,1.1242384E1,1.2352446E0,1.169856E1,3.586028E1,1.7689345E2,3.2652393E2,1.7608934E2,1.454064E2,7.122199E2,1.9962723E3,4.4255206E2,3.872639E2,4.6653113E2,7.98071E1,1.1844794E3,2.8973813E2,1.1472102E1,8.706865E0,3.3412716E1,1.6135412E1],"tree_param":{"num_deleted":"0","num_feature":"44","num_nodes":"63","size_leaf_vector":"1"}},{"base_weights":[5.4945205E-3,4.3923444E-1,-4.493879E-1,1.1386607E0,2.2755207E-1,-1.0445092E-1,-6.726409E-1,1.2285339E0,3.2267874E-1,-1.8634208E-1,1.0670016E0,-8.3936936E-1,4.309421E-1,-2.2925143E-1,-8.1128955E-1,1.5608957E0,1.1076353E0,-3.4352565E-1,9.7816056E-1,1.8118747E-1,-7.2895294E-1,1.4489723E0,2.909471E-1,-2.4004517E-1,-1.1198089E0,1.3434116E0,1.9181752E-1,-6.015446E-1,2.3673053E-1,-5.869388E-1,-1.1602448E0,1.635641E-2,-2.6453896E-3,7.7498835E-3,1.3469468E-2,5.681458E-3,-9.060024E-3,1.6919762E-2,5.064895E-3,3.7682347E-4,1.4230631E-2,-5.52456E-3,-1.2705907E-2,4.041474E-3,1.4795193E-2,7.003304E-4,1.4718985E-2,-4.0207026E-3,1.0740767E-2,-6.79282E-3,-1.3413001E-2,1.576497E-2,2.6485813E-3,-7.1421885E-3,4.6915696E-3,-8.353712E-3,1.2017003E-3,-6.188913E-3,5.4005897E-3,-1.0577535E-2,-3.9102654E-3,-3.1745285E-3,-1.2733493E-2],"categories":[],"categories_nodes":[],"categories_segments":[],"categories_sizes":[],"default_left":[0,0,0,0,0,0,0,0,0,0,0,0,0,0,0,0,0,0,0,0,0,0,0,0,0,0,0,0,0,0,0,0,0,0,0,0,0,0,0,0,0,0,0,0,0,0,0,0,0,0,0,0,0,0,0,0,0,0,0,0,0,0,0],"id":19,"left_children":[1,3,5,7,9,11,13,15,17,19,21,23,25,27,29,31,33,35,37,39,41,43,45,47,49,51,53,55,57,59,61,-1,-1,-1,-1,-1,-1,-1,-1,-1,-1,-1,-1,-1,-1,-1,-1,-1,-1,-1,-1,-1,-1,-1,-1,-1,-1,-1,-1,-1,-1,-1,-1],"loss_changes":[1.4421229E3,5.537048E2,2.746709E2,6.3335327E1,9.985871E2,5.523995E2,1.3295038E2,2.9712402E1,3.857996E1,3.841158E2,2.8091418E2,9.9173096E1,1.7699052E2,8.9882416E1,1.28448E2,2.8576202E1,4.4905396E1,2.3166794E1,1.4093281E1,2.0466655E2,7.364676E1,1.9693726E1,8.18948E1,4.085972E1,3.8389496E1,4.1945923E1,1.623675E2,4.8673973E1,6.014508E1,9.2375244E1,6.102533E1,0E0,0E0,0E0,0E0,0E0,0E0,0E0,0E0,0E0,0E0,0E0,0E0,0E0,0E0,0E0,0E0,0E0,0E0,0E0,0E0,0E0,0E0,0E0,0E0,0E0,0E0,0E0,0E0,0E0,0E0,0E0,0E0],"parents":[2147483647,0,0,1,1,2,2,3,3,4,4,5,5,6,6,7,7,8,8,9,9,10,10,11,11,12,12,13,13,14,14,15,15,16,16,17,17,18,18,19,19,20,20,21,21,22,22,23,23,24,24,25,25,26,26,27,27,28,28,29,29,30,30],"right_children":[2,4,6,8,10,12,14,16,18,20,22,24,26,28,30,32,34,36,38,40,42,44,46,48,50,52,54,56,58,60,62,-1,-1,-1,-1,-1,-1,-1,-1,-1,-1,-1,-1,-1,-1,-1,-1,-1,-1,-1,-1,-1,-1,-1,-1,-1,-1,-1,-1,-1,-1,-1,-1],"split_conditions":[7.737359E3,1.7805E3,9.232852E3,4.3019146E1,1.94231E1,2.903869E1,3.26482E1,4.3169755E-1,1.84429E1,4.7895747E3,7.4249604E3,2.720738E1,8.646054E3,3.22888E1,9.971947E3,5.1392933E1,1.84429E1,3.1214834E3,3.977479E3,1.7461E1,1.90572E1,1.1418269E-1,2.91255E1,2.2335298E2,7.917858E3,3.2501682E1,2.1503E3,3.624941E0,-5.7127535E-1,3.42306E1,2.3314E3,1.635641E-2,-2.6453896E-3,7.7498835E-3,1.3469468E-2,5.681458E-3,-9.060024E-3,1.6919762E-2,5.064895E-3,3.7682347E-4,1.4230631E-2,-5.52456E-3,-1.2705907E-2,4.041474E-3,1.4795193E-2,7.003304E-4,1.4718985E-2,-4.0207026E-3,1.0740767E-2,-6.79282E-3,-1.3413001E-2,1.576497E-2,2.6485813E-3,-7.1421885E-3,4.6915696E-3,-8.353712E-3,1.2017003E-3,-6.188913E-3,5.4005897E-3,-1.0577535E-2,-3.9102654E-3,-3.1745285E-3,-1.2733493E-2],"split_indices":[4,2,4,22,3,3,3,24,3,4,4,3,4,3,4,21,3,4,4,3,3,36,3,14,4,22,2,10,10,3,2,0,0,0,0,0,0,0,0,0,0,0,0,0,0,0,0,0,0,0,0,0,0,0,0,0,0,0,0,0,0,0,0],"split_type":[0,0,0,0,0,0,0,0,0,0,0,0,0,0,0,0,0,0,0,0,0,0,0,0,0,0,0,0,0,0,0,0,0,0,0,0,0,0,0,0,0,0,0,0,0,0,0,0,0,0,0,0,0,0,0,0,0,0,0,0,0,0,0],"sum_hessian":[7.3072646E3,3.7405789E3,3.5666858E3,8.680498E2,2.872529E3,1.4019977E3,2.1646882E3,7.814719E2,8.657789E1,1.9244493E3,9.4807983E2,5.9065497E2,8.113427E2,5.162875E2,1.6484008E3,2.0526593E2,5.76206E2,4.317378E1,4.3404106E1,1.1477224E3,7.7672687E2,6.347778E2,3.1330206E2,1.8887285E2,4.017821E2,1.6751363E2,6.438291E2,2.8683313E2,2.2945435E2,1.00496765E3,6.4343304E2,1.9729147E2,7.97445E0,2.4286215E2,3.333438E2,1.6469564E1,2.6704212E1,1.6239876E1,2.7164232E1,1.0297588E3,1.1796358E2,5.873532E2,1.8937369E2,1.843573E1,6.1634204E2,2.6482248E2,4.8479584E1,1.6875961E2,2.0113232E1,1.3578477E2,2.6599734E2,1.3736589E2,3.0147736E1,1.505205E2,4.933086E2,2.1652443E2,7.030869E1,5.978209E1,1.6967226E2,2.940089E2,7.1095874E2,7.658332E1,5.6684973E2],"tree_param":{"num_deleted":"0","num_feature":"44","num_nodes":"63","size_leaf_vector":"1"}},{"base_weights":[-5.855251E-3,4.2824557E-1,-4.6116582E-1,1.1255169E0,2.1676932E-1,-1.2025246E-1,-6.7691517E-1,1.2234026E0,2.932247E-1,-1.9853081E-1,1.0549637E0,-8.483901E-1,4.1255477E-1,-7.4585795E-1,3.31171E-1,1.0083834E0,1.4276626E0,1.2423933E0,-3.2987422E-1,-6.3790804E-1,3.4595928E-1,1.4285996E0,2.9210347E-1,-2.3742574E-1,-1.1253264E0,1.3332714E0,1.7362313E-1,-6.848976E-1,-1.3744149E0,-1.4327939E0,4.560251E-1,1.5871197E-2,5.3526587E-3,1.4967877E-2,6.210715E-3,-5.330631E-3,1.4734128E-2,-1.5013998E-2,4.9132975E-3,1.5040202E-2,-6.8806494E-3,1.255188E-2,-1.1031269E-3,1.4545643E-2,-6.8193013E-3,9.1014494E-4,1.4172562E-2,1.775158E-2,-3.3812823E-3,-8.370487E-3,-1.4334264E-2,1.4274909E-2,-1.003628E-2,-7.317283E-3,4.6221474E-3,-9.570225E-3,-5.211141E-3,-1.3993655E-2,1.22661255E-2,-4.7356067E-3,-1.5153708E-2,-3.4941353E-3,7.470564E-3],"categories":[],"categories_nodes":[],"categories_segments":[],"categories_sizes":[],"default_left":[0,0,0,0,0,0,0,0,0,0,0,0,0,0,0,0,0,0,0,0,0,0,0,0,0,0,0,0,0,0,0,0,0,0,0,0,0,0,0,0,0,0,0,0,0,0,0,0,0,0,0,0,0,0,0,0,0,0,0,0,0,0,0],"id":20,"left_children":[1,3,5,7,9,11,13,15,17,19,21,23,25,27,29,31,33,35,37,39,41,43,45,47,49,51,53,55,57,59,61,-1,-1,-1,-1,-1,-1,-1,-1,-1,-1,-1,-1,-1,-1,-1,-1,-1,-1,-1,-1,-1,-1,-1,-1,-1,-1,-1,-1,-1,-1,-1,-1],"loss_changes":[1.4417949E3,5.5040454E2,2.6178882E2,7.042041E1,9.980569E2,5.3616626E2,1.5177325E2,3.2687866E1,5.5258644E1,4.5899356E2,2.703291E2,9.853018E1,1.7536488E2,7.726257E1,3.1542475E1,1.03733826E2,2.1154419E1,1.5946434E1,5.536041E1,1.1508688E2,3.5568536E2,3.5917847E1,7.081151E1,3.7768394E1,3.446289E1,3.7611053E1,1.6622188E2,8.251312E1,1.3362213E1,3.5863876E-2,3.1142088E1,0E0,0E0,0E0,0E0,0E0,0E0,0E0,0E0,0E0,0E0,0E0,0E0,0E0,0E0,0E0,0E0,0E0,0E0,0E0,0E0,0E0,0E0,0E0,0E0,0E0,0E0,0E0,0E0,0E0,0E0,0E0,0E0],"parents":[2147483647,0,0,1,1,2,2,3,3,4,4,5,5,6,6,7,7,8,8,9,9,10,10,11,11,12,12,13,13,14,14,15,15,16,16,17,17,18,18,19,19,20,20,21,21,22,22,23,23,24,24,25,25,26,26,27,27,28,28,29,29,30,30],"right_children":[2,4,6,8,10,12,14,16,18,20,22,24,26,28,30,32,34,36,38,40,42,44,46,48,50,52,54,56,58,60,62,-1,-1,-1,-1,-1,-1,-1,-1,-1,-1,-1,-1,-1,-1,-1,-1,-1,-1,-1,-1,-1,-1,-1,-1,-1,-1,-1,-1,-1,-1,-1,-1],"split_conditions":[7.737359E3,1.7805E3,9.232852E3,3.7034178E-1,1.94231E1,2.903869E1,8.666E1,1.84429E1,1.9479558E9,9.33E1,7.4249604E3,2.720738E1,8.646054E3,1.0798042E4,2.6569054E8,2.8295852E3,1.22875084E2,5.2055332E1,1.827322E1,-1.9594175E-1,2.3113877E3,6.675473E10,2.91255E1,4.7075E0,7.9966577E3,4.6179798E-1,2.1503E3,-5.026364E-2,8.169303E1,-3.1839777E-3,-3.5993263E-2,1.5871197E-2,5.3526587E-3,1.4967877E-2,6.210715E-3,-5.330631E-3,1.4734128E-2,-1.5013998E-2,4.9132975E-3,1.5040202E-2,-6.8806494E-3,1.255188E-2,-1.1031269E-3,1.4545643E-2,-6.8193013E-3,9.1014494E-4,1.4172562E-2,1.775158E-2,-3.3812823E-3,-8.370487E-3,-1.4334264E-2,1.4274909E-2,-1.003628E-2,-7.317283E-3,4.6221474E-3,-9.570225E-3,-5.211141E-3,-1.3993655E-2,1.22661255E-2,-4.7356067E-3,-1.5153708E-2,-3.4941353E-3,7.470564E-3],"split_indices":[4,2,4,32,3,3,1,3,18,1,4,3,4,4,18,4,27,21,3,32,4,18,3,8,4,33,2,33,9,42,33,0,0,0,0,0,0,0,0,0,0,0,0,0,0,0,0,0,0,0,0,0,0,0,0,0,0,0,0,0,0,0,0],"split_type":[0,0,0,0,0,0,0,0,0,0,0,0,0,0,0,0,0,0,0,0,0,0,0,0,0,0,0,0,0,0,0,0,0,0,0,0,0,0,0,0,0,0,0,0,0,0,0,0,0,0,0,0,0,0,0,0,0,0,0,0,0,0,0],"sum_hessian":[7.292663E3,3.733316E3,3.5593472E3,8.6778064E2,2.8655352E3,1.3801227E3,2.1792244E3,7.760407E2,9.173995E1,1.9166539E3,9.488812E2,5.8291504E2,7.972076E2,2.0399713E3,1.3925308E2,3.8095547E2,3.9508524E2,3.59632E1,5.577675E1,1.0606162E3,8.560377E2,6.3634015E2,3.125411E2,1.8239053E2,4.005245E2,1.633114E2,6.338962E2,1.861522E3,1.784494E2,8.512396E0,1.3074068E2,1.7029237E2,2.106631E2,3.6311084E2,3.1974405E1,3.990159E0,3.197304E1,2.2644262E1,3.313249E1,2.3604622E1,1.0370116E3,2.8545358E2,5.705841E2,6.2891376E2,7.4264097E0,2.6606964E2,4.647147E1,7.8989425E0,1.744916E2,2.0883876E2,1.9168576E2,1.5735623E2,5.955167E0,1.5284984E2,4.8104636E2,6.976082E2,1.1639137E3,1.7721149E2,1.237921E0,1.2085365E0,7.303859E0,3.4648697E1,9.609199E1],"tree_param":{"num_deleted":"0","num_feature":"44","num_nodes":"63","size_leaf_vector":"1"}},{"base_weights":[8.866634E-3,1.0973941E0,-1.412805E-1,1.1941133E0,2.3990951E-1,6.485772E-2,-6.168442E-1,9.690178E-1,1.4163567E0,1.0818734E0,-2.8084776E-1,-3.9801648E-1,2.2106946E-1,-1.0593482E0,-4.1229406E-1,1.458366E0,4.617405E-1,1.4682958E0,1.447106E-1,-4.3223014E-1,1.3482726E0,-1.4479396E0,5.4244524E-1,2.872339E-1,-6.0410863E-1,1.10918716E-1,1.2164406E0,-2.971245E-1,-1.1698834E0,3.110965E-1,-6.7573625E-1,1.605618E-2,4.0997267E-3,-3.3158762E-3,8.094094E-3,1.5320316E-2,7.1594743E-3,9.865937E-3,-8.427637E-3,8.26912E-3,-1.0369533E-2,1.4513378E-2,-3.661219E-3,-1.0808295E-3,-1.5164146E-2,1.3362568E-2,-4.7869314E-3,-8.18321E-3,7.962874E-3,-1.3443029E-3,-8.3266115E-3,3.5320553E-3,-9.3893934E-4,1.5608756E-2,6.2632584E-3,-9.597482E-3,1.8575939E-3,-1.2543182E-2,-6.151045E-3,-5.6165265E-4,8.0713695E-3,-8.954284E-3,-5.0306856E-3],"categories":[],"categories_nodes":[],"categories_segments":[],"categories_sizes":[],"default_left":[0,0,0,0,0,0,0,0,0,0,0,0,0,0,0,0,0,0,0,0,0,0,0,0,0,0,0,0,0,0,0,0,0,0,0,0,0,0,0,0,0,0,0,0,0,0,0,0,0,0,0,0,0,0,0,0,0,0,0,0,0,0,0],"id":21,"left_children":[1,3,5,7,9,11,13,15,17,19,21,23,25,27,29,31,33,35,37,39,41,43,45,47,49,51,53,55,57,59,61,-1,-1,-1,-1,-1,-1,-1,-1,-1,-1,-1,-1,-1,-1,-1,-1,-1,-1,-1,-1,-1,-1,-1,-1,-1,-1,-1,-1,-1,-1,-1,-1],"loss_changes":[1.1931299E3,7.3102295E1,6.289438E2,3.8395508E1,4.017953E1,3.237528E2,1.7516107E2,9.815045E1,2.6064209E1,1.4684216E1,5.5539757E1,1.5973561E2,3.668826E2,5.126947E1,2.5335716E2,3.055246E1,5.458618E1,1.7226501E1,1.47323885E1,5.416936E0,5.8273087E0,2.0236511E0,2.8314342E1,1.4805412E2,9.316434E1,1.4964886E2,6.679401E1,2.5434269E1,2.4275879E1,6.477254E1,3.6499115E1,0E0,0E0,0E0,0E0,0E0,0E0,0E0,0E0,0E0,0E0,0E0,0E0,0E0,0E0,0E0,0E0,0E0,0E0,0E0,0E0,0E0,0E0,0E0,0E0,0E0,0E0,0E0,0E0,0E0,0E0,0E0,0E0],"parents":[2147483647,0,0,1,1,2,2,3,3,4,4,5,5,6,6,7,7,8,8,9,9,10,10,11,11,12,12,13,13,14,14,15,15,16,16,17,17,18,18,19,19,20,20,21,21,22,22,23,23,24,24,25,25,26,26,27,27,28,28,29,29,30,30],"right_children":[2,4,6,8,10,12,14,16,18,20,22,24,26,28,30,32,34,36,38,40,42,44,46,48,50,52,54,56,58,60,62,-1,-1,-1,-1,-1,-1,-1,-1,-1,-1,-1,-1,-1,-1,-1,-1,-1,-1,-1,-1,-1,-1,-1,-1,-1,-1,-1,-1,-1,-1,-1,-1],"split_conditions":[1.7805E3,3.7034178E-1,3.26482E1,1.84429E1,1.9479558E9,1.874E3,3.41646E1,1.80767E1,1.1701198E0,5.347824E1,1.827322E1,1.8079E3,6.851112E-3,2.3314E3,3.446925E1,3.4207083E-2,3.0026367E-1,1.22875084E2,1.7281E3,3.4798663E-2,1.5837337E1,4.5044987E9,1.7281E3,1.54802E1,5.8679814E8,2.70228E1,2.60572E1,-1.4552537E-1,3.1968897E1,2.6875E3,-5.026364E-2,1.605618E-2,4.0997267E-3,-3.3158762E-3,8.094094E-3,1.5320316E-2,7.1594743E-3,9.865937E-3,-8.427637E-3,8.26912E-3,-1.0369533E-2,1.4513378E-2,-3.661219E-3,-1.0808295E-3,-1.5164146E-2,1.3362568E-2,-4.7869314E-3,-8.18321E-3,7.962874E-3,-1.3443029E-3,-8.3266115E-3,3.5320553E-3,-9.3893934E-4,1.5608756E-2,6.2632584E-3,-9.597482E-3,1.8575939E-3,-1.2543182E-2,-6.151045E-3,-5.6165265E-4,8.0713695E-3,-8.954284E-3,-5.0306856E-3],"split_indices":[2,32,3,3,18,2,3,3,33,21,3,2,42,2,3,31,33,27,2,31,23,18,2,3,18,3,3,11,23,2,33,0,0,0,0,0,0,0,0,0,0,0,0,0,0,0,0,0,0,0,0,0,0,0,0,0,0,0,0,0,0,0,0],"split_type":[0,0,0,0,0,0,0,0,0,0,0,0,0,0,0,0,0,0,0,0,0,0,0,0,0,0,0,0,0,0,0,0,0,0,0,0,0,0,0,0,0,0,0,0,0,0,0,0,0,0,0,0,0,0,0,0,0,0,0,0,0,0,0],"sum_hessian":[7.2981924E3,8.838927E2,6.4143E3,7.939476E2,8.9945114E1,4.4752974E3,1.9390024E3,3.9710577E2,3.968418E2,3.3960323E1,5.5984787E1,1.1288451E3,3.3464524E3,6.116465E2,1.327356E3,2.0117053E2,1.9593526E2,3.8112067E2,1.5721147E1,4.988013E0,2.8972311E1,2.284344E1,3.3141346E1,2.609154E2,8.679297E2,3.014023E3,3.3242932E2,7.793228E1,5.337142E2,3.5429907E2,9.730569E2,1.7592891E2,2.5241611E1,5.9716785E1,1.3621848E2,3.5039987E2,3.0720789E1,8.486647E0,7.2345004E0,1.4991307E0,3.4888818E0,2.7474077E1,1.4982342E0,1.2360454E0,2.1607395E1,1.8472567E1,1.466878E1,8.206984E1,1.7884558E2,2.8462003E2,5.833097E2,1.3803677E3,1.6336553E3,2.0887134E2,1.2355798E2,3.2435734E1,4.5496548E1,4.621206E2,7.1593605E1,2.0408444E2,1.5021463E2,4.263758E2,5.4668115E2],"tree_param":{"num_deleted":"0","num_feature":"44","num_nodes":"63","size_leaf_vector":"1"}},{"base_weights":[-2.7724588E-3,2.8600007E-1,-6.550012E-1,6.3885075E-1,3.6422353E-2,-7.270144E-1,3.5405084E-1,1.1388964E-1,1.2064365E0,-6.0170364E-1,2.8768036E-1,-6.6822296E-1,-1.3698462E0,7.1819854E-1,-3.440259E-1,4.0760967E-1,-6.844696E-1,8.8671166E-1,1.4401078E0,5.453959E-1,-7.970193E-1,1.3697042E0,-1.8556448E-2,-9.4719654E-1,-5.1007843E-1,-1.3939714E0,3.5945368E-3,-1.4997712E-2,8.9223313E-1,-1.184407E0,1.2808266E-1,-6.218838E-3,9.721053E-3,-6.59591E-4,-1.0875789E-2,1.5110676E-2,3.226275E-3,1.5276383E-2,9.090012E-3,8.794424E-3,-1.5406014E-2,-2.4758957E-3,-9.460518E-3,1.4021436E-2,-9.999263E-3,-5.885272E-3,5.0667897E-3,-1.1005499E-2,-6.2386924E-3,-1.0383462E-2,-4.3116305E-3,-7.1093766E-3,-1.4301206E-2,9.3981443E-4,1.1564286E-2,-1.3921544E-2,-4.2989722E-4,-1.8230575E-3,1.136023E-2],"categories":[],"categories_nodes":[],"categories_segments":[],"categories_sizes":[],"default_left":[0,0,0,0,0,0,0,0,0,0,0,0,0,0,0,0,0,0,0,0,0,0,0,0,0,0,0,0,0,0,0,0,0,0,0,0,0,0,0,0,0,0,0,0,0,0,0,0,0,0,0,0,0,0,0,0,0,0,0],"id":22,"left_children":[1,3,5,7,9,11,13,15,17,19,21,23,25,27,29,31,33,35,37,39,41,43,45,47,49,51,-1,-1,53,55,57,-1,-1,-1,-1,-1,-1,-1,-1,-1,-1,-1,-1,-1,-1,-1,-1,-1,-1,-1,-1,-1,-1,-1,-1,-1,-1,-1,-1],"loss_changes":[1.3777739E3,4.4648468E2,1.633797E2,6.257252E2,4.764937E2,7.828516E1,3.8430702E1,2.5642227E2,7.4118286E1,1.8854349E2,7.0654175E2,8.4311584E1,7.787384E0,3.9567493E1,2.0850306E1,4.6503436E2,7.327014E1,1.5050385E2,2.564148E1,8.6890594E1,5.8545013E1,3.7558044E1,4.981019E2,3.3733643E1,5.0779297E1,3.241272E0,0E0,0E0,1.9390663E1,4.4131794E0,1.0940085E1,0E0,0E0,0E0,0E0,0E0,0E0,0E0,0E0,0E0,0E0,0E0,0E0,0E0,0E0,0E0,0E0,0E0,0E0,0E0,0E0,0E0,0E0,0E0,0E0,0E0,0E0,0E0,0E0],"parents":[2147483647,0,0,1,1,2,2,3,3,4,4,5,5,6,6,7,7,8,8,9,9,10,10,11,11,12,12,13,13,14,14,15,15,16,16,17,17,18,18,19,19,20,20,21,21,22,22,23,23,24,24,25,25,28,28,29,29,30,30],"right_children":[2,4,6,8,10,12,14,16,18,20,22,24,26,28,30,32,34,36,38,40,42,44,46,48,50,52,-1,-1,54,56,58,-1,-1,-1,-1,-1,-1,-1,-1,-1,-1,-1,-1,-1,-1,-1,-1,-1,-1,-1,-1,-1,-1,-1,-1,-1,-1,-1,-1],"split_conditions":[9.157451E3,4.7895747E3,8.666E1,1.7461E1,1.947354E1,1.0798042E4,9.739648E3,2.458687E3,1.84429E1,1.863561E1,7.4249604E3,-5.026364E-2,7.972473E1,2.6569054E8,5.413331E1,9.792E1,1.3696486E7,1.80767E1,4.6178755E3,1.2518305E0,5.3811584E8,6.675473E10,2.89766E1,3.58997E1,7.177E1,-3.0775046E-1,3.5945368E-3,-1.4997712E-2,-5.026364E-2,2.9043201E1,3.4602027E-2,-6.218838E-3,9.721053E-3,-6.59591E-4,-1.0875789E-2,1.5110676E-2,3.226275E-3,1.5276383E-2,9.090012E-3,8.794424E-3,-1.5406014E-2,-2.4758957E-3,-9.460518E-3,1.4021436E-2,-9.999263E-3,-5.885272E-3,5.0667897E-3,-1.1005499E-2,-6.2386924E-3,-1.0383462E-2,-4.3116305E-3,-7.1093766E-3,-1.4301206E-2,9.3981443E-4,1.1564286E-2,-1.3921544E-2,-4.2989722E-4,-1.8230575E-3,1.136023E-2],"split_indices":[4,4,1,3,3,4,4,4,3,3,4,33,9,18,17,1,0,3,4,33,18,18,3,3,1,33,0,0,33,23,31,0,0,0,0,0,0,0,0,0,0,0,0,0,0,0,0,0,0,0,0,0,0,0,0,0,0,0,0],"split_type":[0,0,0,0,0,0,0,0,0,0,0,0,0,0,0,0,0,0,0,0,0,0,0,0,0,0,0,0,0,0,0,0,0,0,0,0,0,0,0,0,0,0,0,0,0,0,0,0,0,0,0,0,0,0,0,0,0,0,0],"sum_hessian":[7.313137E3,5.069286E3,2.2438513E3,2.0994888E3,2.9697974E3,2.094642E3,1.4920915E2,1.091323E3,1.0081658E3,8.385971E2,2.1312002E3,1.9209934E3,1.736487E2,9.8038895E1,5.1170246E1,7.981641E2,2.931588E2,4.2772208E2,5.804437E2,1.21751495E2,7.1684564E2,4.69356E2,1.6618442E3,6.9318915E2,1.2278043E3,1.7145073E2,2.1979747E0,6.5787587E0,9.146014E1,1.7863466E1,3.330678E1,2.8262598E2,5.1553815E2,1.1613336E2,1.7702544E2,2.0221823E2,2.2550383E2,4.967063E2,8.373741E1,1.05444305E2,1.6307188E1,1.5352286E2,5.6332275E2,4.634202E2,5.935767E0,7.969241E2,8.6492017E2,4.6855206E2,2.2463707E2,1.5799722E2,1.0698071E3,9.656642E0,1.6179408E2,2.3080246E1,6.837989E1,1.4926963E1,2.936503E0,2.609128E1,7.2155023E0],"tree_param":{"num_deleted":"0","num_feature":"44","num_nodes":"59","size_leaf_vector":"1"}},{"base_weights":[6.91397E-3,4.434677E-1,-4.2091602E-1,1.092013E0,2.3602057E-1,-9.030614E-2,-6.50226E-1,1.1781806E0,1.2092112E-1,-2.3458178E-1,5.966815E-1,-6.5190214E-1,2.604123E-1,-5.6738424E-1,-1.1736375E0,1.2435358E0,5.389024E-1,1.248438E0,-4.0915263E-1,-7.910322E-3,-9.599086E-1,2.8714E-1,1.4359552E0,-7.337301E-1,8.54344E-1,4.5959774E-1,-9.138214E-2,-1.5767303E-1,-7.3046225E-1,-5.9784013E-1,-1.310067E0,1.5719889E-2,1.1395086E-2,1.1873056E-2,7.1804604E-4,-1.09416675E-2,1.579647E-2,1.5772032E-2,-6.1544143E-3,-2.8650102E-3,7.909947E-3,-3.239871E-3,-1.1328795E-2,1.9165002E-4,8.568913E-3,9.746048E-3,1.5554064E-2,-5.243185E-3,-1.2733716E-2,1.2964328E-2,9.010642E-4,3.3017348E-3,1.0739256E-2,-7.206743E-3,1.490905E-3,-1.2757886E-2,1.192722E-5,-5.752293E-3,-1.1379864E-2,-8.202469E-3,6.030867E-3,-1.3322673E-2,1.3487033E-2],"categories":[],"categories_nodes":[],"categories_segments":[],"categories_sizes":[],"default_left":[0,0,0,0,0,0,0,0,0,0,0,0,0,0,0,0,0,0,0,0,0,0,0,0,0,0,0,0,0,0,0,0,0,0,0,0,0,0,0,0,0,0,0,0,0,0,0,0,0,0,0,0,0,0,0,0,0,0,0,0,0,0,0],"id":23,"left_children":[1,3,5,7,9,11,13,15,17,19,21,23,25,27,29,31,33,35,37,39,41,43,45,47,49,51,53,55,57,59,61,-1,-1,-1,-1,-1,-1,-1,-1,-1,-1,-1,-1,-1,-1,-1,-1,-1,-1,-1,-1,-1,-1,-1,-1,-1,-1,-1,-1,-1,-1,-1,-1],"loss_changes":[1.3659685E3,4.8675824E2,2.799701E2,7.3241455E1,4.6585587E2,2.9834863E2,9.389563E1,3.2979736E1,4.3895546E1,1.9584113E2,4.032188E2,7.239282E1,6.539313E1,1.25815125E2,2.2552887E1,2.314917E1,2.3073982E1,1.993092E1,2.1512106E1,2.0245016E2,3.0830078E1,1.7347311E2,2.1540527E1,6.1802887E1,1.0175823E1,4.7003777E1,5.1254383E1,9.554599E1,8.461395E1,1.6184637E1,1.5922882E1,0E0,0E0,0E0,0E0,0E0,0E0,0E0,0E0,0E0,0E0,0E0,0E0,0E0,0E0,0E0,0E0,0E0,0E0,0E0,0E0,0E0,0E0,0E0,0E0,0E0,0E0,0E0,0E0,0E0,0E0,0E0,0E0],"parents":[2147483647,0,0,1,1,2,2,3,3,4,4,5,5,6,6,7,7,8,8,9,9,10,10,11,11,12,12,13,13,14,14,15,15,16,16,17,17,18,18,19,19,20,20,21,21,22,22,23,23,24,24,25,25,26,26,27,27,28,28,29,29,30,30],"right_children":[2,4,6,8,10,12,14,16,18,20,22,24,26,28,30,32,34,36,38,40,42,44,46,48,50,52,54,56,58,60,62,-1,-1,-1,-1,-1,-1,-1,-1,-1,-1,-1,-1,-1,-1,-1,-1,-1,-1,-1,-1,-1,-1,-1,-1,-1,-1,-1,-1,-1,-1,-1,-1],"split_conditions":[7.6710596E3,1.7805E3,9.232852E3,5.3129666E-2,1.9072E3,2.0022E3,1.0680844E4,4.250734E1,1.6654E3,5.092273E3,2.5676284E-3,1.6368177E1,2.442307E-1,2.414E3,2.3552E3,2.8295852E3,1.9863415E9,-1.15942085E2,7.081137E8,2.656286E3,6.013167E8,5.428271E3,1.3802679E1,8.213756E3,4.772468E-2,3.1428954E-1,3.59108E1,2.0391E3,9.971947E3,3.3785672E0,8.169303E1,1.5719889E-2,1.1395086E-2,1.1873056E-2,7.1804604E-4,-1.09416675E-2,1.579647E-2,1.5772032E-2,-6.1544143E-3,-2.8650102E-3,7.909947E-3,-3.239871E-3,-1.1328795E-2,1.9165002E-4,8.568913E-3,9.746048E-3,1.5554064E-2,-5.243185E-3,-1.2733716E-2,1.2964328E-2,9.010642E-4,3.3017348E-3,1.0739256E-2,-7.206743E-3,1.490905E-3,-1.2757886E-2,1.192722E-5,-5.752293E-3,-1.1379864E-2,-8.202469E-3,6.030867E-3,-1.3322673E-2,1.3487033E-2],"split_indices":[4,2,4,31,2,2,4,22,2,4,42,11,11,2,2,4,18,20,18,4,18,4,23,4,31,12,7,2,4,11,9,0,0,0,0,0,0,0,0,0,0,0,0,0,0,0,0,0,0,0,0,0,0,0,0,0,0,0,0,0,0,0,0],"split_type":[0,0,0,0,0,0,0,0,0,0,0,0,0,0,0,0,0,0,0,0,0,0,0,0,0,0,0,0,0,0,0,0,0,0,0,0,0,0,0,0,0,0,0,0,0,0,0,0,0,0,0,0,0,0,0,0,0,0,0,0,0,0,0],"sum_hessian":[7.31161E3,3.6188909E3,3.692719E3,8.759937E2,2.7428972E3,1.5128896E3,2.1798293E3,8.0440356E2,7.159016E1,1.190215E3,1.5526823E3,5.812657E2,9.3162396E2,1.8837648E3,2.960646E2,7.289371E2,7.5466484E1,2.2460129E1,4.913003E1,9.075941E2,2.826208E2,1.1353018E3,4.173806E2,5.518016E2,2.9464136E1,5.9463574E2,3.3698822E2,5.368839E2,1.3468809E3,5.7743145E1,2.3832147E2,1.7194147E2,5.569956E2,3.0954718E1,4.451177E1,2.496823E0,1.9963306E1,3.997028E0,4.5133003E1,6.734077E2,2.3418643E2,6.1049046E1,2.2157175E2,7.7284015E2,3.6246155E2,8.772477E1,3.2965585E2,3.9895572E2,1.5284586E2,1.8225088E1,1.1239048E1,4.9242993E2,1.02205795E2,9.2618416E1,2.443698E2,6.59176E1,4.7096634E2,9.7709875E2,3.6978207E2,4.898779E1,8.755353E0,2.368428E2,1.4786768E0],"tree_param":{"num_deleted":"0","num_feature":"44","num_nodes":"63","size_leaf_vector":"1"}},{"base_weights":[-5.6082318E-3,4.0779728E-1,-4.4280043E-1,1.082704E0,2.1225727E-1,-1.069599E-1,-6.5416574E-1,1.1803263E0,3.9105088E-1,-1.8960142E-1,1.0068733E0,-8.342621E-1,3.9983007E-1,-2.4193703E-1,-7.838752E-1,1.4838483E0,1.0348213E0,-2.9240355E-1,1.0700454E0,1.0518203E-1,-8.100962E-1,1.4101171E0,2.4806716E-1,-2.2977981E-1,-1.1190931E0,1.2843449E0,1.5781005E-1,-6.695617E-1,1.2418671E-1,-5.469992E-1,-1.1435254E0,1.5566983E-2,2.0619258E-3,7.6076877E-3,1.2920629E-2,7.859281E-3,-8.254512E-3,1.212623E-2,-5.5598007E-3,-5.836467E-3,2.7718043E-3,-2.2577147E-3,-9.6836835E-3,1.43580055E-2,-6.2064016E-3,4.412344E-4,1.4510098E-2,-3.978758E-3,1.1242833E-2,-8.281786E-3,-1.3955589E-2,1.38941975E-2,-1.09082395E-2,-7.113819E-3,4.278022E-3,-9.248415E-3,5.709614E-4,5.6439685E-3,-3.989229E-3,-9.741181E-3,-3.702794E-3,-3.5428128E-3,-1.2490962E-2],"categories":[],"categories_nodes":[],"categories_segments":[],"categories_sizes":[],"default_left":[0,0,0,0,0,0,0,0,0,0,0,0,0,0,0,0,0,0,0,0,0,0,0,0,0,0,0,0,0,0,0,0,0,0,0,0,0,0,0,0,0,0,0,0,0,0,0,0,0,0,0,0,0,0,0,0,0,0,0,0,0,0,0],"id":24,"left_children":[1,3,5,7,9,11,13,15,17,19,21,23,25,27,29,31,33,35,37,39,41,43,45,47,49,51,53,55,57,59,61,-1,-1,-1,-1,-1,-1,-1,-1,-1,-1,-1,-1,-1,-1,-1,-1,-1,-1,-1,-1,-1,-1,-1,-1,-1,-1,-1,-1,-1,-1,-1,-1],"loss_changes":[1.3221931E3,4.9599048E2,2.5231549E2,5.6554993E1,9.315405E2,5.069757E2,1.1647809E2,3.1123291E1,4.9475426E1,3.5454395E2,2.9944275E2,9.698596E1,1.733552E2,8.207199E1,1.4073035E2,2.1768433E1,3.4489136E1,3.1447687E1,1.3044411E1,1.559152E2,5.751294E1,3.4248413E1,8.364413E1,4.190715E1,2.9699615E1,4.49505E1,1.4995975E2,4.4889816E1,6.538698E1,7.5292786E1,5.4379395E1,0E0,0E0,0E0,0E0,0E0,0E0,0E0,0E0,0E0,0E0,0E0,0E0,0E0,0E0,0E0,0E0,0E0,0E0,0E0,0E0,0E0,0E0,0E0,0E0,0E0,0E0,0E0,0E0,0E0,0E0,0E0,0E0],"parents":[2147483647,0,0,1,1,2,2,3,3,4,4,5,5,6,6,7,7,8,8,9,9,10,10,11,11,12,12,13,13,14,14,15,15,16,16,17,17,18,18,19,19,20,20,21,21,22,22,23,23,24,24,25,25,26,26,27,27,28,28,29,29,30,30],"right_children":[2,4,6,8,10,12,14,16,18,20,22,24,26,28,30,32,34,36,38,40,42,44,46,48,50,52,54,56,58,60,62,-1,-1,-1,-1,-1,-1,-1,-1,-1,-1,-1,-1,-1,-1,-1,-1,-1,-1,-1,-1,-1,-1,-1,-1,-1,-1,-1,-1,-1,-1,-1,-1],"split_conditions":[7.764459E3,1.7736E3,9.232852E3,4.1503075E1,1.94231E1,2.903869E1,3.26482E1,8.98839E0,1.8315E1,4.9840737E3,7.4249604E3,2.720738E1,8.646054E3,3.2273E1,9.971947E3,1.3804128E0,1.84429E1,1.515621E9,6.1206036E10,1.376228E1,5.544116E8,6.675473E10,2.91255E1,2.2335298E2,7.9966577E3,4.7621915E-1,2.1503E3,3.22168E0,1.0208646E4,3.42306E1,2.3314E3,1.5566983E-2,2.0619258E-3,7.6076877E-3,1.2920629E-2,7.859281E-3,-8.254512E-3,1.212623E-2,-5.5598007E-3,-5.836467E-3,2.7718043E-3,-2.2577147E-3,-9.6836835E-3,1.43580055E-2,-6.2064016E-3,4.412344E-4,1.4510098E-2,-3.978758E-3,1.1242833E-2,-8.281786E-3,-1.3955589E-2,1.38941975E-2,-1.09082395E-2,